2839 128
Bacillota -0.05628711 0.00045751288 -0.15227135 -0.41689897 0.2627273 -0.08046755 0.5553803 0.17914382 -0.23363627 -0.24041396 0.6327643 0.14263766 -0.008761186 -0.05910508 -0.12826197 -0.19565499 0.023183271 0.015648168 0.056415997 -0.79011095 -0.011836052 0.6236004 0.5542775 0.17189173 0.1804548 -0.10103015 0.53093326 0.6390576 0.009007977 -0.023316706 -0.7351673 -0.14766616 -0.0056461017 0.16262893 -0.22752987 -0.16283514 0.2161861 -0.3233134 0.11282982 0.03808517 0.55577755 0.37216014 0.19097897 -0.45095226 0.11864995 -0.11625139 -0.35051706 -0.5647515 0.5471948 -0.21216528 0.11606389 -0.23150073 -0.16296114 0.34512642 0.6346544 -0.2029443 -0.20635785 -0.81105477 0.21847883 0.04775308 0.48941877 0.11097548 -0.25913295 0.10169109 -0.4839558 0.06276496 0.04324035 0.48928633 -0.3374961 -0.2877042 0.7167121 0.25598776 -0.39860842 -0.5962577 -0.027330335 -0.53621763 0.30379876 4.020155e-05 -0.2563733 0.14452519 -0.23138855 -0.08048939 0.35346612 0.3424318 0.39568585 0.09659751 0.28155315 -0.39691356 0.37360826 -0.03320287 -0.036537178 0.03493314 0.3944083 -0.046764873 0.1770859 0.42749837 -0.14617133 -0.7969482 -0.039289612 0.28553045 -0.9035289 0.65824986 0.35813606 0.36444128 0.18158942 -0.49477366 0.15305607 0.0029050005 -0.08011416 -0.43436512 0.30984947 0.12884413 -0.10739054 0.37559468 0.4406058 0.21868826 0.13506205 0.56272143 0.38423955 -1.0393542 -0.31589788 0.09425277 0.3508824 0.11441374 -0.38817665 -0.20527776 0.0642548 0.039784998
Eubacteriales -0.14551945 0.39087328 0.09705877 -0.36861154 -0.44390488 -0.47803003 0.030565977 0.49250445 -0.25595316 -0.017292585 0.67252785 0.52626795 -0.068822265 -0.077291936 0.1218018 -0.18895222 -0.26180252 0.4972362 0.1911691 -0.73620546 -0.111232296 0.35957453 0.6756857 -0.025378548 0.110195614 -0.16072649 -0.14085808 0.27719712 0.06568076 -0.2591421 -0.31339505 0.19993751 0.08229802 0.50604445 0.039413717 -0.013094322 0.36212942 -0.31741288 0.21561061 -0.086125955 0.78180784 0.549254 -0.47277975 -0.526487 -0.07738469 0.15233447 -0.2258489 -0.4804773 0.1466918 0.026225345 0.41909552 -0.07175078 -0.30217257 0.09115271 0.7150209 -0.45842138 0.07362018 -0.7998591 0.19865341 0.2193054 0.7789132 0.12265114 -0.11620022 -0.089971885 -0.23306476 -0.15047134 0.39034128 0.72564095 -0.17291987 -0.20973034 -0.03811121 0.14118135 -0.23170683 -0.5573385 -0.56137526 -0.234661 -0.091045864 -0.01377095 -0.09994561 -0.044585582 -0.31092197 -0.18922225 0.5176042 0.6447423 0.528798 0.23838596 0.29567426 -0.2488913 0.21464211 0.114126414 -0.6689205 0.012621856 0.049012844 0.16525328 0.15901288 0.3648486 -0.16074698 -0.7369925 0.24657652 0.7483623 -0.49210143 0.67548865 0.46447855 0.14903209 -0.09105826 -0.34219745 -0.4546203 0.036764473 -0.49874416 -0.02709546 0.16706493 -0.052658804 -0.4571626 0.06812377 0.1362846 0.516034 -0.10577089 1.0176337 0.38070774 -0.59083265 -0.50146484 0.0069990503 0.31885558 0.4446107 -0.70943874 -0.2127678 -0.5509947 0.54954076
Clostridia -0.21708131 0.31117696 0.12607521 -0.5047629 -0.36173585 -0.46896827 0.14153746 0.28314796 -0.28014746 -0.058576252 0.60163814 0.3695299 -0.093215115 -0.054507285 0.22032377 -0.19767134 -0.26732144 0.5933976 0.00055340066 -0.88143384 0.057437822 0.39026105 0.7681218 0.03922069 0.1900997 -0.22767767 -0.17160952 0.25947347 -0.0973984 -0.20561348 -0.6250365 0.12897697 0.15197577 0.42276543 -0.010964822 -0.045842867 0.36367798 -0.333562 0.14711526 -0.19666836 0.81786937 0.42249903 -0.47080693 -0.41321358 0.004239479 0.23094836 -0.22934406 -0.3600429 0.13899878 -0.12824093 0.4033753 -0.16768013 -0.031835802 -0.031268883 0.63950413 -0.4286867 0.12586881 -0.7987479 0.27875838 0.25223663 0.8286569 -0.02293708 -0.22779627 -0.0908339 -0.2792042 0.082065456 0.5339259 0.8871271 -0.31531525 -0.24887413 0.06376715 0.23613934 -0.26710752 -0.56315905 -0.40700382 -0.3586929 -0.08728098 -0.15659627 -0.13672781 -0.0042631044 -0.36095706 -0.13154155 0.3902176 0.72743785 0.47057405 0.18059227 0.16458161 -0.23798905 0.16646627 0.084358536 -0.6181897 0.11135664 0.122963615 0.1388182 0.0711134 0.18262506 -0.27072033 -0.6317212 0.27074978 0.6714416 -0.50526196 0.8835514 0.35057184 -0.05224691 -0.102277264 -0.24137932 -0.34981444 0.09543234 -0.35637233 -0.18273139 0.105984576 -0.0990367 -0.44044298 0.01358297 0.20340604 0.3173108 -0.034953125 0.8125357 0.43748346 -0.4812428 -0.60657716 -0.0676185 0.5479565 0.44147176 -0.61944 -0.28855747 -0.45799413 0.39305156
Oscillospiraceae 0.29383838 0.99467385 0.6876355 -0.2606575 0.15663946 -0.8871899 -0.05017016 0.115263924 -0.027048634 -0.12359239 0.42795172 -0.34614408 0.96946293 -0.45142588 -0.1293492 0.13257255 -0.7606147 0.32983854 -0.6624429 -0.45073414 0.622444 1.1020192 0.22795968 -0.47700098 -0.35941404 0.4120157 -0.5224927 0.21815597 -0.45584294 0.2811197 -0.8080089 -0.5405649 0.39554676 0.7428871 0.050443523 -0.7584576 0.43146312 -0.47171384 0.58195144 0.7537224 0.30326298 -0.1724947 0.37856498 0.20014933 -0.47512597 0.26058927 0.5862259 -0.21651441 -0.40470257 -0.8633449 0.33951402 -0.3046446 -0.3225753 0.04527846 0.47785044 -0.6089435 0.35861126 -1.1563382 -0.35797292 0.20275475 0.01148969 -0.5760553 0.5254984 -0.9696999 -0.0780821 -0.78204256 0.57731587 0.47427347 0.5047705 -0.29569906 -0.18054639 0.0028030328 -1.2388734 -0.3503832 -0.09921138 -0.4516758 0.50301397 -0.5982212 -0.08025855 -0.37878898 -0.10130672 0.33078986 0.34920123 0.37171838 0.44763598 0.9619658 -0.32989022 0.23799409 -0.11811129 0.4086018 -0.16732234 0.0112735145 0.23705003 0.4387243 0.13588892 -0.80169225 -0.52373517 -0.8064059 0.4019252 -0.039398484 -0.040751692 -0.63926274 1.1471465 -0.34184194 -0.83917296 -0.7085771 0.026714988 0.09730261 -0.023659738 -0.38272035 -0.56067777 -0.15498987 -0.40332535 -0.0033201165 0.09683842 0.78589004 -0.5236279 0.6910066 -0.12312589 -1.3906991 -0.4211921 -0.22587506 0.552299 0.31419083 -0.8180639 -1.2296107 -0.6002835 0.41466504
Lachnospiraceae 0.00814867 -0.8244256 0.8383404 -0.36316785 -0.8658766 -0.09648946 -0.18072486 -0.57719994 -0.28325957 0.5787168 0.3291671 0.7536008 -0.57271194 0.12027714 -0.1047618 -0.2734704 -0.31707084 0.13668375 0.11295666 -0.43723777 0.6259349 -0.74362844 0.45527917 0.30574006 0.23360132 -0.099302515 -0.038902864 -0.116995946 1.3035424 -0.9388211 -0.6671959 0.29176602 -0.31345236 0.0901382 -0.14090398 0.520855 -0.13622665 -0.44869548 0.46348044 -0.3827533 1.0292586 0.85739636 -1.0506612 -0.2219274 0.5473464 -0.48744065 -0.7312145 -1.1565319 1.3068798 0.24547784 0.29620424 -0.28590652 0.26591638 0.3808268 0.6202256 -0.7314248 -0.4076144 -1.0519695 0.6587315 0.010133119 1.185117 0.16230422 -0.19270538 0.33368006 -0.014142516 0.22111548 0.28195757 0.200535 -0.13525626 -0.6395102 0.68108237 -0.32795578 0.22931379 -0.52647793 -0.11984439 0.6144348 -0.5711278 -0.0030194651 0.18099213 0.2931029 -0.3036178 -0.8539475 1.1767116 0.65223885 1.0017425 -0.5308409 0.10191532 -0.64808387 0.5503193 0.50994575 -0.33642057 0.19434161 -0.3335451 0.55807406 0.23558666 0.083330266 -0.26615283 -0.12243867 -0.105450146 1.2173706 -0.38082752 1.1689159 -0.56068134 0.034387235 0.8623376 0.17038709 -0.51174974 0.17258406 -0.01825279 -0.24130206 0.60480577 -0.62996155 -0.28030917 -0.07912043 -0.044962343 -0.30171317 0.23132594 0.6796032 0.86077666 0.63913274 -0.18999892 0.15116027 -0.61930513 0.41847378 -0.400316 -0.26336154 -0.8077134 -0.42825672
Cytokine-cytokine receptor interaction 0.26800066 -0.27366474 0.7325251 -0.25402194 0.72295666 -0.107173264 -0.1324779 -0.8200815 -0.49846312 -0.071528964 0.32969627 0.031751134 -0.13499556 -0.03628659 -0.65502477 -0.6317415 -0.13657218 -0.35036668 -0.6034709 -0.17427507 -0.16159175 -0.5223251 0.17322727 -0.17138194 -0.4227078 0.26739386 -0.060105994 0.07963693 -0.30192602 -0.5171646 -0.40813905 0.60162634 -0.009794291 0.28436407 0.020607289 0.16987263 0.32188165 0.68806034 0.47773802 1.1105659 0.46871826 0.009311849 -0.23348726 -0.16319689 0.080685705 0.15245399 0.56769305 -0.4434499 0.22904792 -0.25936753 0.37867576 -0.044856947 -0.4445359 0.33565322 0.30359995 -0.4162918 1.0872788 -0.44641387 -0.13270102 0.04409554 0.526365 -0.1923729 0.32684606 0.6898753 0.4590925 -0.29762954 0.14458929 -0.18519524 -0.24305147 -0.43396816 0.18867241 0.1347024 -0.07392577 0.19053385 0.4274333 -0.12079459 0.1355912 -0.11042184 -0.7324035 -0.44654363 0.5368726 0.40485963 0.4076385 -0.19838744 -0.15884618 0.11993569 -0.88903147 -0.4322921 0.11097444 0.13205285 -0.3071048 0.67046046 0.21809259 -0.630282 -0.18880527 0.47502813 -0.6669469 -0.44691393 0.059217904 0.06220008 0.063226886 0.0054931757 -0.16436812 -0.12810424 -0.013851322 0.16236344 -0.22082306 0.39561158 0.4574772 -0.12651189 0.25812486 -0.042063426 0.062484995 0.2787138 0.25527188 0.27300766 0.6076013 0.91630805 0.7230375 0.8147962 0.6926556 -1.1717184 -0.15856193 0.8559027 -0.40990326 0.15235862 -0.71789193 0.4535742
Bacteroidota 0.6247936 0.7296117 0.2957427 -0.21651648 0.54729074 -0.3639483 -0.436677 0.3488544 0.52415735 -0.31285515 0.294211 -0.49116552 -1.1685002 0.12501974 -0.43225384 0.71069807 -0.45817795 0.08211129 -0.891852 1.3108971 0.6974535 -0.25064284 -0.18338242 -0.61550784 -0.7324747 0.81823945 -0.16269049 -0.07371849 0.14247659 -0.33346125 -0.43292427 0.4325916 -0.4423696 -0.012076348 0.47021934 0.26662895 0.86192495 0.74688333 0.33621836 0.40264177 -0.17338389 0.34250948 0.21389064 0.058684666 0.5947787 0.1455688 -0.17282529 -0.37466684 -0.04132485 -0.14003177 0.13000317 -0.06837244 0.0048040454 1.5788231 0.10506152 0.06982488 0.3837652 -0.32934335 0.05698898 -0.84325534 -0.61542207 -1.185611 0.19532254 -0.5493139 1.0212494 0.30042928 0.33751038 0.26514727 -0.6402204 -0.3192163 -0.42059377 -0.96817327 -0.3895935 0.264761 -0.02079344 0.456387 -0.20335709 0.28925708 -0.48274988 -0.2766644 -0.37163353 -0.4353502 0.013001058 -0.1614866 0.0148862805 -0.11437067 -0.029085672 -0.045207433 0.12852423 0.3096483 0.057913426 -0.42998526 -0.5573347 -0.063270554 0.6509136 -0.11472568 -0.5469548 0.3931467 0.51154804 0.38314858 -0.99531543 0.0149060665 -0.2465622 -0.045826547 0.22058733 0.3294118 -0.09467642 0.21103178 -0.85322005 -0.847523 -0.18788093 -0.49114382 -0.3897485 -0.2810947 0.67064565 -0.15623151 0.43642032 0.1388063 0.4771995 0.08337187 0.08319003 -0.19457355 0.054038994 -0.43782493 0.11698972 -0.5420605 0.119801305 0.291418
Bacteroidia 0.60709774 0.43930152 0.17341247 -0.33801642 0.5664094 -0.086740375 -0.5381442 0.25092334 0.27767715 0.055047728 0.20650436 -0.82763207 -0.69568026 0.002834325 -0.30510783 0.5400648 -0.7610481 -0.08400155 -0.78878665 1.4088733 0.6538794 -0.43194556 0.08950041 -0.8446702 -0.7654963 0.8086722 -0.5599872 -0.32571045 0.30014926 -0.27087092 -0.57130396 0.5440202 -0.413018 -0.026848948 0.4561219 -0.06884173 0.95993066 0.8590513 0.1935668 0.26059723 -0.28916168 0.16894826 0.24563718 0.17496967 0.23450142 0.28823948 -0.1309208 -0.21046466 0.24015945 0.11833769 0.55311394 -0.14215581 0.17767213 1.0051001 0.31152174 0.01876704 0.26185656 -0.3185277 -0.020175943 -1.0706806 -0.51525944 -0.543265 0.34742394 -0.80395406 0.64182824 0.578919 0.7303192 0.106045075 -0.46862847 -0.35073426 -0.1210733 -0.5312523 -0.37697595 0.15141958 -0.035492256 0.29607767 -0.20508662 -0.13215987 -0.039154194 -0.57407564 0.008029509 -0.47657156 -0.021638349 -0.04782313 0.21533388 -0.4166945 0.24870183 -0.25054282 0.6419927 0.28904283 -0.04227034 -0.3377196 -0.039817497 -0.103637144 0.26016113 0.08679134 -0.48103303 0.22276494 0.70165265 0.11667797 -0.9948732 -0.20246457 -0.10189511 -0.15907781 0.1083614 0.06061131 0.30633798 0.0432099 -0.632848 -0.8705022 -0.08233002 -0.57090265 -0.47921544 -0.3850383 1.0994948 -0.08447231 0.5883855 0.29225087 1.0271068 0.20171028 0.022999078 -0.3299483 0.09445821 0.05014995 -0.20409358 -0.3170829 -0.12072164 0.35229287
MAPK3 0.08537759 -0.01893637 0.07474146 -0.27843127 1.2245708 0.53559536 -0.37626216 -0.3299427 0.93597776 0.67491657 0.66572875 -0.37341356 0.36408332 -0.31528327 -0.2762035 0.103780165 -0.70003927 -0.20976569 -1.2547922 0.6310569 -0.01558308 -0.4864154 -0.49238205 -0.6914711 -0.93121547 0.28982323 -0.70746887 0.30981427 -0.12390315 -0.0798199 0.17751466 0.46778408 -0.77349895 -0.562597 0.89085907 0.65816057 -0.18327132 -0.3008958 0.12088606 0.30371684 0.043829713 0.45882225 -0.6310064 -0.19710912 1.0569612 -0.4007376 0.049014367 0.73851323 -0.38488874 0.5039892 0.6285377 0.41122547 0.4971239 -0.43007866 -0.24524456 0.2168135 0.5906084 0.12723127 0.44759655 0.050420348 -0.5861016 0.21733424 -0.29497358 0.08205449 0.8211428 0.2899802 0.7379148 -0.019669734 -0.24119098 -0.10913336 -0.07239655 0.012852869 0.07894529 -0.39507416 0.8895243 -1.1646372 0.6443428 0.49489063 -0.37444982 0.19492686 -0.028471721 -1.0786421 -0.0384848 0.4913379 0.37470156 0.35155332 0.46169797 -0.3224224 -0.49910772 0.34877947 0.38165304 -0.5594082 -0.7479011 -0.27530795 -0.081922896 -0.059783086 -0.39572737 -0.92343163 0.4874644 -0.489652 -0.77252585 -0.31013212 -0.4511832 -0.110205784 0.21948132 -0.32284787 -0.3183984 -0.30021247 0.31127077 0.22224627 0.10577596 -0.29740268 -0.050548423 0.289279 -0.48587456 -0.31499505 -0.365207 0.11207648 0.25138444 0.46189842 -0.2558345 -0.45947897 0.42484745 -0.0070814183 -0.38200307 0.8071251 -0.11967174 -0.213548
Bacteroidales 0.5913373 0.5613609 0.021531127 -0.22724046 0.6415191 -0.081727825 -0.5135895 0.2160648 0.06954445 0.11329001 0.2498127 -0.874093 -0.7994229 0.045134075 -0.2178837 0.6135203 -0.8236216 0.034211643 -0.6328561 1.2769483 0.7148399 -0.33881184 0.025898322 -0.70237356 -0.7354975 0.8386334 -0.52483964 -0.26679653 0.30855176 -0.19261971 -0.5934341 0.55459404 -0.42777726 -0.11315609 0.408841 -0.06076574 0.8599142 0.96291524 0.10879107 0.20717251 -0.31426015 0.24260025 0.31212574 0.2036635 0.38315785 0.19557966 -0.23701848 -0.22525471 0.18889163 0.027893279 0.4815213 -0.11514134 0.24064007 1.230655 0.34616286 0.017237745 0.14325933 -0.18263419 -0.17531893 -1.1101148 -0.49399573 -0.6164538 0.57263666 -0.67912185 0.65668255 0.6438114 0.7816226 0.036905468 -0.49787873 -0.30289847 -0.100735195 -0.5661305 -0.4950188 0.17768043 0.20350729 0.15448345 -0.08105022 -0.08664171 -0.2153155 -0.3379441 -0.03470546 -0.38257906 -0.08594525 -0.05724378 0.13746789 -0.36668077 0.08997298 -0.25217047 0.45614412 0.22124204 0.024641275 -0.3981872 -0.09858974 0.023332821 0.1215753 -0.16778137 -0.70398206 0.3818457 0.59194237 0.16285326 -1.0224044 -0.41159943 0.05704202 -0.14677548 0.168592 0.09418791 0.21004279 -0.0009678398 -0.4526231 -0.9309808 -0.14163806 -0.6038886 -0.46080932 -0.4260067 0.8809018 -0.19654924 0.73026943 0.23160174 1.0664474 0.31678572 -0.20358835 -0.35487914 0.1123035 -0.041555602 -0.17755932 -0.3977544 -0.10599378 0.33759695
Actinomycetota -0.15493654 0.5780244 0.530972 0.43790287 -0.093318515 -0.51425755 0.25048643 -0.5118012 0.748892 0.4651477 0.15958573 -1.1557119 0.711037 -0.31085888 -0.6538018 0.58417064 -0.45960903 0.003921507 -0.4182549 0.6427165 -0.52556515 1.0934198 -0.7932832 -0.82250106 -0.4818793 -0.074046776 -0.30428728 -0.062415678 -0.21126877 -0.6329485 -0.4942389 0.42288807 -0.7145928 0.6501465 0.61691236 0.9412607 0.74244696 0.6714045 0.48950946 0.09125066 -0.043727245 -0.1878466 -0.085958615 -0.10401267 0.35336253 0.34094742 -0.81866074 -0.67978513 0.43276438 0.21182385 0.60421234 0.36695832 0.45593235 0.3438783 -0.36690947 -0.662981 -0.30167076 0.21740097 0.124828994 -0.23478249 -0.48579884 -0.3835766 0.39396673 -0.13114376 0.90521955 -0.6278288 -0.31355634 -0.15278417 -0.21698737 -0.46606332 0.109541796 -0.33865875 -0.8203429 0.47743034 0.43485004 -0.3340393 -0.054024793 -0.22492574 -0.17399086 0.47624317 0.42915478 0.061941657 0.62916 1.1506231 0.73729086 0.49615112 0.7825289 0.05334072 0.19593568 0.39315686 -0.14522132 -0.071812935 -0.055118345 -0.42827156 0.68533903 0.5195329 -0.6598155 0.09750198 0.45562688 0.16627215 -0.28451684 0.1119242 -0.23840182 0.17996855 -0.10115841 -0.5359854 0.291329 0.5990798 -0.11002383 -0.47237095 1.4383337 -0.5913547 -0.17752735 -0.33630294 -0.40561363 -0.43208098 0.5433896 0.27678517 -0.3818783 0.5545753 0.3402983 0.20164394 0.14551838 0.20501775 0.135771 -0.128599 -0.67933387 0.4491797
Pseudomonadota 0.99028045 -0.29540154 1.1037213 -0.2706298 0.66385645 -0.74793935 -0.2257065 -0.38347146 0.8426329 0.28279862 -0.07728213 -0.31732124 0.483324 0.7195699 -0.078186296 0.5906234 -0.833001 0.6615047 -0.42125106 0.21226655 0.7030731 -0.24875285 -0.59802943 -0.6778678 -0.269324 0.0704537 0.17605916 -0.18455862 0.012644664 0.13548116 -0.17417692 0.16863249 0.68411 0.016648851 -0.20984471 -0.3056915 0.3486721 0.36735085 0.31802607 0.14757925 0.44548848 0.47000265 -0.07578315 0.25831458 0.29656982 -0.32643288 -0.57341176 -0.36790296 0.8003662 0.850799 0.45608696 0.1509385 -0.45808265 0.5036893 0.3539222 0.028152213 0.13810106 0.097822934 -0.8432119 -0.26207304 0.12238362 -0.6076239 0.04491766 -0.45374095 0.02191646 0.4382011 -0.28876936 -0.06732513 0.09368666 -0.01732465 -0.31231865 -0.65043175 -0.35914475 0.3092554 0.12271342 0.063856736 0.5167934 0.22905225 0.6462987 0.4208781 -0.9521666 -0.36036128 0.9542779 0.84417814 0.1414678 0.61369103 0.4499841 -0.28098783 0.43804902 0.5811802 -0.5386424 -0.15770413 -0.3579376 0.23065005 -0.0744293 0.4237173 -0.3273375 -0.793101 -0.01603451 0.43562207 -1.3678644 0.29630134 0.44663817 -0.17741185 -0.012929408 0.4384739 0.5172676 -0.17189929 -0.057371024 0.121317394 0.38416368 -0.34942004 -0.66642976 0.7287339 -0.7927572 -0.23046368 -0.028935997 0.32660267 -0.15247872 1.0799456 -0.5250836 -0.4079437 0.012644563 -0.28584597 0.028913913 0.12564303 -0.590391 0.31054682
AKT1 0.6576277 -0.908455 -0.1658747 0.2613284 0.9534944 -0.23207593 -1.0277432 0.20792998 0.7958604 0.79683876 -0.14972714 -0.5077121 0.15690057 -0.34997958 -0.24483736 -0.51302886 -0.08261159 0.24262647 -0.7378942 0.4659415 0.58940744 -0.2988885 0.2662508 -0.1267474 -0.7721931 0.6302977 -0.6310383 -0.3483609 0.5368297 -0.50760764 -0.20461139 0.98106116 0.09549989 0.14019457 0.2820551 0.38085157 0.7825638 -0.15067683 0.47262242 0.72695524 0.12543601 0.39308116 -0.5520597 -0.30791298 -0.27778468 -0.44626898 -0.4400729 0.5248414 -0.076182164 0.5580598 0.017985139 -0.18688504 0.39575395 0.6113749 -0.18929265 0.1077309 0.02026741 -0.54681414 -0.08265591 0.8110969 -0.14148906 0.67263216 0.26439297 0.6292798 0.3535114 -0.6750945 0.36027095 -0.12664711 0.56532896 -0.53484386 0.14966911 0.58085704 -0.35178265 0.22017813 0.23625417 -0.7204663 0.2642484 0.70143497 -0.9232072 0.5148632 -0.44131935 -0.59695107 -0.2312733 -0.05227714 0.5931611 0.90219206 0.6395702 0.21210201 -0.54732484 0.7767201 0.77200747 -0.7542475 -0.23631255 0.24039344 -0.016721092 0.04613833 -0.019061187 -0.8549122 0.453118 0.05047642 -0.492432 -0.013349596 -0.80741495 -0.6644087 -0.17522198 -0.36221218 -0.7380929 -0.008536444 0.8122311 -0.008168574 -0.4213135 -0.5379062 0.07254414 0.23330857 -0.7222719 -0.6184326 -0.056633685 -0.3807728 0.53068 0.5677261 -0.46676585 -0.6073211 -0.7348669 -0.11032035 0.109306745 0.5616441 -0.14549705 0.4621066
Bacilli 0.3356866 0.24527994 -0.0992808 0.17433417 1.1218413 -0.030781291 0.8740951 -0.455466 0.15850757 -0.11428787 0.25249907 -1.3109688 0.29275426 -0.060367364 -0.0139786005 -0.032906927 0.02613073 -0.73375636 -1.0675784 -0.63276607 -0.447759 0.42728525 -0.7052204 -0.96002823 -0.486313 0.6161721 0.23015228 0.68697983 0.0033858723 0.39128628 -0.83685184 0.42251113 -0.6449806 0.05019631 -0.8942841 -0.16795452 0.62216556 0.70825106 0.49228084 0.10776058 0.77236146 -0.07852971 0.60161245 0.30331305 0.52361023 -0.3658938 -0.892947 -0.2670777 1.0073457 -0.26744682 0.5824498 -0.5057752 -0.13662979 0.74159706 0.36020347 0.041153494 0.71806663 -0.7413412 -0.6321129 -0.07477657 -0.15935063 -0.23815536 -0.48414165 -0.2996489 0.13889016 0.07661311 -0.39824992 0.4744019 0.34122556 -0.7226193 0.94683194 0.23790453 -0.36592144 -0.29992685 0.88540125 -0.79469806 0.34156072 -0.2633255 -0.16490375 -0.13523063 -0.22136301 -1.0103154 0.5649323 0.11507241 0.7490781 -0.14478219 0.30153456 0.37140322 0.17871712 0.37753755 0.38300034 -0.36647582 -0.17071234 0.3641863 0.424179 0.45857817 -0.043770947 -0.32353345 -0.7211315 -0.045418333 -0.7801959 0.15379691 -0.21950145 0.63456565 0.6468905 -0.30353373 -0.27972287 0.004868186 0.083642066 0.42415953 0.8730585 -0.2870804 0.14440192 0.18282367 1.0918108 -0.15376124 0.13795936 0.33320075 0.8628775 -0.6689602 -0.25748977 0.025894724 0.19257332 -0.01729059 0.13143854 0.23981997 0.50219876 0.31240913
Viral protein interaction with cytokine and cytokine receptor -0.123315044 -0.5393317 0.6498892 -0.020998301 0.48248577 -0.3637824 0.16133493 -0.7415105 -0.31733915 0.6922317 0.078953296 0.116844885 -0.14557563 0.14245655 -0.83608216 -0.23053832 0.3535061 -0.26592183 -1.0825645 -0.4135374 -0.04345916 -0.24761553 -0.5514673 -0.07438092 0.1911517 0.42747197 -0.35621047 0.59894556 0.16145144 -0.5444621 -0.30334783 -0.1270793 0.044937655 0.41630402 -0.72528005 -0.44300652 0.4900008 0.19645213 0.29252833 0.23774731 0.64591515 -0.2204611 0.31720468 0.35822588 0.45331693 -0.31038985 0.9980879 -0.44466332 -0.68027973 0.15991072 0.99533385 -0.13634314 -0.38089108 0.40898424 0.4504611 0.03495824 0.82489324 -0.4119133 -0.4760266 -0.0032654507 -0.108026505 -0.5073504 0.2657821 0.13565238 0.0689299 -0.39716905 1.0917017 0.52428377 0.9269117 -0.36687514 -0.088053614 0.01870412 -0.25305983 0.0014426276 -0.21321043 0.4303893 0.0032612174 0.0682478 -0.7794417 0.2524328 0.7017386 0.1282633 0.576392 -0.3327559 -0.7532409 0.7528732 -0.11417873 -1.3647506 -0.54426146 -0.21814547 -0.42736903 0.5728198 0.5144372 0.3541475 -0.7912276 0.51559967 -1.153474 -0.35119677 0.5187475 0.076655455 -0.5446838 0.47517112 -0.2238281 -0.39219323 -3.309831e-05 -0.3163081 -0.49814183 0.4426379 0.5726797 -0.51100266 0.48737574 -0.15551835 0.23988436 0.21323389 0.96947527 0.19801724 0.86269337 0.55469847 -0.056442942 -0.09446382 0.68705153 -0.26799673 -0.43395987 0.20652476 0.5073979 -0.27007967 -0.037559807 -0.14099964
Coriobacteriia -0.20740709 0.059039056 0.27582413 0.5046332 0.21464215 -0.6454673 -0.10379922 -0.47337198 0.22520676 -0.10102315 -0.40718606 -0.627337 0.2783113 -0.11146613 -0.70685565 1.1313939 -1.1891427 -0.23134516 -0.52605003 0.5377932 0.03912439 0.68157655 -0.8174467 -0.64927673 -0.40687457 0.3703053 -0.27305317 -0.21560821 0.02420631 -0.9282733 -0.69008994 0.21855491 -0.2736911 0.2894666 0.20373327 0.81278414 1.0614747 0.1697463 0.21882574 0.56061184 -0.20125043 0.2591186 0.19440952 -0.32029057 0.10836908 0.41965067 -1.1186444 -0.78256816 0.59764963 0.18665828 0.45284265 0.1841519 0.3485553 0.054366555 -0.1877601 -0.5995381 -0.2595982 0.10258409 -0.17022504 -0.8382467 0.05483429 -0.26862615 0.58733755 -0.361473 0.5676605 -0.7887227 -0.433385 -0.19854489 -0.1296313 -0.38839123 -0.1216162 -0.04008839 -1.0863962 0.5865377 0.16073795 -0.57596505 -0.618234 -0.39675638 -0.2329818 0.43462697 -0.06529582 -0.31057596 0.45734602 0.9255471 0.44811827 0.0068936013 0.15595359 0.072105736 0.32453322 0.12565438 0.22314876 -0.41649762 0.001101915 -0.051066883 0.15858246 0.4138042 -0.9737882 0.12656242 -0.02069838 0.34906274 -0.58896047 0.18039562 -0.6013421 0.26876047 -0.5788536 -0.4163756 0.036094654 0.689315 0.22356984 -0.4697229 1.0674891 -0.62819505 -0.015878245 0.07378225 -0.26998106 -0.66023767 0.7795821 0.5008212 -0.36639956 0.15757324 0.31786385 0.32705072 -0.292017 0.302346 0.28652504 -0.5005109 -0.44781628 0.16606148
JAK-STAT signaling pathway -0.26164937 -0.52047944 0.05825706 -0.18722668 1.5345532 -0.35516745 -0.28782207 -0.03145435 -0.32049438 0.6369442 -0.48242807 -0.06143524 0.07396194 -0.4249791 0.17063062 0.34284335 -0.76758426 -0.11154191 -0.32293698 -0.21980116 0.43302387 -0.5340522 0.18128946 0.26908726 0.006231012 -0.28767273 -0.12124092 0.24067165 0.045396373 0.18773757 -0.3266159 0.3589859 -0.5601903 0.5577654 0.3726961 0.2772913 0.08676064 0.4877658 0.8729305 0.7371816 0.36049882 -0.13107225 -0.52540964 -0.17268668 0.2690752 0.56382525 0.03977966 0.024032004 0.4108835 0.036720924 0.05200414 -1.0048037 -0.5042041 0.84076965 0.14467722 0.5493743 0.2395357 0.092522785 -1.1750178 0.048758425 0.6722924 -0.2675522 0.83991206 -0.069648236 0.060580168 -0.29548067 0.63569134 -0.41564205 0.030044466 -0.87287116 0.34507447 -0.83671755 0.025848212 -0.5792637 0.54763055 -0.22995222 0.6989283 -0.42038915 -0.64687014 0.03499433 0.7613045 0.17655385 0.34873843 0.20069477 0.04636695 0.5066479 -0.24002154 -0.10399709 0.03756212 -0.09798132 -0.041813683 1.0892761 -1.0446789 -0.60794634 0.7529699 -0.3247705 -0.04850038 -0.37324092 0.15769711 0.25518182 0.30385506 0.4740508 -0.119624145 0.47819543 -0.42687258 -0.42797273 -0.62071425 0.28630784 0.787788 -0.23626387 -0.1753367 -0.38623238 1.0048287 0.40251034 -0.36591446 -0.12215133 0.15634538 0.93313956 0.67601997 0.12063823 0.2656576 0.1237717 0.834518 0.3451944 -0.4461522 -0.40520746 -0.2808483 0.10658507
ACTB 0.28401104 0.25612488 0.5007326 0.27772522 0.0088536125 -0.39675117 0.3689304 -0.68415636 0.12282275 0.43113655 0.2546724 -0.54110354 -0.4592863 0.22500893 0.78024346 -0.06264906 -0.44228327 -0.13142891 -0.4763091 0.6988821 0.13769953 1.2360834 -0.8362642 -0.2122618 0.2561914 0.40643653 -0.69536173 0.26101002 -0.10797319 -0.633028 -0.15476364 0.55690134 -0.2464913 -0.552616 -0.34173545 -0.30445355 0.7889937 0.057226285 1.1558565 0.66257703 0.09562184 0.5234141 0.5831683 -0.090516955 0.25185353 0.29602715 -0.6253043 0.35915226 0.5779562 1.095069 0.37121275 0.6420385 0.58759516 0.29294497 -0.41105682 0.17735371 -0.06243775 -0.37678793 -0.23978437 0.47194037 -0.011906885 -0.3828655 -0.50953674 0.7732333 0.31548882 0.045565773 -0.5119547 -0.12820585 -0.45650414 -0.38969663 -0.107418746 -0.22807007 -0.110310026 -0.6451469 1.022587 -0.572199 -0.8017028 0.57868797 -0.08271897 0.67910415 -0.6085159 -1.3150585 0.0046264166 0.18770133 -0.5375655 0.3717385 0.6833352 0.35873425 0.38349363 1.1116117 -0.6615232 0.16998208 -0.7472036 0.4725775 -0.6193329 0.21225344 -0.33153036 -0.6372896 -0.13298436 0.23509344 -1.830535 -0.2668051 0.08922815 0.33016026 -0.7656349 -0.051463056 -0.03650996 -0.30049172 0.27409905 0.16415061 0.22258663 -0.75277936 0.15619291 -0.16656105 -0.0033853627 -0.18743348 -0.24554422 -0.23911767 0.29908922 -0.43668306 -0.9102454 -0.5429758 -0.3363057 0.4264071 0.06665563 -0.44403648 0.2743157 0.014196993
SRC -0.05873471 -0.02671204 0.09106407 0.4909686 0.9588509 0.14164425 -0.054418262 -0.04573434 0.70805085 1.0924642 0.9857755 0.23486279 1.2135273 -1.2189795 0.44462913 0.26331386 0.4935724 -0.30562901 -0.45554075 -0.07053377 -0.5504563 0.40477192 -0.66115123 -0.73751456 0.06892509 0.5867325 0.13728449 0.1888055 -0.17046954 -0.22594441 -0.29700232 0.16760786 0.5061617 -0.83716583 -0.22836733 0.71482444 1.1187341 0.5991427 0.71382654 -0.31263644 0.051615693 -0.36015835 -0.39529318 0.21680589 0.5929963 0.30861902 0.12944439 0.32502708 0.9072407 0.7482475 0.2903788 0.43825316 0.11826923 1.1961719 0.15030709 -0.24985656 0.15464112 -0.46180552 0.022312388 0.38802123 -0.46546558 0.026307246 0.34600452 -0.25830162 0.61449057 0.8730954 -0.0039547817 0.071392395 -0.22000682 -0.13112402 0.19122249 0.33150768 0.10063918 -0.3122622 0.299611 -0.5839088 -0.7176029 0.014366138 -0.22190164 0.16309522 -0.46196055 -0.1051051 -0.47244465 0.35171008 0.30636218 0.66849744 0.54265946 -0.24669234 -0.17657624 -0.27797997 -0.30686304 -0.12930496 0.5689909 0.011174691 0.12753409 0.82807374 -0.51022977 -0.3217516 0.45845369 -0.43015265 -1.6023722 -0.40008676 0.115174554 0.40305164 -0.33106038 -0.5945351 -0.3526051 -0.2928117 0.5606996 0.10556468 -0.084264904 -0.20588326 -0.18415532 0.54319715 -0.7381097 -0.3251668 -0.83262104 0.38969246 -0.09696814 1.002621 -0.6861376 -0.6199386 0.40383878 -0.34139988 -0.084675066 -0.28390542 0.0068112877 0.8989354
CD80 0.62825173 0.32873473 0.27634257 -0.09102743 1.0173839 -0.41224518 0.22829285 -0.42450395 -0.2820129 0.1448896 0.873446 -0.14746949 -0.07402634 0.19255129 0.5353595 0.31401607 -0.117837876 -0.5420498 0.5449088 0.6654792 1.2154025 -0.40654704 -0.5126858 0.050534412 -0.53907084 0.055204976 0.31487218 0.44400686 -0.3588108 -0.32014385 0.018944688 0.5055967 -0.30329105 0.20651178 -0.17897812 -1.3421412 0.21393885 0.071745984 -0.10695714 -0.54567385 0.4016986 0.7358227 0.25098583 -0.09485435 -0.24742232 0.5202145 0.106330045 -0.50410587 0.14055163 0.20018137 -0.06275172 0.039713945 0.1792031 0.51805466 0.06090224 -0.7410334 0.19014195 0.13281402 0.72115874 -0.08123913 0.53717595 -0.14313117 0.7233922 -0.5936383 -0.5661201 -0.28600293 0.60819525 -0.09673456 0.03817399 -0.17294344 0.37027654 -0.19723034 -0.5659185 -1.0418037 -0.7542559 -0.33108824 -0.060521796 -0.21807808 -0.18193775 0.55235225 0.060970064 -0.2375491 -0.28042698 1.0795326 0.24726023 1.1090661 0.8187482 -0.8547785 -0.44724384 0.022892313 -0.46507227 -0.5415458 -0.41560847 -0.37052295 -0.17709628 -0.43938917 0.11572061 0.4534831 -0.29614368 -0.1791405 -0.41329065 0.099829845 0.23540212 0.17458682 0.18927 -0.28907624 0.036601845 -0.4466177 -0.30647826 -0.76599973 0.49186718 -0.67608416 0.0082028955 -0.48651773 -0.29242483 -0.7853883 0.13891488 0.534216 0.19922508 -0.20167708 -0.6931995 -0.57913023 -0.061267547 0.28073284 -0.11987954 0.26566678 -0.7326891 0.3578446
IL1B 0.40018398 -0.4783125 0.18770333 0.011193669 0.8660578 0.18504179 0.26818702 -0.42451712 -0.64368844 -0.07861129 0.5828852 -0.08294301 -0.59589595 0.14351761 0.09777557 -0.32455084 -0.53390175 -0.22407435 -0.048815355 0.2681026 0.82134825 0.2771712 -0.5089616 -0.6455779 -0.7710923 -0.20917007 -0.55599576 0.7853073 -0.53687507 -0.058356427 -0.3604031 0.48797438 0.21493612 0.20806131 -0.06540674 -0.5739455 -0.3591505 0.065434866 0.3683045 0.06667981 -0.5273433 0.5553522 -0.50281197 0.0423914 -0.18124932 -0.11247006 0.08680711 0.045273323 -0.21661684 0.39264074 0.22980183 0.19820563 0.34347898 -0.12603667 -0.594137 -0.63728696 0.71885574 -0.3361333 0.4031439 0.2189453 0.14093122 -0.1173594 0.8126949 -0.41993845 -0.29876998 0.07662318 0.15585978 0.8230476 0.107500084 0.32342124 0.08305755 -0.3087837 -0.06991561 -0.82735795 -0.31370416 0.0076379837 -0.19669527 -0.77945083 -0.40136757 0.23534657 0.10371716 -0.08860538 -0.05235598 0.5880271 0.05780814 -0.48813176 1.0132089 -0.89233977 0.58258647 0.27874315 -0.24482965 -0.30881858 -0.1827122 0.19496056 -0.27768788 0.7206672 -0.31440222 -0.040444203 -0.2007797 -0.8073473 -0.38001147 -0.64537454 -0.114822954 0.29117838 -0.1760101 0.18659101 0.6494613 -0.4621234 0.27379572 -0.02029179 0.20927294 -0.6075914 0.096194215 -0.097505584 -0.6914133 -0.36573455 0.47679928 -0.0016850295 0.2715792 0.38225737 -0.48765922 -0.17640668 -0.30781507 0.50508296 -0.01443619 -0.44136193 -0.8378867 0.71836394
CXCL8 0.46189263 0.19934279 0.20199358 -0.049542736 1.2089832 -0.21397457 -0.5342383 -0.72707087 -0.5267726 0.60386366 0.75332063 0.263175 -0.44157636 0.16006951 0.24333219 -0.12797812 -0.25215194 -0.3205074 -0.073407166 0.072782464 0.521362 0.37290552 -0.4629626 -0.78127277 -0.4906256 -0.02662053 0.058000095 -0.3397788 0.2465902 -0.6257891 -0.35282797 0.3638141 0.38947305 0.590249 -0.24351157 -0.09340645 0.026783908 -0.24678594 -0.45569044 0.11816544 -0.3987253 0.19410415 0.39904198 -0.41142994 -0.23056133 0.24550909 -0.5056344 -0.18857239 -0.6748962 0.4643554 0.76601344 0.15178256 -0.06534065 -0.254247 -0.57262975 -0.07417577 0.6517043 0.24606594 0.17095079 0.4409872 -0.25342888 -0.014514972 0.19553609 -0.7123877 0.5353892 -0.04651395 -0.048595283 0.46930876 -0.09209175 0.30336553 0.021726279 -0.20733607 -0.4645331 -0.62030023 -0.3943418 0.1805923 -0.17939344 -0.2164596 0.011454016 -0.17642233 0.07876079 -0.54698163 0.12700729 0.85078335 0.41181085 -0.6742568 0.42914745 -1.3518039 -0.6405497 -0.35627806 -0.5319555 -0.35868677 -0.22368728 0.067658775 0.28003967 0.3378299 0.42075318 -0.609339 -0.24350357 -0.68588686 -0.38357353 0.52548456 0.15779424 0.12788394 -0.68082577 -0.7619519 0.20102885 0.051200338 0.26060915 0.0038506214 -0.42139518 -0.5605332 0.19552773 -0.69893783 -0.32157028 -0.4277788 -0.18941341 0.3388076 0.86514664 0.0031621011 -0.23592645 -0.21917003 -0.20947307 0.4980287 0.06232233 0.13009597 -0.73435503 0.4451749
CLEC7A 0.5112409 -0.23387882 0.37748742 0.08936966 0.93444335 -0.55370474 -0.69464123 -0.8057381 -0.12578908 -0.08374441 0.80106467 0.13755687 -0.6711255 -0.22198462 0.24809398 0.13259803 -0.7541109 -0.36418796 -0.11059126 -0.33423325 -0.22687998 0.6933142 0.22612783 -0.034172896 -0.22093849 0.3910891 0.7974653 0.0302248 -0.040599562 -0.12121445 -0.708119 0.55281514 0.33523276 0.5901138 0.13828707 -0.057876054 0.33848387 0.08412026 -0.041194487 0.059691392 0.1003773 0.15298872 -0.28526685 0.49018374 0.26976007 -0.15859132 -0.6515344 0.15126778 -0.53064644 0.61012846 0.3063689 -0.15440606 0.006027781 0.54976624 0.31569076 -0.24724202 0.5609166 0.36767024 -0.12290019 -0.1802461 -0.6002178 -0.22024393 0.10790819 -0.35841206 0.33764416 -0.5900773 -0.8467713 1.0020658 -0.18970582 0.010700968 0.33203802 0.09187638 -0.71651745 -0.5653725 -0.34055185 0.6516778 -0.16682461 -0.31891465 -1.0526856 0.21138822 0.35228172 -0.68070847 0.18217488 1.247993 0.39795476 -0.6112843 0.47717744 -0.07179954 0.5893576 0.2996357 -0.40106472 -0.53109854 -0.07939074 0.12765501 0.024457064 -0.17096667 0.23518822 -0.1692346 0.14208083 -0.53418154 -0.6747421 0.087857865 -0.36969334 -0.20863272 -0.25435698 0.12874983 -0.105352014 0.6857369 0.10596114 -0.96433395 -0.1407869 -0.4457411 -0.4589975 -0.33641404 -0.11827511 0.6616805 -0.27279168 0.122583106 -0.24045919 0.020666402 -0.46747065 -0.5366228 0.05305874 -0.32960695 -0.59032583 -0.47066256 -0.14655279 0.7019314
NFKB1 0.68989414 -0.5583532 -0.9674217 0.19373569 0.90973485 -0.26417896 -0.048535716 -0.0750529 0.057643555 0.51792115 0.048515975 -0.016251998 0.38695475 0.039259 0.62116337 0.06208213 0.036846824 -0.42378694 -0.35626495 0.036676843 -0.42695484 -0.27579084 -0.3975667 -0.6138632 -0.66023904 0.632604 -0.39728108 0.49980527 -0.18488613 -0.8066801 -0.5249104 -0.22246748 0.80740356 0.50453943 -0.13759375 0.13696602 -0.0017149948 -0.009529853 -0.3201797 0.53015596 -0.07798006 0.3392591 -0.49352866 0.5257086 0.6148982 -0.21454906 -0.37441567 0.45935404 -0.03236332 1.0013928 0.8107614 0.1906782 0.017764455 -0.117508255 -0.5265304 0.39284948 0.08290211 -0.024041547 0.26900122 1.02852 -0.5478525 -0.19971484 0.5032531 0.41024244 0.68646693 0.2959273 -0.11567236 -0.510607 0.345504 -0.67940533 -0.17162366 -0.20659025 0.050265037 -0.58896273 0.54929006 -0.5860719 0.6703697 -0.2071668 -0.33915633 0.33970326 -0.5694747 -0.32118174 0.401913 0.42733547 0.3483567 -0.42449474 0.41329917 -0.23730908 0.8174393 -0.13484256 0.10204114 -0.98259085 0.56062734 0.41655397 -0.57638735 0.3899287 -0.28928813 -0.924376 0.21177508 0.13245139 -0.4912513 -0.42307353 -0.31202567 -0.2142468 -0.13181332 0.10510173 -0.779681 0.37808406 -0.15673321 0.21859942 0.36218742 -0.39406842 -0.018515637 -0.18376936 -0.7264224 0.14100017 0.73195726 0.0037703712 0.5156183 0.3397428 -0.53957945 -0.2949719 -0.7537467 0.5086286 -0.08231863 0.047845364 -0.21811967 0.73305905
ICAM1 0.71976584 -0.0055374717 0.3410911 -0.4615146 0.94549465 -0.07805574 0.38846606 -0.39714837 -0.381924 0.04866378 -0.04349968 0.34666395 -0.11041933 0.25865877 -0.38473955 -0.59349924 -0.6654462 -0.613396 -0.022883097 0.33572507 0.75324935 0.63364863 -0.21970603 -0.4294848 -0.4207265 -0.22831854 0.043681026 0.1763161 -0.018442264 -0.5706404 0.3215665 -0.041097853 -0.08390048 -0.24506617 -0.0328848 -1.1162897 0.55880183 0.13065714 0.18453269 -0.6219236 0.2706548 0.47184527 -0.0015472475 -0.15248226 -0.4661287 0.6220571 -0.15169069 -0.13943441 -0.114661895 -0.17360471 0.438904 0.17628327 0.0070251473 0.34254038 -0.019302296 -0.42716408 0.41514295 0.5936998 0.27751234 0.2552657 0.32514426 -0.24722204 0.20708895 -0.39822337 -0.01539977 -0.3210146 0.31186774 0.65242386 0.40560764 -0.5590092 0.22197509 -0.04906513 -0.47443366 -0.25875056 -0.6232984 0.11556945 -0.022549864 -0.7071899 -0.45994934 0.4967265 0.40944442 -0.54794705 -0.28513357 0.4724864 -0.08629785 0.18143648 0.8380426 -0.6950305 0.79216284 -0.15243125 -0.060155146 -0.36660835 0.26336917 -0.24772204 0.29469648 0.3788546 0.15837201 0.5920575 -0.4060524 0.311506 -1.0632745 0.16924 0.31090957 0.19056591 -0.04479901 -0.27192405 -0.021630542 -0.2641526 0.35258073 -0.15694253 -0.0018854354 -1.3367596 -0.57216924 -0.058365192 -0.6090237 -0.7658989 0.36413962 -0.14405794 0.4822482 -0.048372887 -0.6661053 -0.5560555 0.21117117 0.032697722 -0.4186899 -0.49340096 -0.98690987 -0.49928302
TNFRSF17 1.0072426 -0.075756714 0.35238773 0.45559964 0.098246045 -1.1907083 0.24974279 -0.05437919 0.688943 -0.38687223 1.3702954 -0.117729045 -0.21612626 0.5707739 -0.53577083 0.36708677 0.36197874 -0.23561072 -0.1630526 -0.21144055 0.021372732 -0.18578787 0.15290615 -1.1753287 0.47931582 0.6855384 0.87692297 0.38378242 -0.032147653 0.5149073 -0.9092682 -0.40055144 0.48025757 -0.058063053 1.240841 0.36869356 0.15974869 -0.4950816 0.47613302 -0.34224692 -0.014916101 -0.071151875 0.05910973 -0.14549544 0.21403247 -0.62539226 -0.112885855 -0.43652222 -0.26061743 -0.011194812 -0.06785664 -1.0986892 -0.2081396 0.33187646 0.44355723 -0.6674389 -0.030127846 -0.008434108 -0.30189925 -0.8363231 -0.5132056 -0.6896898 0.44315386 -0.9166865 -0.98347634 -0.11548719 -0.028473731 0.48130953 -0.8737142 -0.1470436 0.30732816 -0.70774215 0.12828375 -0.76812804 -0.20011108 -0.31505775 -0.18849015 -0.21828097 -0.9760825 -0.050880488 -0.01718729 0.307468 0.8899114 1.8742241 0.7090128 -0.17034554 0.6585818 -0.08271866 0.19038536 1.8272961 -0.13881087 -0.45779964 -0.37756187 0.21683767 0.6068716 0.37550232 -0.120834514 0.40961865 1.63109 0.55276424 -0.6087228 0.40424168 0.1137443 -0.11483618 0.12301127 -0.90546525 0.755666 0.53338027 0.0125563815 -1.4564431 0.084311396 -0.04495385 -0.7727236 -0.229435 -0.10039545 0.40431547 0.3083852 -0.2638559 0.19172299 0.25541538 -1.2133996 -0.4562205 -0.48485002 0.77893245 0.03651315 -0.2631579 0.55905193 -0.05860443
Chemokine signaling pathway 0.062053602 -0.23166646 1.0642343 0.0950408 0.026668085 -0.75155985 -0.18386275 -0.7245092 -0.18746 0.028576788 1.0075217 0.6857613 -0.06848637 -0.55350053 -0.31191057 -0.70996475 0.019673558 -0.14782466 -0.5174703 0.32115063 -0.3594758 -0.46737874 0.41975328 -0.39515248 -0.4123965 0.63414806 0.101372495 0.14467521 -0.307069 -1.3983995 -0.7506421 -0.29502976 0.30957207 -0.59759086 0.53987294 0.11394351 0.8233407 0.38427097 -0.11172473 0.21010353 0.14928278 -0.4782194 -0.16893484 0.17710537 0.21420674 -0.10608017 0.2229582 0.44932684 -0.17826894 -0.09076919 1.2488203 -0.07711753 0.13566187 -0.3716104 0.5486639 -0.17501034 1.2102244 -0.75862956 -0.052213702 -0.2261816 0.20332702 -0.28781092 -0.2505728 -0.08999489 0.5432144 0.3241994 -0.33117273 -0.30600905 0.75815713 -0.9217106 0.3061497 -0.5071428 -0.5119715 0.35806122 -0.16956864 -0.064568 -0.19835141 -0.24791944 -0.53177536 0.5283147 -0.22160633 0.24973719 0.2858657 0.26478225 0.29900873 1.485015 0.012380418 -1.8006549 -0.0009971379 0.6216697 -0.12105974 0.21207514 0.6406924 0.43693852 0.13717927 0.5158279 -0.37694708 -0.51048356 0.11573388 -0.25893402 -0.331912 -0.19987495 0.37715623 0.023009274 0.07432736 0.33780473 -0.11514535 0.50684625 0.28802744 -0.27224737 -0.07255412 0.56594956 -0.20835368 0.9568305 0.7910713 -0.36051378 0.36549848 -0.11047275 -0.49385643 0.30599663 0.55361193 0.12717316 -0.19784597 -0.21354784 0.27450216 0.49980387 -0.02237977 0.12823221
JUN 0.5779158 0.25909352 0.3130816 -0.23662452 0.505438 0.027387096 0.0010509742 0.06837372 0.04237279 0.9170793 -0.13888742 -0.22524142 -0.2815785 0.03482028 -0.0371101 0.102437995 0.09548911 -0.10479208 0.1677383 0.26367778 -0.049880356 0.11201713 -0.7967528 0.71443105 -1.036852 -0.33955523 0.0026843133 0.64661443 0.60795134 -0.14839965 -0.08490613 0.6596973 0.032645173 0.27336216 -0.13995008 0.035473157 0.22275484 -0.1789101 0.41260612 0.5121831 -0.94028527 0.19051366 -0.360189 0.43276575 0.7246976 -0.8180323 -0.10782329 -0.25610715 0.16945595 0.08483933 0.3599441 0.11424134 0.20890088 -0.08532205 0.19164357 0.44618496 -0.06997909 0.05329876 0.06608958 0.51253545 -0.8553826 -0.07403872 0.33831486 0.5149424 0.33463085 0.40962106 0.49115664 -0.6404094 0.13447441 -0.6548526 0.55229855 -0.06629537 0.0007066299 -0.3931218 0.4591213 -0.19231783 -0.10313736 -0.77133036 0.16515273 -0.45871252 -0.10966191 -1.0441061 -0.43662935 0.7684703 0.26704583 0.46675926 0.30373585 0.021364326 0.02863145 0.41570324 0.27788398 -0.951852 0.41481268 0.5742701 0.6063713 0.71913457 -0.88305664 -1.5111572 1.2001282 -0.11321632 -1.4916605 0.13626218 -0.6149553 -0.47619238 -0.28504428 -0.019999128 -0.48911983 -0.6301445 -0.21849784 0.10602812 -0.14181519 -0.32828444 0.11327552 0.17261349 -0.7247039 -0.3290584 0.008726991 0.30214 -0.19371286 0.9799226 -0.64802176 -0.370089 -0.19847032 0.6461585 -0.0261665 0.055896524 -0.4856366 0.24458386
Erysipelotrichia 0.40015134 -0.18041886 0.5624928 -0.4737967 0.47008577 0.023266273 0.3013368 -0.116336845 0.72740793 -0.0704251 0.38447246 0.12065329 -0.07896127 -0.14664553 -0.5768714 0.792648 -0.36317345 -0.0392529 -0.8319829 0.521211 0.33810112 0.295981 -0.42399597 -0.12667055 0.2422039 0.3723067 0.66077685 0.53496957 -0.013899562 -0.18040214 -0.3165409 0.20315403 -0.29164279 0.44348502 0.28265825 0.21265139 0.48221916 -0.0054647983 -0.4848746 0.6955748 0.14944611 0.93909067 -0.20276128 -0.27187824 0.25874898 -0.05662272 0.0072773 -1.0361141 0.22468945 0.2553411 0.08463441 -0.3739917 -0.43065688 0.64809453 -0.3177308 0.17966206 -0.591927 -1.4030771 -0.5199492 -0.070315324 -0.10084624 0.062887885 -0.16941632 -0.19640395 -0.21765706 0.68548733 -0.08982996 -0.63381445 -0.43969306 -0.113793336 0.81476283 -0.74251634 -0.7262013 0.5711054 0.25770462 -0.5017511 0.4140149 -0.8798261 -0.61189806 -0.041378926 0.383978 -0.47495833 0.62058574 0.54085577 0.33176103 0.42020255 0.028932368 -0.38820192 0.25571704 0.4104664 0.34115604 -0.3408176 0.28385764 0.20367876 0.045661222 0.53573805 -0.68326384 -0.49843845 -0.12955558 -0.018531926 -0.9729858 -0.66734356 -0.5923732 0.096951246 0.27044758 -0.13992797 0.3723522 0.39235672 0.7073924 -0.31820172 0.19060217 -0.06712217 0.29396257 0.122688994 0.28511295 -0.5664729 -0.5310226 -0.4418129 0.56363225 -0.3214944 -0.45195866 -0.7257848 0.06808639 0.5778249 0.44554424 0.18136856 -0.32405612 0.45349264
CDKN1A 1.1962167 0.39647263 -0.7768298 0.13991971 0.82073903 0.7490663 -0.038803995 0.23134409 0.6253017 0.6145039 0.35516518 0.4047976 0.5038307 -0.745263 -0.39182237 -0.6002714 0.08422624 -0.06364838 -0.7766376 0.05388586 -0.16609776 -0.4760595 -0.95492214 -0.37987688 -0.4804006 -0.63444394 -0.5948613 0.052814383 -0.6130893 0.16320613 0.07182949 0.0738705 0.61133784 -0.5104557 -0.5851631 0.11994532 0.3423138 0.27616942 0.6979674 -0.1816011 0.1797696 0.5111812 -1.4963672 0.03700859 0.25104293 0.70623136 -1.129817 -0.6441245 -0.28081718 0.66086113 0.0278079 0.14833766 -0.045633364 0.915706 -0.45150444 -0.3388447 0.007909371 0.5564973 -0.49713266 0.7350016 0.20603615 -0.5171864 0.39620426 0.039396897 -0.2914337 0.18294552 0.24667098 0.6910993 0.43869448 -0.7055373 -0.3587937 -0.12523817 -0.55025953 -0.5651945 -0.5094305 -0.63133883 -0.314222 -0.65070385 -0.15142174 0.3819008 -0.42976502 -1.0162421 1.0569943 0.5814742 0.60574275 0.4364651 0.3780729 -0.050840855 0.0212088 -0.38540283 -0.18856217 -0.058976844 0.014920388 0.12385569 -0.28429416 -0.65210736 -0.0469732 -0.5569976 -0.036361687 -0.47163382 -0.61778796 0.017612945 -0.6234691 0.19673938 -0.32845846 0.3711906 -0.08893894 0.11707343 0.17121854 -0.8572275 0.05039081 -0.2000645 0.68894786 -0.22900951 -0.35130873 -0.3824638 0.5627674 0.016550645 0.039918408 -0.43120602 -0.5660289 -0.7033694 0.4892785 0.43467683 0.097118326 0.5940515 0.38224402 0.15974253
Erysipelotrichales 0.19753624 -0.17733376 0.52239496 -0.5799118 0.2613136 0.10430333 0.39891905 -0.1307658 0.80076116 0.0919601 0.34151345 -0.13455321 -0.28347558 -0.18717083 -0.46765488 0.95918214 -0.3201086 0.2089397 -0.97445625 0.4950342 0.2618424 0.22011806 -0.25699016 -0.03263568 0.10660368 0.24590263 0.51504743 0.53509426 0.10324072 -0.47175893 -0.26810956 0.18109378 -0.29659826 0.6368611 0.48762605 0.22933502 0.52694994 -0.13439183 -0.4166853 0.83618814 0.15857469 0.7883694 0.03952489 -0.17713821 0.37961105 -0.050613623 -0.19160415 -0.97658414 0.23423584 0.3479649 -0.04347902 -0.17584339 -0.54989165 0.69549084 -0.34189743 0.2833433 -0.61903477 -1.5285989 -0.5810608 0.032515258 -0.21236359 -0.03239924 0.07434249 -0.2528547 -0.00047255494 0.6749625 -0.07938407 -0.48216745 -0.34049705 -0.081132405 0.580499 -0.68427056 -0.75700355 0.4891584 0.41616693 -0.7176373 0.74463505 -0.6537344 -0.75149626 0.1709477 0.26088592 -0.37097436 0.7057162 0.5667781 0.28633696 0.45841655 -0.03212936 -0.44431525 0.29609427 0.38545448 0.5203242 -0.2797201 0.2956151 0.38338283 0.05176242 0.6100735 -0.32858953 -0.30964905 -0.27946866 -0.019600876 -0.7277857 -0.7408595 -0.34520972 0.1769993 0.110807285 -0.21260019 0.34825832 0.27157277 0.7442852 -0.52295023 0.11707633 -0.20839034 0.2439384 0.24843468 0.392526 -0.5358857 -0.61074764 -0.35027927 0.5111279 -0.49566478 -0.51990056 -0.6711066 0.12326257 0.6843552 0.50918496 0.2246278 -0.300846 0.4078
NCF2 0.34323472 0.03456073 0.42348373 0.055130582 1.0910052 -0.16604994 0.10133655 -0.20288678 -0.5075288 -0.08432119 0.46897426 -0.03978096 -1.0304884 -0.42999583 0.6167953 0.13554437 -0.7070609 -0.2986348 -0.22330599 0.23408718 0.28504926 0.8135483 -0.084286734 -0.44892743 -0.81985533 0.48316976 0.4582944 0.1321499 0.06487187 -0.66327935 -0.615729 0.20507891 -0.07260968 0.18919633 -0.1712392 -0.9594136 0.58434784 -0.35241988 0.2915914 0.002803296 0.6086622 0.56860125 -0.22910829 0.22646856 -0.17317681 -0.06549268 -0.6589157 -0.3206722 -0.29298314 0.6489054 0.76278377 0.7307251 -0.16501994 -0.2288712 0.28492168 -0.00090231915 0.45315972 0.1000481 0.41333145 0.19946067 0.32585895 -0.41200975 0.3293325 -0.40424815 0.52103 -0.04154404 -0.3468813 0.8632606 -0.21168469 0.23739605 -0.12516 -0.38713613 -0.4826593 -0.33639827 -0.5522013 0.20315202 -0.18432662 -0.14714998 -0.81167346 0.30948856 0.34998968 0.11964049 -0.00017098078 0.87589294 0.15184245 -0.08988326 0.84257716 -0.10552012 0.44122177 0.27950197 -0.21835168 -0.3925261 0.15440834 -0.2601605 -0.0006376731 0.043748472 0.016371366 0.12426123 0.12091089 0.09033835 -0.29547423 -0.23252788 -0.36363322 0.12858462 0.15452132 0.17832264 0.23010597 -0.42072964 0.084950976 -0.3795487 -0.10224716 -1.1956037 0.008002211 -0.26114297 -0.5824667 0.3480082 -0.45553815 -0.38575456 0.05790571 0.5835318 -0.37780228 -0.32174775 0.4130751 0.1967434 -0.2706701 -0.24215375 -0.10238504 0.6135453
mitogen-activated protein kinase 1/3 [EC:2.7.11.24] -0.3041443 -0.054894485 0.103146136 -0.23516563 1.0732673 0.23953448 -0.20746315 -0.023826135 0.68925357 0.9969805 1.014012 -0.021804847 0.4445711 -0.7131186 -0.54183775 0.069332734 0.2752927 0.44532603 -1.0299468 0.48080853 0.38129497 -0.5175266 -0.5905581 -0.9773183 -1.269711 0.4848644 -0.98135793 0.71086544 0.08282432 -0.39848405 0.099344015 0.29771137 -0.64538527 -0.14700626 0.4003712 0.8047972 -0.24483967 -0.47666422 0.29424298 0.48536786 -0.30937538 0.5908248 -0.8386869 -0.7731379 0.7409721 -0.14819513 0.071609184 0.9577683 -0.6409353 0.7036703 0.2878091 0.21277134 0.6701902 -0.34977534 -0.0050435266 0.59817094 0.5485257 0.48813248 0.11825272 0.5946041 -0.70142967 0.42674038 -0.3983256 0.30434766 0.9277843 -0.0007536809 0.3548057 0.4025264 -0.4911428 -0.5158605 -0.42371595 -0.17905425 -0.11533855 -0.75359565 0.782011 -1.3943518 0.46437126 0.5871781 -0.32266545 0.17692739 -0.8263049 -0.56437707 -0.046598364 0.8387589 0.6303689 0.85561365 1.1058638 -0.52100754 -0.094339214 0.7035925 0.17646721 -1.1037586 -0.6115713 -0.53487295 0.423288 -0.1821542 -0.84463054 -1.0165052 0.089546554 -0.29898843 -1.274569 -0.8095893 0.023188742 -0.0945472 0.6066854 -0.3405466 -0.34465444 -0.27182212 0.45985433 -0.44870883 -0.4166211 -0.31548095 0.32323736 0.66992164 -0.18241434 -0.40383464 -0.13696858 0.36039844 0.3690725 0.3723792 -0.5162329 -0.6133758 0.39956805 -0.4013873 -0.26934776 0.392573 0.17662586 -0.60605574
LRRK2 0.49311286 -0.33018696 0.32686636 0.18933158 0.8800739 -0.33669358 0.27203164 -0.44140175 -0.15376131 -0.16183317 0.865721 0.3969379 -0.8487867 -0.5311306 0.69318444 0.3739964 -0.31961364 0.0710157 0.0065907803 0.0033185624 0.14678498 0.41555083 -0.35266006 -0.33444 -0.51131195 0.12918381 0.031723797 0.15102279 -0.31751046 -0.25680524 -0.7682647 0.21082696 0.36750588 0.3760672 0.16853902 -0.063212454 0.31829435 -0.23547134 0.35578793 -0.34625793 0.24267578 0.4993187 0.17120217 0.6833727 0.43603513 0.20520161 -0.30769166 -0.5081985 0.33407006 0.7810067 -0.07699624 0.31480873 -0.4335766 0.73418367 -0.094566695 -0.59245235 0.34706095 0.09422699 0.015517014 -0.30732843 -0.17485932 -0.7159156 0.20739384 -0.3900839 -0.050706737 -0.32745197 -0.1950847 0.9439732 -0.12988602 0.12103058 0.11172731 -0.2122379 -0.59565496 -0.64054585 -0.40914446 0.6637776 -0.15920225 -0.014808989 -0.8293658 0.013406763 0.083551414 -0.026100162 0.5374659 1.0683252 0.37049112 -0.6123376 0.8156637 -0.5177825 0.5597664 0.11166264 -0.09690627 -0.30841342 -0.0034123706 0.2959733 -0.17492917 -0.2604903 0.004527072 0.19325513 0.08227294 -0.7370662 -0.19068769 -0.3835963 -0.45623106 0.16816743 0.49783793 0.14040405 0.12551051 0.11711573 0.39188957 -0.6263374 0.018813806 -0.9373242 0.20178486 -0.91878694 -0.2249087 0.31170687 0.022391206 0.41543406 -0.32666337 0.13452236 -0.22051938 -0.033226453 0.1371487 -0.38727462 -0.6012766 -0.30165404 -0.17586885 0.4927657
NOS2 0.7200193 0.523443 0.57517296 0.8821606 0.4362018 -0.5452277 0.59762764 -0.08114716 0.0050797868 0.00954277 0.7517519 -0.48237157 -0.16341445 -0.5524865 -0.21811636 0.34359455 -0.2534119 -0.6627223 0.43011326 -0.1646673 1.0933788 0.54844564 0.16145435 -0.29897824 0.13659225 -0.7746951 -0.24358031 -0.39605638 -0.027852027 0.106103204 0.24237554 0.92717046 0.46505088 0.44442472 0.3118442 0.3142206 0.28103444 -0.0525224 0.94688463 0.28574452 -0.2006589 1.0613701 0.39939108 0.47779953 -0.5323765 -0.5016822 -0.6299443 0.44110706 -0.19871384 0.29930347 0.5095373 -0.019187747 -0.39783075 0.09612469 -0.040412884 -0.0073729833 0.2442292 -1.1783253 -0.63272166 -0.03308713 0.039515104 -1.2167141 0.13206299 0.1458372 0.35976914 -0.8089668 0.7497947 0.5280524 -0.4803624 0.6230981 -0.42889613 -0.13478361 0.5702625 0.21647653 -0.3661266 0.106656864 -0.2218564 -0.22431456 -0.68142104 0.25079125 -0.10467128 -0.11304193 -0.26749012 0.8802606 0.2444395 0.2950771 0.2958597 -0.20399 0.9221835 -0.283289 -0.6208668 -0.29480118 0.31151557 -0.7905822 0.39721352 -0.94643116 0.07621711 -0.7979397 0.34025404 0.35031992 -0.92657495 -0.13644302 -0.51431197 -1.0551431 0.0056808717 -1.0742489 -0.2019366 -0.4770058 0.63404375 0.0079548275 0.2658648 -0.7051719 -0.37881246 0.43365374 -0.051148143 -0.34664443 0.68926066 -0.43918267 0.7997733 0.98584914 -0.64327174 0.14865571 0.24395356 -0.13081072 -0.52873623 -0.25531742 -0.12995866 -0.09060818
FADS2 -0.13202436 0.36595127 0.23230024 0.20919277 0.68887997 -0.669468 0.40525183 -1.2372922 0.0714714 0.12978137 0.80498785 0.1517677 0.16936165 -0.111574724 -0.1621892 0.2749573 -0.9795626 0.36425543 -0.3555046 -0.19342852 0.8502924 0.9296823 0.042151697 -1.0635527 -0.33379167 -0.051312204 0.30455625 -0.8042561 0.67407244 0.40644494 -0.3645017 0.78411055 0.46777198 0.778901 -0.17002694 -0.4981439 0.47017175 -0.024340615 0.30612677 1.1451851 0.3038135 0.44647878 0.04932827 0.06972768 -0.27015197 -0.19429377 -1.3539165 -0.33492118 0.043168418 0.13623628 0.0988393 0.067644656 0.6456336 0.14367652 -0.23953971 0.1495667 0.5540825 -0.15772845 -0.52728486 -0.07426758 -1.0167562 0.6640446 -0.25941226 -0.93701243 -0.009467293 0.2209098 -0.06734841 0.8162942 -0.8477274 -0.23530479 0.7775651 -0.47850698 -0.7380759 -0.0502414 -0.41991004 0.095988154 -0.47447884 -0.05923864 -0.14471866 -0.7843737 0.69220674 -0.27065176 0.08601825 1.3521862 -0.13209532 0.19865699 0.12528883 -0.17116274 -0.2633162 0.22269332 0.07949468 -0.041957486 0.06348413 -0.06551371 0.45427772 -0.298764 -0.6330637 0.22336756 -0.26930487 0.8323592 -0.8015097 -0.006741112 -0.26648185 0.60498136 -0.10069713 -0.14194192 0.093086265 0.19776344 -0.79385614 -0.15674926 0.32140356 -0.04615079 -0.2831609 -0.0071180314 0.1804767 -0.5318725 -0.05321246 0.24359645 0.19294812 -0.9204006 0.14502053 0.06344633 -0.32964304 -0.32216054 0.49388155 0.06739599 -0.6018946 0.32949176
STAT1 -0.1370464 0.5679255 0.29547668 -0.03844502 1.0581824 -0.01918506 -0.7180217 -0.6387611 0.37002546 -0.35884923 0.52971745 0.3140316 -0.42182326 0.08613005 0.5439858 -0.14656511 -0.15416393 -0.2549969 -0.4133692 0.28740838 -0.80456746 -0.08774158 0.6015734 -0.09198269 -0.9156419 -0.52943933 0.12011491 -0.2581716 -0.03593086 -0.27711666 -0.5680779 0.010131683 0.014229422 0.13250121 -0.083361134 0.5732653 -0.041441098 -0.07344177 0.009911999 0.20523645 -0.114423014 0.36199158 0.15739751 0.20796034 0.09103296 0.20279627 -0.34824538 0.45829478 -0.5280077 0.58184165 0.14130138 0.19897139 -0.28352425 0.52552885 0.20082961 -0.14943098 0.9954453 0.1772997 -0.29075783 -0.13932304 -0.43614182 -0.19131489 0.31565174 -0.29811722 0.8591243 0.3570424 -0.7860505 0.7010027 -0.082530946 -0.24210882 0.31059784 -0.829889 -1.0082238 -0.71375847 -0.68048424 -0.32361466 -0.052119277 -0.318481 -0.38483036 0.011087974 0.21502692 0.0030149764 0.022790898 1.1276513 0.48076102 -0.18378934 0.4313392 -0.46468994 0.07618576 0.41781607 -0.16717611 -0.39242634 -0.56703866 0.114666626 0.21059598 -0.049852107 0.13801302 -0.028660439 0.14949809 -0.4543657 -0.65286016 -0.004409219 -0.5127306 -0.026264712 -0.52732056 -0.50135374 -0.31987172 0.16734608 0.6349015 -0.42303717 0.048467215 -0.39289328 0.37640956 -0.390242 -0.7624492 -0.7130765 -0.12328127 0.07087066 0.32242665 -0.5243313 -0.29147062 -0.58022135 -0.1686402 -0.024404386 -0.7179526 0.16795434 -1.1129597 0.32866368
CXCL2 0.6396045 -0.04894342 0.33368793 -0.217391 0.74139965 -0.68917984 0.29231492 -0.3535179 -0.57625175 -0.2656751 0.6578091 0.23194717 -0.12230624 -0.24294645 -0.012642242 0.6504077 -0.9633398 -0.25105393 0.20934173 0.2154522 0.40977997 0.62998766 -0.7848526 -0.3684433 -0.36572662 0.13354306 0.27830908 0.19492635 0.02796492 0.13644002 -0.0640689 0.16780345 0.0020369047 0.2083495 -0.20730583 -0.8635606 0.45652816 -0.45469505 0.14098194 -0.76352495 0.4635925 -0.023388281 0.0028578273 0.38573533 -0.46153435 0.24768774 -0.7372446 -0.5036601 -0.33370852 -0.22406803 0.66592646 0.903634 0.05865831 -0.5021923 -0.36382633 0.09002082 0.23169169 0.0931979 0.486604 0.13878219 0.13383451 -0.8033312 0.6222756 -0.3790024 0.36674994 -0.1404952 -0.00904528 0.11592692 -0.15714833 -0.14046086 0.2955616 -0.268671 -0.82541585 0.08385148 -1.2161268 0.57747626 0.4725285 0.0113814445 0.53414947 0.11750697 0.672351 0.08872833 -0.25322548 0.80138546 0.5034005 -0.1437928 0.6713783 -1.2759489 -0.16753209 -0.17366289 -0.27564532 -0.24050489 0.11997782 0.06526771 0.36779454 -0.1652226 -0.6569313 -0.2662094 0.49087998 -0.34520787 -1.0446469 0.41299063 -0.1661093 -0.58665293 0.31518608 0.46791 0.06933993 -0.58524084 -0.10533829 0.5745106 0.41307107 -0.35636967 0.13410282 -0.43516567 0.040672254 -0.09444883 -0.22239292 -0.33283076 1.2839715 0.11580211 -0.14594999 -0.0783608 -0.17585011 -0.30315822 -0.37064832 0.12337593 -0.7604916 0.4361476
CCL5 0.38193113 -0.5285231 0.5526886 -0.14891534 0.60301757 -0.22255607 0.03162766 -0.6330246 0.07572073 0.6968637 0.25913528 -0.18366027 -0.2042422 -0.2050934 0.016254526 0.26843876 -0.51606995 -0.5207217 0.18229511 0.2104117 0.4961846 0.015815191 0.15885668 -0.48686132 -0.29722863 -0.13535674 0.21301493 -0.10802299 -0.7843788 0.010201707 -0.7288398 0.36292392 -1.0403942 0.57304287 0.062607534 -0.09450772 0.53292155 -0.7263177 0.95286626 -0.12225216 -0.49950418 1.145937 -0.191835 0.18314628 -0.008355663 0.287624 0.03372869 -0.32749134 -0.029707586 0.59975094 0.39365238 0.79467183 -0.7490043 -1.2173998 -0.2860407 -0.44530252 0.20031114 -0.38515326 0.21941456 -0.30635348 0.081888415 -0.9928168 0.34763873 -1.2252636 -0.24756053 -0.78141594 -0.2350556 0.43638992 0.027829064 -0.8678762 -0.1484365 -0.1978 -0.5291153 -0.5192991 0.04105282 0.46635935 -0.05222771 0.18974671 -0.768656 -0.061107993 -0.4711302 0.33498204 -0.058388393 0.06151453 0.207689 0.6343273 0.88186854 -0.5178067 0.027294787 -0.46608353 -0.34993362 -0.80894715 0.4936443 -0.54046553 0.49096698 0.18436718 0.33167374 -0.27392992 0.50791985 -0.4377439 -0.34422344 0.57843953 -0.4950439 0.63682765 -0.48095945 0.5506613 0.12525497 -0.62711674 0.22912733 -0.32101443 0.22444586 -0.21151516 0.2275841 -0.80329466 0.35231212 -0.27036214 0.43644738 -0.00989858 0.23175946 -0.0359856 -0.020564921 -0.31845757 0.55385745 -0.0056253388 -0.025903309 0.04482292 -0.21319795 0.6959269
Pathways in cancer 0.56408113 -0.04802722 0.36822298 0.18892671 0.57544553 -0.07744212 -0.35021943 -0.20613089 0.11555993 0.9585339 -0.53728306 0.6137453 -0.53587383 -0.9182237 0.08776177 0.12367485 -0.60296106 0.36949977 -0.22798775 0.21246685 -0.60201806 0.27874297 -0.041008186 -0.38416612 0.060380947 0.2777409 -0.3115369 -0.049324688 0.37996817 0.018199308 -0.2016429 0.31535438 -0.045250464 -0.783947 -0.4775979 -0.14054723 -0.5861143 -0.11406246 0.3156322 1.2175592 -0.14276755 0.27336335 0.16450116 0.14100824 0.23021944 0.77376986 -0.49247843 -0.681107 -0.383844 0.3910433 -0.16395207 0.021411533 -0.8232614 0.6079388 -0.13680892 0.1447496 0.67837447 -0.5855372 -0.434619 0.0019143588 0.4417803 -0.67114246 0.34777692 -0.14249475 1.2206193 -0.013936588 1.6174136 0.9221198 -0.24823408 -0.5551817 1.1674663 -0.102635026 0.20141597 -0.40482184 0.8697573 0.0031660348 0.00928432 0.2805079 0.06485257 0.12620513 0.1292395 -0.023742057 -0.229118 0.27571568 0.94609517 0.32968515 -0.6915269 0.010592388 0.20276582 0.4610053 0.113483354 -0.1282492 -0.2804479 0.0393659 0.82663465 -0.31698644 0.0833223 -0.3686894 0.32653603 -0.11559542 0.061983243 0.36266574 -0.13393517 -0.06560395 0.1553812 -0.40795702 0.40730953 0.08626768 0.90777117 0.52331424 0.15454172 -0.27728465 0.69783676 0.5997563 0.10431537 0.2557852 0.13822223 -0.099645756 -0.4485714 1.1522833 0.044738702 -0.09788254 -0.18892077 0.80303234 -0.34681612 -0.3027827 0.06924537 -0.21686827
RIPK2 1.2017778 -0.24265279 0.3823965 -0.46590808 0.94569486 -0.83023286 0.22592992 -0.45165315 -0.22802697 -0.066611744 0.448948 -0.35413542 0.43094426 -0.6878496 0.6274441 0.008569522 -0.21584904 0.027866881 0.19444102 0.00471049 0.6669895 0.5174555 -0.33156532 0.24370499 -0.39101332 0.21977355 0.49536106 -0.16886286 -0.20361313 0.26535368 -0.17989214 0.40635908 0.047484867 0.41712618 -0.051892363 -0.84649676 0.44940576 -0.35362753 0.27758786 -0.8675875 0.03430978 0.7896011 0.04920463 0.59160227 -0.12701629 0.3682984 0.100426 -0.19692644 -0.41239533 0.16209836 0.5190035 0.29934168 0.036358654 0.44322476 -0.0011453851 -0.4643429 0.2026316 0.4282614 0.5410779 -0.17132524 0.23712389 -0.53520775 0.2536145 -0.021033319 0.17154902 -1.166048 -0.054315075 -0.15598029 -0.10210779 -1.1162905 0.63514227 -0.80526435 -0.60525167 -0.2559082 -0.5557911 -0.06571394 -0.27460593 0.4495307 -0.46888268 -0.1877744 0.5941727 -0.49117765 -0.40373293 1.2091022 -0.4592683 -0.08656489 0.40135357 -0.63755506 -0.0056433002 -0.28472313 -0.019488286 -0.97171104 0.057313025 -1.0621475 0.00459906 -0.02884865 -0.62189174 -0.29168797 0.24806792 0.29962793 -0.56494576 0.52067304 0.68866056 -0.45376608 0.18727972 0.33531234 -0.20561421 -0.16969651 -0.017865933 0.005821983 0.16945624 -0.78683674 -0.40787482 -0.08872692 -0.42059636 -0.14205733 -0.037870366 0.286616 0.75455844 -0.10136244 -0.628611 -0.17758785 0.52613467 0.009919473 -0.37289363 0.06659606 -0.9790045 0.3727555
GUSB -0.46835896 -0.65228003 0.31451198 -0.23393472 -0.34658244 -1.0065225 0.43510666 0.14167264 0.051160708 0.22418767 0.51944435 -0.1980366 0.31409153 -0.48226586 -0.51278305 0.6380157 -0.8979419 0.41538757 -0.4100286 0.84997016 0.26068762 0.56336844 -0.77552044 -1.0253702 -0.30252737 0.5820346 -0.17052224 -0.34499002 0.5710224 -0.112973034 -0.78258604 0.36700672 -0.03242157 0.58598095 -0.3408285 -0.25580412 -0.2699989 0.020176293 -0.008834365 -0.12741123 -0.7305007 0.1908526 0.07024463 -0.69594103 0.33327633 -0.41719675 -0.21081391 -0.7562226 0.8591644 0.7846845 0.14824001 -0.64571977 -0.09901657 -0.2479985 0.22912584 0.14147401 0.38972 -0.93011683 0.29370072 0.27088746 -0.296393 -0.8807345 0.19119339 -0.40013632 -0.44567525 0.14587726 0.92172885 0.2617283 -0.44596475 0.3621922 -0.20498686 -0.14632358 -0.37777942 0.56180316 -0.26307806 -0.67982095 -0.45816502 0.059340183 -0.84736866 -0.34955668 -0.07050294 -0.66093045 0.7668026 0.6574395 0.5967523 0.5002022 0.19475365 -0.032132845 0.11945533 1.1217408 -0.4394431 -0.07633472 0.55885893 0.19583638 -0.28233916 -0.59411484 0.056215353 -0.19494005 -1.1299007 0.8995552 -0.5276027 0.5629662 -0.6416823 0.17096622 0.332481 0.3430259 -0.03233977 0.07154029 0.24605602 -0.41694114 1.0734789 -0.4701488 -0.02139057 0.8184525 -0.68959945 -0.50845754 0.06539553 0.23194385 0.22864477 -0.06877041 -0.5005815 -0.33951297 0.3437188 0.10818985 -0.2848449 0.0815361 -0.0978508 -0.16291562
MTOR -0.05887198 -0.49939883 0.06982689 0.09595661 1.1305432 0.07464448 -0.4187746 0.37833503 0.7005606 0.74683124 0.4584824 -0.82673645 -0.49022827 -0.8934605 0.18498102 0.76309395 0.12255285 0.3454604 -1.1541448 0.24267843 -0.7371293 0.59375405 -0.043395225 -1.1516049 -0.6662048 0.012753472 -0.020701574 -0.21352094 -0.123796284 -0.59886515 0.37724215 0.4352067 0.018406242 0.21838483 -0.18478076 0.48429382 0.26403964 -0.34220725 0.27627045 0.56455374 0.268158 0.07029972 -0.87116766 -0.9169304 0.16700262 -0.28658542 -0.37602967 0.16018452 0.2709086 -0.61568433 0.5060135 -0.41695696 0.036966305 0.3746954 -0.90739053 0.31054556 0.40317684 -0.93070567 0.31590667 0.33009744 -0.7577293 0.10738082 -0.015465602 0.28602943 0.5886688 0.67353857 0.06440417 -0.27482238 0.33246014 -0.06139664 0.28926083 0.39850128 0.31117803 -0.76355 0.7700194 -0.4351213 0.09794525 0.5931038 -0.6607496 0.78414315 -0.14246924 -1.2687095 0.79170746 0.92089 0.08184394 0.24660775 0.3921605 0.29935434 0.21149963 0.0046888227 -0.37908295 0.4330923 -0.79582113 -0.0021698612 -0.063844584 0.23002057 0.44245106 -0.63443124 0.1882271 -0.14528435 -0.4063716 -0.3484298 -1.0298796 -0.5373944 -0.35908428 -0.81590164 -0.42119956 -0.3700213 0.3150798 -0.711384 0.5124309 -0.33205345 0.797381 0.20778877 0.2184235 -0.8100913 0.66513914 0.02608618 0.31302792 0.16199729 -0.780906 0.2604622 -0.31081814 0.5410355 -0.46841684 0.9847083 0.15535884 0.17319421
Lactobacillales 0.31804585 -0.3542037 -0.23296835 0.3343855 0.68723315 -0.29122955 0.66773516 -0.095340155 0.7216781 0.5337189 0.45212 -1.4094832 -0.0040285066 0.04759346 -0.31178328 0.049053434 0.34058568 -0.41332075 -0.8130323 -0.123719566 -0.048162036 -0.14066462 -0.39893582 -1.1707816 -0.47234407 0.38997474 -0.40325922 0.4817087 0.3570691 0.4734527 -0.45749238 0.78524876 -0.52951556 0.6430232 -0.2725268 0.029621208 0.5286462 0.40573156 -0.052954175 0.46985963 0.2975561 -0.14258666 0.51341033 -0.2324413 0.5743096 -0.7941477 -0.9217402 -0.21616141 0.7486018 -0.7801389 0.46831957 -0.24980402 -0.2676297 0.63308597 0.40965465 -0.16359298 0.1977465 -0.45499623 -0.3108073 0.05644341 -0.3627562 -0.3553867 -0.2419616 -0.24202727 0.07876199 0.2996068 -0.46021247 0.36149284 0.31346938 -0.6109152 0.78315353 0.37424415 -0.4957331 0.036470734 0.5396637 -0.27918762 0.7319908 -0.7348394 -0.13105367 -0.5423403 -0.40080136 -1.0092609 0.6772467 0.2375961 0.8657724 -0.3376554 -0.03414079 -4.9684833e-05 0.09494221 0.1841478 0.6849766 -0.7108777 -0.39368555 0.5888902 0.557763 0.28870535 -0.02401254 -0.62608504 -0.24564995 -0.074018225 -0.6238804 0.4111543 0.11036935 0.46876952 0.7172719 -0.053681824 -0.5450262 0.4415316 0.5770922 -0.19938542 0.8707872 -0.22496101 -0.22426818 0.81601924 0.79656595 0.24194594 -0.008955102 0.5427458 0.32067308 -0.5686708 -0.3638861 -0.09191975 0.08614197 -0.6540084 0.0388311 -0.16499293 0.47111383 0.21274607
CDKN2A -0.2890003 -0.406793 -0.2532507 0.67193884 0.014040283 -0.30142054 -0.60110265 0.40375516 0.9264913 0.09521472 -0.31129563 -0.6866452 1.5122466 -0.53119123 -1.5101992 -0.013854436 -0.45022377 0.21554415 -0.7815927 0.3069773 0.43670067 0.09670153 -0.08095303 -0.7262269 -0.20320807 0.17033044 -0.11744028 -0.08962582 -0.09086641 -1.0695448 -0.49459654 -0.4701332 0.6235387 -0.17765224 -0.8904584 -0.15505077 -0.28448063 -0.87257195 -0.6545704 0.0306357 0.21510528 0.15987523 -0.8011489 -0.38240054 0.07505721 0.90780395 -0.33148992 -0.39874256 0.13911495 0.8448115 0.8350718 0.45588878 -0.7249818 0.233993 -0.27417764 0.114513576 0.27672008 -0.37571147 0.49706733 0.021714555 0.060718544 -0.9133848 -0.3008913 -0.46074295 -0.824679 -0.20682064 0.34257558 0.11245662 -0.40792355 0.17075211 0.0008584016 -0.4701228 -0.20386998 0.48787993 -0.2274007 -0.67205346 -0.77585864 -0.18651843 0.15863538 0.031725556 -0.5217575 -1.5862261 0.030089077 0.81103534 0.56782687 0.7481189 -0.268569 0.23191613 0.008799436 -0.52104414 -0.66962343 -0.0078497 -0.24838147 -0.4876099 0.79821587 0.8159413 -0.193212 -0.8966653 -0.51981175 0.36146525 -1.1293626 0.6245956 -0.39314866 0.084680505 1.2550118 -0.56315076 0.0123649025 -0.72968805 0.88233656 -0.8934641 -0.13361181 0.14123479 -0.17755897 -0.17529052 -0.0016659342 -0.18818438 1.016258 -0.33352774 0.35644862 0.22589788 -0.24414541 -0.37099668 0.7927087 -0.46757507 -0.32112566 -0.21560104 0.18214862 -0.58895016
EGFR -0.034753013 -0.58366466 -0.3393744 0.32259935 0.569828 -0.2197727 -0.5866804 0.31423286 0.69154894 0.8781973 0.1723739 -0.005241427 0.48647976 -1.06928 -0.35058415 0.51722133 0.6087235 -0.3141822 -1.079312 0.06931255 0.37205553 -0.0007261059 -0.47291523 0.23608446 0.14728375 0.17235254 -1.2327847 -0.4447941 0.45155644 -0.07053616 -0.5243788 0.8024089 -0.34269765 -0.5215488 0.40250328 0.56881475 0.30555862 -0.62823194 1.4391705 0.53366137 -0.43546203 0.30809867 -0.7852275 0.22401874 0.78517574 0.22723475 0.15850332 -0.0782598 -0.24832416 0.0879626 0.3785285 0.13025445 0.0045302873 0.7671847 0.17440353 -0.17596799 0.21430716 -0.21025437 -0.42802012 0.64022154 -0.59673226 -0.7724582 0.7895233 -0.13876599 0.61090946 0.0074180104 -0.0137789035 -0.50479496 -0.2917636 0.29709354 -0.2681887 -0.6097017 -0.3989857 0.061386086 -0.06567201 -0.5157725 -0.09696101 0.565476 0.20665538 0.21575943 -0.25947475 -0.3705032 0.6119625 0.87783855 0.50595295 -0.07474019 -0.38422465 -0.15056384 0.6527205 0.4627873 0.4141216 -0.44336882 -0.1223143 -0.11021743 -0.553686 0.4625219 0.15709735 -0.6458179 0.6016219 -0.25025168 -1.3674102 0.5800722 -0.43977883 -0.5719022 0.33811605 -0.4396842 -0.91954815 -0.048653424 0.78947204 -0.32121366 0.060331374 -0.07119493 0.68500286 -0.022175848 -0.69163626 -0.6628522 -0.59270537 0.7854904 -0.09269009 -0.054864775 -0.8359161 -0.7650018 0.26842248 0.2593462 0.35233262 0.55355793 0.037062965 -0.124439284
FCGR3A 0.41646627 0.24038315 0.44478014 0.35091683 0.97259986 -0.4633912 -0.015613475 -0.61688197 0.18296476 -0.47566348 0.5331181 -0.08577361 -1.1102756 -0.18982393 0.8191862 0.30386937 0.11136201 0.44356787 -0.6017795 -0.3531598 0.24042805 -0.22943659 0.19066569 -0.4515755 -0.6224737 0.41105905 0.2321892 0.347967 -0.2966354 -0.83217543 0.0155973565 0.26797062 -0.10382783 0.19399486 0.24956545 -0.5837896 0.3748448 -0.8610723 0.24564247 -0.06749458 0.08582838 0.561831 -0.27455178 0.5655046 -0.31637806 0.33735007 -0.28464118 0.4409146 -0.3119807 0.79557323 0.37019244 0.4135717 -0.5180727 0.08572161 0.12673177 0.020216795 0.33438802 0.2695278 0.19681528 -0.07590249 0.17323555 -0.38379183 0.5371788 -0.8775957 0.073683016 -0.29646152 0.012356727 0.989374 -0.21624391 0.037739128 -0.47618708 -0.19810167 -1.1822504 -0.44158503 -0.45432925 0.27051306 0.04498391 -0.46238247 -0.5463602 -0.012044436 0.3145826 -0.34489104 0.49343672 0.5663056 0.858501 -0.250344 1.0159394 -0.44380406 0.07633065 0.3096301 0.040846102 -0.17159383 -0.33978584 -0.0076732403 -0.028193315 -0.028094808 -0.3141271 0.034758348 -0.28082377 -0.16659386 0.11925782 -0.58617115 -0.61252683 0.011793706 0.45240897 0.44822615 0.07510688 0.12678109 0.15436453 -0.4705656 0.13699211 -1.1390743 -0.47405747 -0.2189773 0.11974538 0.06918856 -0.09025386 0.07426032 0.044344965 0.013698164 0.1405972 -0.061274163 -0.039522108 -0.29131714 -0.7391837 0.0770962 -0.4541916 0.23393741
MYD88 0.5857177 -0.21431339 0.617638 0.15789662 0.6058029 0.38965067 -0.59926194 -0.17761458 -0.833928 0.012445136 0.61969274 -0.0060860184 -1.063757 0.047620986 -0.3591855 -0.01047526 0.4221456 -0.25735074 -0.44600308 -0.031001296 -0.039191227 0.08636466 -0.0720869 -0.45440793 -0.092356935 -0.6718137 0.111089244 0.10432863 0.0003597029 0.5760267 -0.6222689 0.55374944 -0.51729554 -0.30085504 0.13500308 0.40451512 0.23200278 -0.6833017 0.39098287 0.09617005 -0.070163555 -0.3518015 -0.26864156 0.1143919 0.34944943 0.3252192 -0.6075097 0.37856102 -0.3455989 0.96638143 -0.18667832 0.6567774 -0.07562188 0.5034378 0.26171568 -0.74446136 -0.0081183575 -0.54065317 -0.26160562 -0.012478398 -0.5642169 -0.12529281 0.63123477 -0.6746361 -0.15799055 -0.19633773 -1.1413736 0.68650836 0.27676404 -0.46175483 -0.6646766 0.45620632 -0.023281047 -0.76962554 -0.1823271 0.21716008 -0.21321549 -0.2562619 -0.45006618 0.4013625 0.17703716 0.09108148 -0.41825774 0.9422491 0.7773827 0.029388413 0.28941727 -0.261919 -0.08891698 0.23164923 0.34444964 -1.1699294 0.119278535 0.13427855 -0.6542393 0.69573057 -0.059081014 -1.127688 0.051289227 -0.77678454 -0.38893095 0.13141242 -0.10803068 -0.03825197 0.11461889 -0.6395461 0.3301627 0.38196555 0.3525612 -0.8946336 0.38774538 -1.2226881 -0.14085217 0.32801718 -0.11382911 0.65379083 0.46020448 0.2141149 0.23609287 0.25868583 -0.4609298 0.14403631 -0.18399785 0.9028867 -0.5029477 -0.6843953 -0.8432269 -0.13440202
CD44 0.21034685 0.24132547 -0.120656155 0.5876005 0.67412287 0.26257798 0.061838713 -0.20149928 -0.049781278 -0.058330655 0.26780936 0.17048727 -0.32115167 -0.109021194 0.19449179 0.016351495 -0.29353693 0.2854326 0.14613178 -0.33094347 0.65693444 0.767368 -0.5151306 -0.13045865 -0.4804194 0.10781248 0.49574605 0.6508393 0.2487753 -1.0664696 -0.37352407 0.0043811672 0.050467342 0.011130562 -0.797288 0.13363256 -0.1624666 -0.33662918 0.027505958 0.14854309 0.16143277 0.18204871 0.079785354 0.6374079 -0.15709458 0.6482791 -0.5582467 -0.09201693 0.10147992 0.21664041 0.40320978 0.07743927 0.25387046 0.36975086 0.00014718993 -0.42953682 1.0753921 -0.271028 -0.11380534 0.19494349 -0.26413003 -0.15444693 0.5723069 -0.092494324 0.1764418 0.018446293 -0.46529484 0.16818729 -0.44868064 0.46794322 0.28413028 -0.30932912 -0.52270806 -0.87642664 -0.39280415 0.7029365 -0.6355571 0.50655514 -0.839489 0.319479 0.866414 -0.40381715 0.2982781 1.2450855 0.38071683 -0.67017275 0.6634294 -0.08227636 0.4083536 0.35445803 -0.31856167 -0.35967153 -0.26607308 0.008213129 -0.2989721 0.34344435 0.7577737 -0.18646474 0.090292305 -0.18160906 -1.0184872 -0.22394589 0.6835835 -0.32108206 -0.074330784 0.34178877 0.65578884 0.37851992 0.24180587 -0.4206784 -0.06486666 -0.9805231 0.35633385 -0.67711526 0.22106723 -0.2349267 0.81823486 0.028989876 -0.1104077 -0.46010298 -0.12366758 -0.017709315 0.11887411 -0.030475195 -0.5244954 -0.37619573 -1.1832561 0.50935096
IRF1 0.84851456 0.52740103 0.3971221 0.13125886 0.6682922 0.18114358 0.06532115 -0.027616164 0.12736362 -0.09733839 0.6243622 -0.12513256 0.26661277 -0.4973703 0.76621956 -0.47547647 -0.7267185 -0.37121752 0.17704223 0.33068117 0.9040602 -0.19029158 0.028969962 -0.10963285 -0.74564874 0.2189347 0.058021445 0.77054 -0.3974041 -0.15782629 -0.8641539 0.32672837 -0.20969824 -0.46063942 -0.56347865 0.25202432 0.6839018 -0.44595683 0.10849799 -0.71594876 0.048035607 0.42026234 -0.16857283 0.22130626 0.32223517 0.14677322 0.04024612 0.09821293 0.025748352 0.4735626 0.37469375 0.3486454 -0.043224063 0.18771099 -0.29449677 -0.29465726 0.2605058 -0.1585783 -0.11748628 0.18985114 -0.2126379 -0.60899305 0.4053531 -0.43529883 -0.49297926 0.017876457 -0.42958388 0.9712608 0.11652536 -0.4893023 -0.10499293 -0.25720483 -0.3335962 -0.2158437 -0.45375612 -0.13524672 0.29777193 -0.3609478 -0.7221072 0.38556778 0.09191703 0.21767652 0.22593693 1.1201987 0.3071439 -0.013088603 1.1453372 -0.5907951 0.31470913 -0.18622324 -0.30557886 -0.41133323 -0.00373257 0.042087633 0.027820708 -0.098855786 0.54727936 0.008898978 -0.11775768 -0.37922984 -0.18944505 -0.47909558 -0.35661104 0.38507175 0.013207444 -0.20846424 0.26193324 0.16156816 0.21729085 -0.54441607 0.42066818 -0.45748863 -0.06689081 0.06845532 -0.555515 -0.33947793 0.031135518 0.33092266 -0.036978245 -0.068902604 -0.65589136 0.015523754 -0.05316134 -0.11099682 -0.39753965 0.037791673 0.003301858 0.50281906
IL17A 0.40162998 0.23633468 0.19207597 -0.055538036 0.43809235 -0.17454165 0.13484907 -0.051885 -0.45398477 0.03727796 0.08723977 -0.19981888 -0.59915084 -0.35287273 0.5363475 -0.3025986 -0.65589327 -0.035688646 -0.0002917129 0.103129305 0.78809446 0.23932004 -0.42071474 -0.40777382 -0.5336507 0.42550758 -0.13435343 -0.11026423 -0.69174325 0.11806803 -0.86624837 0.6740089 -0.357367 0.261308 -0.28033242 0.033673808 0.025794016 -1.0011126 0.063057505 -0.16683353 -0.12063906 0.17283349 0.024375346 -0.24467628 -0.67255527 -0.021027282 -0.16256668 -0.5857065 -0.57756144 0.08143415 0.19898474 -0.19863062 0.11099714 0.3562085 -0.22202453 -0.50204134 0.63892543 -0.033046078 0.2880667 -0.25582618 -0.0565454 -0.002981056 0.41840747 -0.122352175 -0.21091442 0.31852856 -0.37491795 0.92440116 0.012040857 0.0015666584 -0.1638317 -0.58214074 -0.23001993 -0.82141185 -0.5991377 -0.14654873 -0.24844544 -0.94807845 -0.24058789 0.061012447 -0.48048252 -0.033690248 0.3775672 0.8001578 0.2212317 0.27258348 0.76655823 -0.73532486 -0.1654543 -0.05385073 -0.013210142 -0.35500902 -0.19806923 -0.12132338 -0.43849972 -0.12903716 0.12511885 -0.3092807 -0.46408978 -0.33065274 0.048804205 0.30236357 -0.35932824 0.44709787 0.26015222 -0.09923306 0.16635191 -0.25701362 0.13358526 -1.0228839 0.15667717 -1.1824282 0.22992997 -0.090335496 -0.56678337 -0.34826958 0.39075735 0.43956885 0.14560002 -0.28576002 -0.5941461 -0.64473754 -0.3137136 -0.040503196 -0.3300179 0.36800423 -0.19452561 0.7934115
IL1A 0.34429416 -0.026506577 -0.08312971 0.44936317 0.35809246 0.23495527 0.22261661 -0.27983433 0.12421439 -0.2371864 0.87541544 -0.1733474 -0.47273964 0.71263504 0.2382258 -0.4799614 -0.88693655 -0.25720796 0.44678518 0.40448853 0.81852496 0.40477365 -0.5571041 -0.23576538 -0.83061534 0.019273557 -0.700537 0.4474935 -0.045219466 -0.85701007 -1.0787176 -0.29907128 0.73616266 0.6607943 0.028456492 0.44211614 -0.4310326 -0.3145299 -0.11008807 0.35483488 -0.5805644 0.68932027 0.401235 0.11124326 -0.19551566 0.2757227 -0.017268552 0.29305047 -0.39068833 0.40005884 0.09887357 -0.10254259 -0.01672861 0.66003305 -0.072740495 -0.4850961 0.41974655 -0.25763226 0.27379832 0.46734083 -0.17618853 -0.124926604 0.4907653 0.020002052 -0.13919021 0.34644464 0.3477313 0.4519953 0.04035885 0.15454143 -0.54923755 -0.4929208 0.5150792 -0.5727302 -0.63457435 -0.40784425 -0.032007627 -0.24633554 -0.76170975 0.14408953 -0.13006483 -0.61822397 0.22291331 0.52746785 0.46465865 -0.22943804 0.92061126 -0.7094448 0.58954084 0.118705556 -0.05346344 -0.1487478 -0.2182986 -0.079013124 0.08182986 0.2878695 -0.075137496 0.6028212 -0.3101268 0.008462381 -0.46581703 -0.16486456 0.10459926 0.16300003 -0.3318917 -0.7044125 0.44824335 0.2835404 0.34434795 -0.6225273 -0.07715466 -0.63141924 0.26804197 0.11525457 -0.5890002 -0.11979291 0.42937422 0.38505813 0.13684122 0.54603994 -0.9464056 -0.91482437 -0.10501749 0.66573405 -0.20100746 -0.17508575 -0.35817364 0.2731044
CLCF1 -0.30574265 0.22982734 -0.0045366874 0.57050246 0.34309322 -0.7101892 -0.0061617917 -0.18722408 0.19427156 0.28409588 0.1279191 0.13723713 0.13082893 -0.44210792 -0.5028931 0.6116077 -0.36571997 0.71729213 -0.6563099 0.928443 0.90945387 0.22788024 0.40995514 -0.26781896 0.13269389 0.64258295 0.19426231 0.11278648 0.40085497 0.015110046 -0.9154111 0.81352764 0.72830933 0.71631473 0.18435189 0.22407594 1.3758065 -0.35521236 0.4488862 0.3299931 0.31092235 0.6097692 0.7503578 -1.409179 -0.13474923 -0.74595416 -0.8818053 0.3945221 0.21536586 -0.64187634 0.64688617 -0.632057 -0.33237728 1.4675432 -0.16706508 -1.0723194 -0.17426194 -0.37877378 -0.40427932 0.49487498 -0.3207899 -0.04829443 0.41070598 -0.48642525 -1.4792945 0.8172318 -0.53555804 0.19660969 -0.83339304 0.8733985 0.43195304 -1.1330193 -0.01547807 -0.54597217 0.21638332 0.14377008 0.4000058 -0.10642887 -0.10524299 0.05100237 0.5032573 0.12719296 0.1566971 -0.245201 0.54717046 -0.5996428 0.18538794 0.39308494 0.03323656 0.4907454 -0.14258526 -0.31026998 -0.5303303 -1.2710032 0.0864746 0.012267349 -1.5231045 -0.16230217 0.25199378 0.18375695 -0.86059654 0.70498013 0.110625125 0.063427836 0.097867906 -1.1214713 0.3041034 0.20162655 0.5241939 -0.98552334 0.08462945 -0.11509261 0.23106748 0.04562003 -0.43312716 0.10894999 0.35803017 0.47034895 -0.2917874 -0.86673045 -1.1082615 0.29635552 -0.3542389 0.17589964 -0.06907756 -0.20654492 -1.1526906 0.7884287
ATG16L2 0.5638442 0.48583314 0.1086583 0.13697283 0.7289434 -0.09857917 0.52006847 -0.20747334 -0.38524878 -0.34189463 0.43214265 0.33961052 -0.33247396 -0.3098533 0.6477057 -0.14020404 -0.389815 -0.123848744 -0.2730494 0.20623337 0.6137793 0.79255795 -0.12147115 -0.19200473 -0.64521956 0.031082235 0.17336231 -0.09914697 -0.49857178 -0.37400717 -0.30110386 -0.33852035 -0.460938 0.0055262507 0.04600628 -0.58593714 -0.05004357 -0.38072827 -0.077025704 -0.08241728 0.111248985 0.67605114 0.12472648 0.17099479 -0.2556006 -0.15066916 -0.38056138 -0.032224357 0.19956957 0.11213829 0.4306986 0.005114148 -0.13312635 0.36430132 -0.045540635 -0.28491387 0.8260714 0.1665201 0.2049725 -0.08669008 0.15670899 -0.27160943 0.661531 -0.0754131 -0.15967076 0.32850602 -0.085246615 1.143206 -0.07233493 0.16556834 0.0038255334 0.12020487 -0.7594923 -0.020393936 -0.59120303 0.26531523 -0.039541826 0.2981371 -0.79441047 0.07642862 0.004874538 -0.082605235 0.95460427 0.923982 0.121641934 -0.4957153 0.7236505 -0.85065126 0.04649496 0.06701465 -0.20832238 -0.0286725 0.025532315 -0.3176113 0.34631988 0.08848845 -0.001356518 -0.6140139 0.10172607 0.03924496 -0.3321675 -0.4299199 -0.66083384 0.13941246 0.7493371 0.066962115 -0.36877525 -0.23858479 0.07557825 -0.47851387 0.082602225 -0.9340964 -0.020783735 -0.44554967 0.61777425 -0.28830183 0.74760723 0.3265266 0.1745512 -0.103433184 -0.35543823 0.1508659 0.3143866 0.0156441 0.08970659 -0.6439111 -0.5482746 0.6410124
IGF1 0.40196887 -0.642448 0.48402753 0.89946645 0.919817 -0.4452968 -0.91918325 -0.75885546 -0.18672323 1.3405637 -0.22144797 -0.39767268 -0.5327575 -0.99593055 -1.1508254 0.8017484 -0.6798142 -0.3138205 -1.1051089 0.42067635 0.13437743 0.59787107 -0.350481 -0.45018166 -0.22252314 -0.08396388 -0.5731876 0.1578967 0.24323091 -0.3690496 0.39116135 0.7930767 -0.20465295 0.12860362 0.38733456 0.8323427 0.65883166 -0.3976024 0.7727696 0.76075935 0.8272865 -0.07950765 -0.5790881 -0.06317775 0.0038753382 0.5784211 -0.7454207 0.27985957 -0.71646416 0.0025509263 0.12147524 0.7813086 0.4453341 0.7149256 0.45920777 0.26268828 -0.37937278 -0.24269797 1.0200434 -0.15306243 0.7468457 -0.2573955 0.54906964 0.45127624 0.30198696 0.41677976 0.27765664 -0.1411325 -0.19130415 0.05770677 -0.21548213 0.78582996 0.1949544 -0.28447646 0.57104385 -0.30225188 -0.13723803 0.102808826 -0.035038415 0.31848052 -0.6580092 -0.23181881 0.41665593 0.84370476 0.8431565 -0.40229404 0.70932585 -0.06651902 0.26704264 0.47271544 0.13336822 0.008126557 0.19926624 0.45294794 0.9054267 0.40235043 -0.56304705 -0.17179067 -0.17243372 0.12055377 -1.2034851 -0.6991714 -0.12825835 -0.4127317 0.43806905 0.678476 0.71454436 0.24510048 0.065862395 0.034723178 -0.22967938 -0.24488729 0.49424687 -0.35629746 0.45965585 -0.1348504 0.3895661 0.2799813 -0.12546043 -9.506497e-05 -0.007407372 -0.65883625 0.84885985 0.25439933 -0.4319606 0.043024 0.19213259 -0.11598049
IL1RAP 1.0254478 0.58299327 0.23558824 0.51072073 0.4990949 -0.16149156 -0.204557 0.22701436 -0.13983405 0.0052189305 0.27882615 -0.3112193 -0.5581704 -0.22511432 0.030956943 0.05041883 -0.6097757 -0.25896817 -0.39742705 0.24555306 1.103815 0.19319317 -0.5964539 -0.74279743 -0.6056681 0.12800552 0.3584368 -0.10008791 -0.46093628 -0.2896472 -0.89330864 0.25129026 0.11568338 0.44336584 -0.20572427 -0.644027 0.37207282 -1.0069383 -0.22082579 0.2567354 0.115743265 0.2848884 0.14482483 -0.11004607 -0.024670634 0.028603183 -0.2339406 -0.07470993 -0.39344478 0.30218324 0.22536097 -0.0025471805 -0.28479698 0.3029641 0.19951597 -0.6965814 0.1148705 -0.043951828 1.1184903 -0.3211069 0.17221123 -0.09265795 0.22093564 -0.16141818 -0.0821209 -0.04627475 -0.15971431 0.6179441 -0.4198629 0.17685135 -0.068374105 -0.41388354 -0.878909 -0.90630275 -0.5796018 0.11507043 -0.4610969 -0.5946948 -0.5625408 0.38065654 -0.63395804 0.6025086 0.21748461 0.35103396 -0.15818286 -0.4526046 0.6587564 -0.87657934 0.13136132 -0.06562985 0.02417144 -0.21566203 -0.13097098 -0.1285075 0.28056338 0.020058613 0.10714776 0.037376534 -0.37668523 -0.50456583 -0.44741452 -0.12055084 -0.5201006 0.65733004 0.0759545 0.043758694 0.510431 -0.7432685 0.26695713 -0.8652757 0.13471617 -0.1915992 0.24648812 -0.10266378 -0.1994707 -0.56297344 0.54955465 0.6818359 -0.12013106 -0.05567267 -0.7080953 0.27755046 -0.18034148 -0.13514742 -0.56485337 0.32480428 -0.65811354 0.6112627
CCR4 0.23747145 0.59825325 0.16421114 0.4455874 0.25207385 -0.058950447 0.4004708 -0.49776563 -0.12916988 0.086936384 0.22517098 0.1960172 0.87387866 -0.35667542 0.5797524 0.9317672 -0.16748385 -0.30031303 -0.45932773 -0.16137719 0.26764667 0.34093162 0.39607114 -1.3802193 -0.8463192 0.14603043 0.07714153 0.4032243 -1.0002149 -0.014809636 0.057455607 0.089760624 -0.28765902 0.24035059 -0.048711836 -0.27802286 0.29360223 0.5260556 0.061762318 0.21445851 0.618357 0.06885418 -0.5224213 0.103750974 0.022272103 0.082712226 -0.39773476 -0.014975578 0.17594625 0.53974754 1.2790786 -0.07841125 0.44663674 -0.07122122 -0.019683445 -0.32848412 0.47984803 -0.16728023 -0.0022373844 -0.09136135 -1.0411676 -0.62469417 -0.93415767 -0.120299056 -0.60468245 0.29628044 0.095487684 0.027598312 0.52643913 -1.1271472 0.008733873 -0.058169834 0.057302088 -0.35597393 -1.1039845 -0.30203488 0.21593426 0.06887797 0.31291798 0.52519536 0.7224197 -0.15646154 0.060909294 0.68031484 0.08694842 1.26685 0.28742638 -0.7616344 0.6246399 -0.29179657 -0.18698354 -1.1944366 -0.25871208 -1.2967321 0.21107149 -0.3767241 -0.6263651 1.1086149 0.26525488 1.1880821 -1.2072697 0.16172357 -0.6293431 0.28164285 -0.11120166 -0.5824356 0.41352087 -0.7940228 -0.14770636 -0.5418562 0.62672114 0.18328615 -0.43335864 -0.32411334 -0.37732825 -0.042158246 0.717203 -0.14405158 1.0454715 -0.73342574 -0.0028805863 0.042392503 0.4600132 -0.6772339 -0.14936353 -0.06257898 -0.51071316 -0.1650747
Erysipelotrichaceae 0.60731447 -0.50283897 0.755408 -0.85053146 0.7025215 0.5745488 0.24316649 -0.03886543 0.09229165 -0.7938145 0.20902131 -0.23392153 0.0496406 -0.20606686 -0.72160524 0.8815891 -0.34085178 -0.34769657 -0.9307793 0.5581903 0.08820197 0.89916986 -0.16873491 -0.012477198 0.63528395 -0.021178793 0.1499333 0.56833243 -0.06313583 -0.4700962 -0.11277792 -0.26033598 0.14037016 0.61187416 0.5497518 0.3059957 0.11962865 -0.074483104 -0.43089232 1.1368058 0.26829895 0.11189257 -0.08650768 -0.671441 0.4138903 -0.34838384 -0.62001973 -0.6628487 0.14883964 0.65080816 -0.25227734 -0.14878325 -0.3671194 0.6511365 -0.3431709 -0.28636515 -0.09374247 -1.4992 -0.1967318 -0.33632517 0.010756851 -0.15361828 -0.13216901 -0.28694838 0.15480278 0.44051686 0.13896962 -0.47162616 -0.08018723 -0.24867767 0.7132767 -0.6522093 -0.73784184 0.37078857 -0.17984551 -0.45113495 0.7239274 -0.28094092 -0.8098816 -0.03992924 0.17781568 -0.4422037 1.1758093 0.19987537 0.16332264 0.31122696 -0.40839094 -0.31344146 0.09959396 0.5982658 0.056109212 -0.42670137 0.16734949 0.16150363 0.39147934 0.08097867 -0.51249325 -0.5486804 -0.035761178 -0.10278724 -0.83737653 -0.2938047 -0.29120067 0.07613202 0.39711198 0.058754135 0.29582506 0.2622479 0.6302559 -0.8373183 0.118006594 -0.08347784 0.306007 0.27702308 0.46335626 -0.77101445 -0.20701817 -0.45718205 0.46471068 -0.4084048 -0.60604846 -0.6613118 0.10915512 1.0008115 0.08434299 0.5095913 -0.5135383 0.26428598
IL1R2 0.33284843 0.17956431 0.16213049 0.16029485 0.7463118 -0.08928714 0.10122783 0.1798743 -0.31612676 0.22950672 0.124954514 -0.11237589 -0.2567474 -0.49101534 0.32965282 0.0013886784 -0.07203408 -0.3330476 0.00020944336 0.35535246 0.5037941 -0.29149497 -0.52827126 -0.6110753 -0.56727225 0.5714011 -0.22108062 0.18915805 -1.1578169 0.059166275 -0.38366795 0.6036053 0.07353002 -0.2580914 -0.05217311 -0.3898888 0.6675102 -1.0843552 0.24400234 -0.49399555 0.24183193 0.64498496 -0.14347789 0.41495314 -0.23859334 -0.023276351 -0.23053417 -0.6125165 -0.39192352 0.89881784 0.25037485 0.079443805 -0.3119369 -0.18879858 -0.084614076 -1.193432 0.43993464 0.3155848 -0.03566958 0.41343966 0.1469791 -0.241634 0.22236922 -0.017438257 -0.5875521 0.36539546 -0.33386153 0.34713185 -0.58340555 0.013313975 -0.20030968 -0.06447323 -0.1267726 -0.7483626 -0.6431631 -0.25679183 -0.11734785 -0.4085662 -0.33374694 -0.14184855 0.065697365 -0.100059375 0.6924378 0.24817897 0.8551488 0.11668615 0.84902817 -0.13718572 0.34265238 0.16557994 0.31259882 -0.082086846 0.17267534 0.17658976 -0.025105879 -0.19746059 0.27515084 -0.20322634 -0.48283416 -0.1706488 -0.169662 -0.05168777 -0.22741662 0.5687626 0.019746788 0.52032155 -0.2028494 -0.20495725 0.490119 -0.8025792 0.19210596 -1.261018 -0.011781916 -0.45001698 0.021297252 -0.4849757 0.36980754 0.25561234 0.22434434 -0.24150786 -0.31456926 -0.39294878 -0.22807577 -0.10905734 -0.30364534 0.01566195 -0.45565197 0.6969951
TNFRSF10C 0.6541413 -0.010698881 0.6997858 -0.054761704 0.83352244 -0.24823384 0.3328853 0.24076074 -0.40213895 -0.13979904 0.32443446 0.02924336 -0.31053302 -0.4186512 0.20115526 -0.29951608 -0.4794065 -0.038438316 -0.16050689 0.03138721 1.0960519 0.45578006 -0.3279657 -0.2547857 -0.45163345 0.2102286 0.062412865 0.03552897 -0.82522017 -0.06932634 -0.64436173 0.41973326 -0.6195384 0.25870463 -0.5620832 -0.2047141 0.5118399 -0.19825706 0.36766624 -0.57637775 0.5040145 0.58480334 -0.46732783 0.35574186 -0.26894474 0.049779516 -0.47719592 -0.20095803 -0.14514993 0.7541062 0.62484485 0.53077364 -0.24871022 0.004660679 -0.20656167 -0.31042635 0.3886736 0.107283756 0.09683824 0.038295552 0.15827274 -0.04818581 0.787764 -0.5281675 -0.19183262 0.28926134 -0.1405487 0.7333934 0.22878091 0.0962281 -0.42471647 -0.4662676 -0.21946837 -0.5064373 -0.62964827 0.43936205 -0.12367992 -0.33063787 -0.334297 0.17983447 0.076020345 0.088717155 0.18693338 0.5877062 0.33670294 0.00916369 0.93450946 -0.9950767 -0.19442286 0.09793497 -0.43775755 -0.2838493 -0.2027646 0.049089048 -0.09854458 0.27171046 0.009415845 0.24566637 -0.45330715 0.1619524 -0.353109 -0.2183967 -0.33661312 0.70201635 0.2142385 0.05257994 0.6546677 -0.56301975 0.56001765 -0.62459797 -0.036996916 -0.458363 0.10117496 -0.47096324 0.16964555 -0.16840611 0.65214354 0.19887899 0.30452177 -0.13961992 -0.49311844 -0.024172274 -0.07415665 -0.1601587 -0.01522526 -0.13594188 -0.6735619 0.3443464
Eggerthellaceae 0.05785599 0.11896536 0.74235076 0.69294673 0.26275322 -0.35759032 0.19681765 -0.15231505 0.63938373 -0.2986131 0.06365107 -0.73911625 0.2208306 -0.49735555 -0.632512 1.1525955 -0.9793272 0.002228776 -0.30935317 1.0006026 0.49245054 0.45860192 -0.8175393 -0.3422206 -0.48286328 -0.23882145 -0.3071394 -0.13122383 0.083296575 -0.603212 -0.39415574 0.15618515 -0.08334265 0.28982663 0.20221165 0.8889159 1.0443813 -0.064586945 0.22837631 0.44277906 0.16066854 0.3347178 0.018746082 0.10065579 0.45551223 0.5379495 -0.40020815 -0.7784855 0.8164783 0.019242175 0.56156117 0.4341988 0.13518809 0.061857197 -0.44952995 -0.23101684 0.1545018 -0.14185913 0.016522447 -1.0946833 0.4539542 -0.08534427 0.7658581 -0.557865 0.81617415 -0.6428704 0.100751065 0.17993511 -0.006743302 -0.6602987 -0.07876145 -0.014862808 -0.52488977 0.4280954 0.28477535 -0.7866003 -0.5774497 -0.19647431 -0.15341915 0.42930636 -0.37682134 -0.4374177 0.008248397 0.8500247 0.0150917005 0.52473134 0.05485331 0.0802118 0.19217253 0.13804665 0.32485294 -0.23874697 -0.56099737 0.07008793 -0.08719508 0.7529197 -0.9379767 0.16016139 -0.18096343 -0.13935581 0.0556839 0.08251247 -0.037567765 0.06319862 -0.45747963 -0.5189573 -0.39412037 0.94466436 0.21566008 -0.23935792 1.0848422 -0.76854527 -0.070152104 0.39434233 -0.11828766 -0.1225035 0.720992 -0.18438566 0.2455898 0.50149983 -0.46161175 0.33513093 -0.4035921 -0.021409146 0.26133525 -0.89996696 -0.22738574 0.19622584
TLR4 0.57289433 -0.11139047 -0.26977843 0.2930002 0.15834007 0.5545323 -0.40899986 0.08461618 0.32726863 1.0900185 0.32888162 -0.4458321 0.25815198 -0.048246954 0.10387919 0.4405324 -0.5644445 0.4309286 -0.4542648 -0.38720152 -0.12392977 0.04195764 -0.35224235 -0.89541566 0.014967902 -0.16094516 -0.23678677 0.40155873 -0.61752546 0.21523504 -0.2516787 -0.48721725 0.5081652 0.25227964 -0.9339523 0.3693319 -0.061601114 0.15236928 0.70771104 -0.10759278 0.16495986 0.6160691 -0.31332445 0.2764176 -0.16437827 0.57941765 -0.37972578 0.9387255 -0.4268704 0.5121328 0.9640015 0.10564598 -0.42067528 1.0687912 -0.37484607 0.30348969 -0.06898176 0.0010557623 0.480141 0.4362396 -0.5882992 0.1062162 0.28906915 -0.048363667 0.4477787 0.23860922 -0.48574856 0.31192634 0.13478163 -0.57568747 -0.09404157 -0.4664251 0.5665688 -0.47090092 0.33876967 -0.35254833 -0.37007734 -0.42970523 -0.022201015 0.7842698 -0.15823036 -0.3270928 0.056420803 0.8181412 0.23898128 0.54028684 1.55998 -0.13437165 -0.11956529 0.4003684 0.28196168 -0.35398862 0.111039996 -0.14354008 -0.26210624 0.88499457 -0.45180973 -0.5723532 -0.17422232 -0.8578793 -0.5744409 0.30580378 -0.049977843 -0.35097176 -0.4603407 -0.022237228 -0.071043275 0.95888543 -0.62236536 -0.44231215 1.0602864 -0.73453796 -0.8115268 0.9115342 -0.44603828 0.030282097 0.08385081 -0.16492522 0.7242816 0.208424 0.114952676 -0.76299566 -0.050380573 0.7793001 0.42917782 0.21365039 -0.2064402 0.691855
INS 0.14719592 -0.765571 0.43685424 0.21399102 1.2518601 -0.22964993 0.121615745 -0.25342706 0.5344515 0.3681526 -0.65050167 -0.5453446 -0.26696175 -0.5646985 -0.13037731 0.42255846 0.013962719 -0.19343531 -0.25198066 0.64982843 1.0150101 -0.37105685 -0.75729764 -0.6073741 -0.31413665 1.2709439 -1.2604637 0.36059803 0.8058923 -0.96939826 -0.14067835 0.31745914 -0.17568333 -0.081875935 0.60998213 -0.18781902 0.035814166 -0.35228467 1.1607503 1.0324464 0.55457956 0.29864475 0.017972458 -0.4729668 0.29815713 -0.37465292 -0.5714536 0.40697402 0.25646904 -0.11223058 0.7117922 0.109844215 0.19679978 0.66073716 -0.017945046 -0.5348776 0.18850665 -0.30933574 -0.017597452 -0.030919705 -0.24772875 0.012349964 0.51373893 0.53120625 0.81779253 0.9939784 0.61248547 0.44414052 0.7700572 -0.377355 -0.38785663 0.19233578 -0.52221286 0.091096945 0.07456033 -0.9295901 0.12956083 0.67403644 0.3002198 0.53855515 -0.84324586 -0.19345842 1.0269992 1.2238113 0.4108426 0.26872 0.38486055 -0.7429083 0.2901649 0.7319169 0.23204227 -0.310492 -0.45639274 -0.09718182 0.4544232 -0.04340879 -0.027726216 -0.029459756 -0.13991395 -0.35210258 0.3197713 -1.1477778 -0.9738786 0.09482908 -0.2856128 0.111345515 -0.016060088 -0.3698493 -0.27191433 0.19140746 0.4240911 -0.04004577 0.36687198 0.65193146 0.48557234 -0.37690645 0.46797067 -0.26055792 0.12972867 0.11997894 -0.9691865 -0.34269777 0.26689363 -0.09792029 -0.00636946 0.34340566 0.021219993 0.16100313
IKBKG -0.20661347 -0.6080492 -0.17032944 0.07414184 -0.15284947 -0.091393076 0.09816176 -0.024049865 0.26487485 0.7637933 -0.2677119 -0.02021702 -0.12747936 0.052818015 -0.10676874 -0.0008975707 0.29987636 -0.41243973 -1.80413 0.682573 0.54635525 -0.5052791 0.5894246 -0.3366013 -0.9361853 0.12142973 -0.5265968 -0.4201553 -0.184197 0.3568239 -0.5361668 0.54891056 -0.23375456 -0.4108644 0.48530075 -0.13050684 -0.010635957 0.027437098 -0.3134181 0.04702112 -0.3771186 0.22689822 -0.14222576 0.35290682 0.68994904 -0.13424869 -0.278856 -0.28402185 0.2352519 0.46388814 0.51813084 -0.17941785 0.1437257 0.1523013 0.015340563 -0.609239 0.25546584 -1.0838896 -0.62706274 1.037405 -0.54713756 -0.27392417 0.095881395 0.34287664 0.8373979 0.23577091 -0.32877147 -0.051186446 -0.120673105 -0.012086412 0.37256008 0.23632406 0.038802117 -0.35388464 -0.14698008 -0.13906197 0.33314082 -0.004180993 -0.46254382 0.5835212 -0.73120564 -0.36785308 -0.22489294 0.60509896 0.6703558 0.26389942 0.7965164 0.009886736 -0.010647584 -0.36835727 0.904366 -0.54596543 0.86971027 0.44411734 -0.1855503 0.8193492 -0.48494142 -1.1720741 0.11055598 -0.27360624 -1.0959713 -0.21511097 -0.65002984 -0.32561642 -0.943525 -0.23328172 -0.37499413 0.1754358 0.16061512 0.24511749 -0.19942977 -0.25056565 -0.18905407 0.39665204 -0.6655873 0.27997002 0.7875721 0.31576806 0.33683062 1.0270456 0.27102548 0.09657382 -0.37525466 0.28534102 0.19146465 0.16399685 0.3529427 0.684506
FFAR2 0.32620025 -0.34010473 0.6506975 -0.059008915 1.1557239 -0.48457542 -0.30407965 -0.44070336 0.49049985 -0.10087829 0.8434824 0.42338845 -0.58973056 0.051101137 -0.34246063 -0.10718138 -0.54198027 0.002847416 -0.018550422 -0.27529582 -0.057579953 1.0575932 0.35969403 -0.6466424 0.2640645 0.42704636 0.09953922 0.22894317 0.40308806 0.16813914 -0.9443696 0.08136518 0.3741797 0.039941743 0.619067 -0.27589962 0.02516452 0.10923131 -0.09192158 0.34523475 -0.26184237 0.08793179 -0.41965142 0.3490498 0.7320855 -0.84125787 -0.6845948 0.008959417 -0.40033153 0.34298736 0.45493317 0.46172798 -0.095881306 -0.17030191 0.04708686 0.014391582 0.91082877 0.5957909 -0.20463598 0.05038896 -1.1266286 0.15221581 0.0061248657 -0.6454826 0.037501357 -0.21330701 -0.35577655 1.0458311 -0.59578687 0.5478706 0.77512574 -0.42596915 -0.8518062 -1.069705 -0.21765791 0.31004003 -0.08906846 0.08894662 -0.78548646 -0.40763557 0.3576163 -0.21898545 0.57718736 1.414717 0.4352764 -0.50687885 -0.15978113 -0.047555096 0.16915968 0.72233206 -0.27872625 -0.4038385 -0.16144803 0.50400287 0.6423961 0.21531671 0.0033648899 -0.1682015 0.5876232 0.1389162 -1.1842705 0.46804366 -0.054663338 0.014626821 0.20566233 -0.4694816 0.14269425 0.10294272 -0.6590508 -0.5084388 -0.0044036945 -0.6185882 -0.38775304 -0.29731983 -0.092891395 0.21474463 -0.077665724 -0.19181928 0.43842503 -0.22292401 -0.5730411 0.497422 -0.10664823 0.3292659 0.3143438 -0.07218505 -0.42910302 0.057793576
CCL3 -0.04072484 0.52300364 -0.5023908 0.015111255 0.8186979 -0.38439018 -0.35372815 -1.1989458 -0.198737 0.29973233 0.4280157 0.45341566 -0.4334674 0.29621798 -0.066272154 -0.42969674 -0.39481732 -0.4809198 -0.13427211 0.15056458 0.83116835 0.5160181 -0.10239961 0.0027021605 -0.43290746 0.65055984 -0.3726054 -0.15835604 0.09948716 -0.3805668 -0.63704145 -0.6791648 0.5883126 0.61957765 0.031100802 0.1163194 0.12087097 -0.40232873 -0.28652635 0.18009357 0.12650181 0.07740461 -0.15303445 0.2304914 -0.36146808 0.3912253 -0.7878953 0.31848606 -0.6028365 0.17249684 0.11066504 0.24085177 -0.24296033 0.10544537 -0.19574103 0.43138912 0.2606245 0.284445 -0.1343494 -0.33271447 -0.5094463 -0.23799919 0.32202047 -0.2391294 0.29927593 -0.12886743 -0.21461228 0.43723768 -0.18143024 0.19691685 0.2964592 -0.04723556 -0.8873282 -0.47271267 -0.29097673 0.1044162 0.23097686 -0.30399382 -0.13857336 -0.22686125 0.026636789 -0.15453926 0.07171062 1.1242136 0.13278723 0.1415755 0.41514918 -0.86171734 -0.16248001 0.4378058 -0.5665552 -0.56111985 0.11039472 0.07320271 0.23582944 0.039574057 -0.020425588 0.1951432 -0.11287557 -0.05265514 -0.80866724 0.22589107 -0.28752813 0.2191386 -0.5953504 -1.038005 0.2092137 0.39794615 -0.0069444003 -0.63046 0.2630093 -0.07749694 -0.3559964 -0.51610076 -0.0916159 -0.6094727 -0.066295095 0.53091455 1.0554895 -0.42402592 -0.07233404 -0.66433805 -0.36544558 0.18286668 0.31627887 -0.32280916 -0.859369 0.21220538
GHRL -0.06759969 -0.092418805 0.6856901 0.15316507 0.37896568 -0.12505889 -0.35489476 0.12084244 0.6905789 -0.25025144 0.6598042 -0.28208992 0.40959916 -0.55900806 -0.37090188 0.87434864 -0.8670395 0.9284559 0.27768674 0.36808833 0.14474738 1.4441496 0.8850066 -0.083302 0.5431487 0.50811064 -0.15302952 0.9525154 -0.34239918 0.20850514 -0.8956807 -0.18087071 -0.2726258 -0.34766468 0.15460198 -0.2664015 1.0570318 -0.032395236 -0.10385234 -0.2742716 0.4507719 0.3852026 -0.121277235 -0.25394854 -0.103121325 -0.44945332 -0.2029708 0.34435543 0.47690967 -0.034420934 -0.24627815 0.8594687 0.22503783 0.16627268 0.84379685 0.13129091 0.06810422 0.3912493 0.78193474 0.2914552 -0.68465513 0.00047728233 -0.16706917 0.3546707 0.36702836 0.343591 0.5595595 0.2849525 -0.14144802 0.2740834 -0.17767012 -1.2904516 -0.19991396 -0.10219081 -0.573054 -0.7598517 -0.532403 -0.28464204 0.3759387 -0.0043982193 -0.68676627 0.39936513 0.83773804 1.2416242 1.0975344 0.6279359 0.3703229 -0.53005934 -0.38499877 -0.44265467 -0.21120435 -0.9145275 0.28465822 0.5789259 0.7740977 -0.5332963 -0.74194664 -0.8873258 -0.46892545 0.5818722 0.13089101 -0.105210654 -0.20658316 -0.22773342 0.5472863 -0.44805035 0.42163113 0.1368458 -0.052536525 -1.0512413 0.19314167 -0.9431295 -0.32095227 0.25815442 0.023434276 -0.3604536 0.7943794 0.8241063 0.6746834 0.023332562 -0.4745576 -0.62593424 -1.0136242 -0.41578326 -0.26644322 -0.21633936 -0.41380492 0.09775072
IL22 0.76960087 -0.112657346 0.6439588 0.16808105 0.25484005 -1.1181697 -0.5321296 0.13278843 -0.32278416 0.16440816 0.575702 0.2313036 -0.46821967 -0.34847805 0.07812803 1.3271242 -1.1688908 0.012359323 0.27095968 0.49699503 0.3471742 0.42959628 0.18826322 -0.01546479 -0.5290862 -0.20237333 1.3405071 -0.35860842 0.018365147 -0.41568744 -0.544966 0.28538653 -0.35236514 0.2635163 0.69921744 -0.08383614 0.89309055 -0.55119157 1.1377336 0.053266037 0.28247592 -0.062749825 -0.225581 0.11024216 0.15347014 0.15248284 -0.83062387 -0.26308867 -0.80047196 0.6980252 -0.3582193 0.1031202 -0.6335391 -0.14062883 0.4238269 0.16530283 -0.92943746 -0.9658739 -0.4232282 0.07833168 -0.30138388 -0.29895565 0.7647062 -0.113519445 0.28638855 -0.1090806 -0.16878234 0.44626456 -0.10409441 0.6647503 0.22705622 -0.37891155 0.4278372 -0.95776945 -0.33447215 -0.9913073 0.09393839 -1.2922187 0.1410343 -0.7628252 -0.20028043 -0.98903376 0.31269756 0.68160146 -0.021139184 0.2941705 0.75102377 -0.009265193 -0.2072649 0.10960352 -0.0650354 0.45108947 -0.115172304 0.1952024 -0.14754613 0.37596878 -0.74517435 0.2603335 0.2262572 0.10547403 -0.75800925 0.19247763 0.08876843 -0.63060325 -0.13275212 0.49096954 0.009924 0.2531493 0.75978625 -0.5267024 0.51452994 0.40159625 0.24441051 0.16016336 -0.09194641 0.20443563 0.87724006 0.4110747 0.37891397 -0.5117252 0.11766699 -0.08130841 0.13575777 0.36176544 -0.5441715 0.09876737 0.1597124 -0.29215392
