2823 128
Bacillota -0.23795615 0.015318014 -0.45190543 0.03909146 -0.017784854 -0.17178735 -0.03825868 0.16851667 -0.2633035 0.09609319 -0.23774855 0.19402316 -0.24815553 0.14869212 0.0189033 0.2706429 -0.032851316 -0.25080982 -0.40596232 -0.17529038 0.27313083 0.15581636 -0.09984768 -0.14969705 -0.20277534 0.017875077 -0.09642505 0.5027385 0.053752866 0.085686274 -0.25599667 0.13036357 -0.25688723 0.06056766 0.039941583 -0.21341224 0.12651339 -0.25075364 -0.087021396 -0.2849843 0.03307975 0.2908472 -0.2792278 -0.20059595 0.117309295 0.15664381 -0.32562727 0.116582565 0.52778214 0.032349292 0.3834302 0.0002059489 -0.11623765 -0.19577177 0.103854045 0.013544275 0.41953066 -0.47768775 0.06765289 0.14958346 0.09899795 0.17873813 0.04851283 -0.22812375 0.47752967 -0.33797002 0.030684466 0.018035436 -0.1953167 -0.41471794 0.16493362 0.4976366 0.09626793 0.14429447 -0.0049302755 0.061626192 0.7042853 -0.24858406 0.1723888 0.3646166 0.06772275 -0.5004376 -0.46700448 0.32491776 0.18278813 0.34543753 -0.17025216 -0.38675293 -0.07660079 0.04854509 -0.5056623 -0.0036195307 0.06153023 0.10915613 0.098891705 -0.04550592 -0.14897287 -0.6991117 -0.34088752 0.30617726 -0.2545607 0.3530034 0.25988606 0.36125216 -0.2063647 -0.31890893 0.05168168 0.22219948 -0.12321342 0.1654285 0.15439315 0.050719537 0.063160114 0.008931515 0.18424073 0.5178228 0.36432216 0.18807639 0.55395335 -0.19561222 -0.37522355 0.07889079 -0.0003193087 0.23941688 -0.23639023 -0.32888147 -0.26689556 0.20538996
Clostridia -0.3085256 -0.1264115 -0.010027569 0.019282488 0.08312321 0.28037095 -0.06900622 0.12344198 -0.124351785 0.15917338 0.053960897 0.720579 0.00239358 0.4730395 -0.09468136 0.004987815 0.09883356 0.10065107 -0.4098051 -0.07858253 0.21328193 0.381223 0.0014084775 -0.24169052 -0.23582871 -0.31990764 0.24777837 0.70711493 0.20806499 -0.28673157 -0.21030496 0.38968584 -0.14855182 -0.22796725 0.22213058 0.0075897495 0.34544337 -0.23088343 -0.23553745 -0.37037307 0.082812585 -0.009336655 -0.107290864 -0.30074862 -0.084915206 0.32838535 -0.3144431 -0.09752729 0.11566258 -0.19795552 0.091638185 0.1694203 -0.5487909 -0.060782738 0.19658323 -0.09669297 -0.16965237 -0.554677 0.25607303 0.12125904 0.10566887 0.039585143 -0.13752629 0.29180294 0.46745026 -0.29481682 0.25475731 0.10478721 -0.2008873 -0.55370414 0.0074815545 0.17502397 0.21735299 -0.25883943 0.093889065 -0.1852552 0.4957543 -0.28082895 -0.18424939 0.5192293 -0.08633495 -0.20019878 0.23243591 0.3797999 0.32532427 0.47884905 0.08309643 -0.31549808 -0.16453062 0.62662876 -0.44920218 -0.17772004 0.14596288 0.11407693 -0.060629897 -0.23075567 -0.2907204 -0.41809312 0.23064569 -0.20718585 -0.33917707 0.40024638 0.6288547 0.021790558 0.18778262 -0.23729958 -0.027810538 -0.12711924 0.12677652 0.06701423 0.12964812 -0.18576671 -0.15032956 0.07791084 0.06622021 0.16350885 0.03591345 0.11546498 0.3773664 -0.07982754 -0.3379215 -0.2304914 -0.18344985 0.3852937 -0.45432907 -0.2028768 -0.3406114 0.0820433
Eubacteriales -0.1903308 -0.2669514 0.17979793 -0.055242598 0.10191693 0.15230933 -0.077457026 0.032952182 -0.014501359 0.15341076 -0.034522925 0.7415611 0.03785234 0.3962817 -0.06936223 -0.008465907 0.12645397 0.17546065 -0.3399496 -0.17366423 0.44371933 0.3692379 -0.108878784 -0.29464903 -0.0933634 -0.30374637 -0.016385006 0.5390623 0.13055126 -0.25399092 -0.13263871 0.4119639 -0.0026390038 -0.14426751 0.17130743 0.09691679 0.28262866 -0.42892814 -0.23028521 -0.2746307 0.17133711 0.06801892 -0.08681588 -0.29762888 -0.33393744 0.36984703 -0.3020229 0.006220643 0.12593383 -0.0894279 0.11552295 0.008326529 -0.4154071 -0.19224587 0.29604134 -0.13975218 -0.061683062 -0.43330175 0.11663935 0.04145755 0.009794322 0.10000979 -0.17545041 0.3576692 0.444247 -0.12722269 0.2742759 0.18077834 -0.34043196 -0.5863187 -0.046390556 0.13586608 0.1480343 -0.1642946 0.285886 -0.12820382 0.5118175 -0.2347709 -0.123213924 0.6159344 -0.07644942 -0.10118343 0.16788621 0.40783697 0.3656459 0.3669751 0.12993121 -0.43366638 -0.18301904 0.6768205 -0.5371855 -0.024107123 0.11378267 0.0036456757 -0.04146173 -0.19113614 -0.37837812 -0.46261072 0.12791547 -0.24905466 -0.44496086 0.55006844 0.5679562 0.26738816 0.057650913 -0.3434377 -0.036786895 -0.21283421 0.121262155 0.14946495 0.16464819 -0.27028576 -0.026763782 0.0736215 0.27010372 0.2091296 -0.060118917 0.040838324 0.31556723 0.010130027 -0.40915424 -0.17298266 -0.053412974 0.26128888 -0.515263 -0.16661021 -0.30671355 0.08037681
Oscillospiraceae -0.18229222 -0.1151589 1.0071186 0.13101612 0.077922665 0.28769675 -0.5587267 0.30601332 0.036176335 0.32549602 0.94173557 0.013566033 0.22509274 0.2320307 -0.16036765 0.06076928 -0.5775229 0.16690324 -0.77816594 -0.6815436 -0.014224848 0.11242893 0.016537763 -0.3260735 0.103906155 0.22863735 -0.36000466 0.63408434 -0.075051256 0.1902765 -0.29965875 -0.09696945 -0.091396734 0.020844571 0.17552507 -0.83288044 0.06462121 -0.41161004 0.27597994 0.19428484 -0.67999285 -0.07898799 -0.3637927 -0.14250219 0.065995894 0.7075052 0.15015462 0.07797723 0.085712284 -0.082335666 0.45882973 0.1210645 -0.255888 0.045132972 -0.01873965 0.046952643 0.25599858 -0.43354505 -0.4548227 -0.009730975 0.087035455 -0.35893458 0.06836257 0.48629892 0.52736354 -0.2814498 0.59805775 0.92317176 0.3064789 -0.6090061 -0.76358205 -0.018066581 -0.35809204 -0.44178304 -0.2065182 -0.47407612 0.39543825 -0.097769834 0.59793097 -0.018961022 -0.054408967 -0.06905393 0.39308053 0.33018434 0.29812193 0.81034994 0.24612205 0.2192974 -0.22893444 0.47949508 -0.060584344 0.3916227 0.028448801 0.38993976 0.1429095 -0.47614667 -0.84516287 -0.2664091 0.09840952 -0.15943433 -0.7035428 0.087568946 0.93929565 0.018731501 -0.31501958 -0.46414858 -0.012168921 -0.3972848 0.1738918 -0.37426394 -0.30541322 -0.39126623 0.46827397 0.18815063 0.18160322 0.14507413 -0.19645329 0.2973285 0.48085272 0.016622955 -0.5483942 -0.50730824 0.42510238 -0.0008418631 -0.2444747 -0.3855978 -0.5560007 0.2242798
Lachnospiraceae -0.0015188672 0.06144292 -0.050142728 -0.25885665 0.26467195 -0.019648185 -0.35376915 -0.62797296 -0.6371144 -0.32273772 0.1574016 0.35234505 -0.7087715 0.10048202 -0.3259649 -0.24560586 0.30640092 0.5621353 -0.2801693 0.0014380389 0.12760906 -0.37330154 -0.16323142 -0.16948773 -0.042824622 -0.099688664 -0.7961618 0.1649031 0.44180992 -0.79393995 -0.22813052 0.33569083 -0.14712533 -0.2937661 0.058990512 0.7650186 0.24776047 -0.39064124 -0.18602341 -0.39279902 0.4848709 0.40288743 -0.47165325 -0.049190897 0.5094824 -0.17173676 -0.3472212 0.2266842 0.022594638 -0.005504884 0.58847266 -0.451994 0.10059136 -0.30777583 0.0036268726 -0.54254466 0.051472314 -0.6649105 0.25543568 0.56252974 0.24442068 0.501186 -0.16167656 0.032735474 -0.14040212 0.14851573 0.0839132 0.46204877 -0.20044047 -0.5216656 0.335294 -0.2653916 0.029975284 -0.31721568 -0.34945518 0.50634 0.6585426 0.13735808 -0.06034716 0.4795417 -0.7521837 -0.26241383 0.4271197 0.50421077 0.028907066 0.02232924 0.40402573 -0.6025845 -0.24840686 0.3773822 -0.48990282 -0.22785425 -0.05691033 -0.02382761 -0.49637377 0.04030748 -0.6950316 -0.8168145 0.75654554 0.21013515 -0.24665046 0.72927874 0.06665695 -0.23361275 0.5209522 0.04388853 0.07919131 -0.26733235 0.19533068 0.15327093 0.49715352 -0.10692555 -0.35439128 0.16700323 -0.017353313 -0.2513704 0.44772115 -0.32830063 0.45608672 -0.24890174 0.36241165 -0.23056762 -0.5868889 0.5689129 -0.19359869 -0.29294378 -0.4085924 -0.3098928
Cytokine-cytokine receptor interaction -0.16801956 -0.44405627 -0.30010778 -0.3094302 0.64365476 0.29305974 -0.26163882 0.07589418 -0.39347425 -0.18747513 0.44644338 -0.34204558 -0.34254932 -0.569844 -0.4251007 -0.03477858 0.15141337 -0.6381761 -0.11006314 0.010618274 0.25427693 -0.16936278 -0.49563044 -0.31398198 -0.8821411 0.4987589 -0.07013166 0.102121815 -0.4243915 -0.24846219 0.25517288 0.39490718 -0.6225659 0.3504058 -0.22834411 -0.14481209 0.5934295 -0.29514498 0.119617164 -0.36686248 0.23183884 0.47660086 -0.41784367 -0.3501365 -0.058415584 -0.547137 0.3223283 -0.22247593 -0.3437821 -0.0115337875 0.086874105 -0.14141676 -0.1729119 0.21915789 0.119114056 0.45514157 0.17950825 -0.47091514 -0.37104678 0.0056186705 -0.13447356 -0.081596605 0.24732305 -0.22446996 0.3343643 -0.015488734 -0.0025633178 0.0125609925 -0.58714575 -0.42385522 -0.09151456 -0.006505423 -0.24949372 -0.109952606 -0.31799337 -0.01602062 0.18089236 -0.060098004 -0.5374606 0.08712731 0.12692672 -0.48291913 0.52005434 -0.22332841 0.97201496 0.62785983 -0.75227684 0.16155572 -0.6501758 0.7349129 -0.34399822 0.113186374 -0.15369564 0.109991044 -0.14094299 -0.14613599 0.41155782 -0.13847591 -0.20057324 0.47873417 0.4929162 -0.655787 -0.23987749 -0.26481357 0.25336406 -0.33093607 -0.5507902 -0.18690827 0.18484798 -0.19822463 -0.18830746 -0.0010561984 0.23332015 -0.096857056 -0.056785993 1.1198035 -0.4369492 -0.20040439 0.6156652 -0.10494851 -0.22961742 0.09756664 -0.2119834 0.2627832 0.16126265 -0.2556266 -0.42936656 -0.015339017
MAPK3 0.06391937 -0.16213971 0.4956247 0.2808611 0.7164953 0.2800973 -0.37704808 -0.11522689 0.23159091 -0.15545428 0.55228186 -0.5799542 -0.2153255 -0.038676202 -0.32506275 0.81016874 -0.30920163 -0.08788377 -0.615525 0.79446286 0.7108444 0.31183863 -0.12935427 -0.5403936 -0.6349996 0.29245678 -0.29013225 0.3924665 -0.20270926 -0.4073372 0.18190831 -0.1642238 -0.4295775 0.031029314 0.685544 0.48789313 0.66050035 -0.13552652 0.06734109 -0.38045815 -0.24453002 0.44609755 0.09740769 -0.4846173 0.70993626 -0.25477797 0.3366175 0.21668938 -0.38865864 0.25455007 -0.06612623 0.11384496 0.71819687 0.17006324 0.38142985 -0.18971443 0.31407037 -0.25208125 -0.17875922 -0.3969635 0.11795706 -0.11172701 0.47448972 -0.19150747 0.43250734 0.44149 0.11998343 0.4847017 -0.30834278 0.28716815 0.17497452 -0.19923748 -0.041019466 0.074591495 -0.15539405 -0.3353814 0.32130882 -0.30033273 -0.1673117 -0.011363036 -0.45242262 0.07635022 0.2775256 0.28127256 0.28395385 -0.08940517 0.56281847 -0.19811468 0.20335154 -0.3303341 0.37891045 -0.5308097 -0.21881458 0.12232926 0.6575096 0.16760115 -0.2654058 -0.039534207 0.17274159 -0.033106517 -0.4746201 -0.20263556 -0.052877035 0.17306824 0.72667587 0.3795519 -0.45496184 -0.15100981 -0.14557588 0.08971212 -0.28467205 -0.038316112 -0.27407542 0.08673815 0.56422305 -0.0077305557 0.68323565 0.015000161 0.47492808 -0.377361 -0.18917225 -0.041351024 -0.1523811 -0.16892692 0.1484418 -0.31813493 0.55782723 0.31839156
Bacteroidota 0.25463125 0.0682249 0.026236877 0.08450985 0.7132083 0.31970656 -0.33064756 0.3851597 -0.11375506 0.22160667 -0.10065901 0.029964626 -0.2942046 -0.11183259 -0.38858044 0.46403793 0.06618261 -0.2045881 -0.49531177 1.2722853 0.51150113 -0.25525516 -0.14390844 -0.3902416 -0.4719776 0.44404706 -0.98215026 0.05443262 -0.2675134 0.20775762 -0.55714214 0.3080186 -0.21389736 -0.58632314 0.38478088 -0.14328422 0.31137872 0.14476447 -0.3810304 0.28564116 -0.37304476 -0.107017 -0.35518724 -0.286048 0.42500857 -0.0031345047 -0.35521108 -0.17342938 -0.15612204 0.2680286 0.14347495 -0.22820672 0.066390656 0.042780682 -0.16681744 0.5159664 0.061470192 -0.5795196 -0.8310749 -0.06858879 -0.6690809 0.2407431 0.0668448 -0.11911607 0.33493203 0.22974594 0.7391271 0.10563353 -0.42579404 -0.6506433 -0.26746067 0.0014139353 0.2528393 -0.20678145 0.43305242 0.2696478 0.29653412 -0.17356671 -0.5326826 0.007729307 -0.3455346 -0.5889809 0.28209755 -0.6968358 0.44329292 0.05045038 0.17312472 -0.37518147 -0.12155989 0.08797359 0.07327727 -0.03205103 -0.0060354657 -0.48329735 -0.7573381 -0.55219966 -0.026421782 0.25108615 0.57197946 -0.5505356 -0.14358371 -0.06846227 -0.1769016 0.21127552 0.1781864 -0.4302767 0.10942859 -0.14448391 -0.0006808401 -0.013574928 -0.096731015 -0.11196642 0.20869775 -0.33448318 0.56122094 0.00020969666 0.22764775 -0.1321094 0.80075014 0.24718377 0.029646538 -0.5668997 -0.2738785 -0.25381204 -0.46160084 -0.19844148 0.13177505 0.29878005
Bacteroidales 0.05821029 0.5048873 0.04526944 0.13802288 0.49623963 0.3821218 -0.20941958 -0.15882364 0.06321016 -0.0305513 0.33954298 -0.15855552 -0.21644247 0.3199841 -0.6051798 0.19047257 -0.25100225 -0.22970997 -0.86009 1.0573665 0.072848074 -0.14058083 -0.2911397 -0.22897744 -0.5415602 0.4685766 -0.9278405 0.18602824 -0.1263091 -0.16027443 -0.54630023 0.16322683 -0.13399927 -0.72572553 0.16317685 -0.04118584 0.43880552 0.009928747 -0.5628704 0.34711087 -0.34558174 0.20368277 -0.33217138 -0.37519005 0.3130867 -0.20185658 -0.48079878 0.17839837 -0.2159559 0.07524018 0.3427769 0.026953619 -0.054176442 0.052584954 -0.07504223 0.5573922 0.2850513 -0.72517186 -0.20489709 -0.06968854 -0.4519789 -0.060272425 0.063862205 -0.6308575 0.09443818 0.23141901 1.0252429 0.15099029 -0.17265481 -0.62829816 -0.20374906 -0.33878168 0.110013716 -0.3392035 0.3010014 -0.057974245 0.19794908 0.21102552 -0.43667656 0.1066285 -0.16893195 -0.6591024 0.33867687 -0.0764805 0.37496582 -0.60005903 0.2869852 -0.22636913 -0.141924 0.25652847 -0.34204397 -0.0077850935 -0.43653193 -0.5468558 -0.7189398 -0.41545272 -0.3889586 -0.04153086 0.84975547 -0.5369458 -0.38679087 -0.30162144 -0.40492672 -0.26556626 0.16682291 -0.35018122 -0.22606124 -0.37794095 -0.15238017 -0.34161156 -0.023390139 0.09001537 0.13451591 -0.113294266 0.40562433 -0.11863296 -0.015926145 0.35620174 0.827214 0.49680907 0.30415475 -0.3088874 -0.30485687 0.0009649863 -0.21020518 -0.06377878 -0.022441017 -0.3469871
Bacteroidia 0.07308988 0.38036984 -0.17294182 0.22244374 0.44726884 -0.08115778 -0.2830289 -0.27895314 0.18139581 -0.24066208 0.25431776 -0.33647832 -0.20255865 0.31801018 -0.45538256 0.32765204 -0.3765669 -0.15999927 -0.42515245 0.7131259 0.45490828 -0.35881606 -0.3009596 -0.06410229 -0.5149837 0.4030005 -1.0889809 0.26500657 -0.3402311 -0.20240858 -0.74649084 -0.0053098737 -0.3104075 -0.5613823 0.14917612 -0.13480024 0.2097969 -0.19668995 -0.5777021 0.7463333 -0.41832745 0.12234455 -0.43533203 -0.17288618 0.67877436 -0.19584975 -0.21710247 -0.019219872 -0.041494805 0.05092019 0.55902296 -0.26827526 0.03823183 0.12545556 -0.14102265 0.6937548 0.64104617 -0.4056491 -0.33861125 -0.1600426 -0.7658747 0.20476732 -0.056888867 -0.13249016 0.3744929 0.031693473 0.9298076 0.34421447 -0.3197236 -0.39197782 -0.4179374 -0.17413357 -0.056035247 -0.29105902 0.4475676 0.31168467 0.39844728 0.12693107 -0.29068172 0.14048047 -0.36173895 -0.5585382 -0.031656496 -0.26125145 -0.0070867045 -0.054802984 0.36533 -0.10442179 -0.27269968 0.29655272 -0.10857966 -0.089233615 -0.40821478 -0.33850527 -0.677775 -0.417363 -0.46159992 0.34901613 0.82804656 -0.6527639 -0.44895396 -0.18588564 -0.054277908 -0.096455164 -0.047894396 -0.49042264 -0.12680118 -0.21274023 -0.12068555 -0.20913698 -0.27691418 0.097356334 0.15064597 -0.4209711 0.3169297 -0.23430108 -0.15822618 0.060412694 0.9721217 0.23931317 0.15881518 -0.72440183 -0.20873196 -0.046061248 -0.23178656 -0.1460253 -0.08918845 -0.2300346
AKT1 -0.5256228 0.27505907 0.45155603 0.30949348 0.11854137 0.29616618 -0.18214092 -0.2707087 0.1619553 0.16435243 0.29995355 -0.74252367 0.01849531 -0.43218416 -0.45014736 0.035329655 0.1596899 0.5288329 -0.5218431 0.94630516 0.008512825 0.21214235 -0.5522512 -0.6774856 -0.535374 0.18012753 -0.83463556 0.24282645 -0.41837576 -0.16596857 -0.23197284 0.20613961 -0.5941752 -0.30047187 0.67896384 0.24857374 0.86398804 0.043376517 -0.053681582 -0.085004635 0.11831262 0.353349 0.20777918 0.08724537 0.55851394 0.3409166 0.09315908 -0.26104116 -0.38732904 0.49568933 0.35784653 0.10205628 0.48930204 0.069979176 0.4529617 -0.32169223 -0.025529647 -0.36593133 -0.18820302 -0.82929826 -0.44542128 -0.005397174 0.81913316 0.49718845 0.010171626 -0.29138756 0.24057876 0.6977942 -0.53372395 -0.38815117 0.12403881 -0.26042938 -0.2660037 -0.22335133 -0.018911028 -0.30960777 0.18004808 -0.2762478 -0.28426906 0.5217858 0.35292456 0.18697888 0.25875306 0.29956833 0.37020665 0.62056744 0.56897473 0.19163632 0.20106497 0.08353579 -0.40451944 -0.41184983 -0.22515346 0.1007881 0.79545814 0.3864135 -0.53999674 0.23929307 0.30085504 -0.26179945 -0.35946316 -0.09300492 0.40120465 0.20199326 0.39798325 0.16243204 -0.24946104 0.46770892 -0.17572737 -0.22855277 0.10222386 -0.10340231 -0.3639639 -0.051438645 -0.08130103 -0.06606178 0.4635156 0.066405684 -0.07025689 -0.14796513 0.43018422 -0.16141342 -0.10415116 -0.38422406 0.3647983 -0.18482777 0.13437858 0.46366203
Actinomycetota 0.7477619 -1.2857672 0.60236996 0.032543577 0.74558735 0.042423744 -0.07483546 0.74763364 0.15900953 -0.4093288 0.34126127 -0.32170597 0.24161837 0.15174106 0.00091063435 -0.08881205 -0.14497858 -0.080448 -0.30709934 0.1636184 0.6497486 -0.15569347 -0.20583577 -0.5335359 -0.27176073 0.39171758 -0.7781582 -0.04502494 -0.10900691 -0.27805412 -0.12238897 0.13226517 0.15338445 0.1372438 0.5018182 -0.21888971 0.16989388 -0.1715866 -0.46906942 0.03631084 -0.34757945 0.57172424 -0.23084326 0.08706287 0.39641517 -1.2283083 -0.4945335 -0.23882943 -0.16672498 0.29928055 -0.16466668 0.06599156 0.08313719 -0.25632197 0.015365997 0.08036739 0.36676323 -0.39817044 -0.22377469 -0.23544632 0.07064798 -0.044900365 -0.1934394 -0.1817674 0.600311 0.09091861 -0.084444374 0.15339555 -0.21004888 -0.8096733 0.32390517 -0.046879947 0.0757964 -0.4054872 -0.05023602 -0.026255302 -0.08115284 0.11505527 0.5670894 0.2209987 -0.47178105 -0.55249846 0.77846926 0.5424569 -0.03428324 0.6155097 0.11585435 -0.5103989 0.028531918 0.21356095 -0.36501676 0.2807354 -0.15418768 -0.16944341 -0.04241605 0.4918464 -0.19749554 0.120057926 0.3686757 -0.011127382 -0.052464407 0.59233165 -0.29875407 -0.61726016 0.13190284 0.19631238 -0.978783 0.23959634 0.043852594 0.09956782 0.10194063 0.34001282 -0.06874361 0.46417433 -0.035077065 0.5294045 -0.117647186 -0.09633988 0.37252742 0.7079149 0.5545266 -0.69522095 -0.35539606 -0.44041023 -0.27744612 0.5660481 0.057604425 0.68334186
Pseudomonadota 0.40260676 -0.5485752 -0.15189636 0.04413032 1.1042118 0.522046 -0.76561874 -0.25405735 -0.3626896 0.142112 -0.06782448 -0.4178871 0.29451707 -0.28606808 -0.44986364 -0.20104758 0.2581165 0.11218351 -0.7075858 0.4654109 0.9789328 0.084494166 -0.07970722 0.4897721 0.0038385412 -0.20630997 -0.96434563 -0.16672829 0.85557723 0.12840156 -0.25509414 0.9641793 0.013129255 -0.3412627 0.18543 -0.56438947 0.057281125 -0.14026196 0.4110935 0.17929754 0.46940598 0.56546384 0.06523857 -0.40594357 0.016746946 -0.2784272 -0.026975298 0.29332638 -0.37577766 0.191322 -0.7423181 -0.39471424 0.21511212 0.40621865 -1.0411496 -0.015335284 0.86262316 -1.2382482 -0.000984748 0.30950525 -0.13115422 0.23003425 0.8422894 0.43009144 0.7444236 -0.9125674 0.3888013 0.52021986 -0.08282363 -0.4981258 0.03674268 0.59464103 -0.32765076 0.58136404 0.16011098 -0.075052686 0.017922835 0.21187967 -0.7795973 0.12879595 -0.27577546 -0.12448868 0.35732555 -0.11950511 0.45072418 0.306843 0.6339447 0.05333563 0.08282643 0.41886815 -0.065926544 -0.8575529 -0.061432198 0.6592589 -0.2682814 -0.022415841 0.056742873 -0.2982169 0.5309285 0.00032064397 -0.26928258 0.3691742 -0.32647952 -0.17164195 -0.1445556 -0.31828508 -0.1825161 0.49732557 0.47605148 0.29749316 -0.30988184 0.19788371 0.013940818 0.09998507 0.020861859 -0.45597792 0.46778405 0.8054775 0.56997484 0.35877967 -0.5562501 -0.08026363 -0.32473782 -0.10465921 -0.030097472 0.108736865 0.20360173 0.43749258
Bacilli 0.07277145 0.21491618 0.0068222666 0.2258509 0.7363327 0.40036336 0.17209059 0.36173245 -0.46623537 -0.70597684 -0.010463163 -0.66184974 -0.23433195 -0.8519665 0.29717758 -0.3789098 -0.15828817 -0.51776135 -1.2341422 0.28060818 0.22462656 0.38545793 0.44796872 -0.028720902 -0.7613706 0.014704705 -0.20743765 0.42611933 0.20261951 -0.07341961 -0.09384705 0.537364 0.24823217 0.0068239993 -0.35814098 -0.098670185 0.1430739 0.33197528 -0.3696256 0.18824087 -0.4818183 0.44639358 -0.3469869 0.23675135 -0.1793181 -0.2582088 0.04325812 0.10804635 0.13797438 0.37005252 0.6830106 -0.089260206 -0.13469937 -0.3569052 0.27804145 -0.73092353 1.0150783 -0.4966631 -0.22633429 -0.5551786 -0.6804173 -0.16474515 -0.05694857 -0.5574394 0.38854176 0.08147159 -0.20457125 0.7914919 -0.67984027 -0.5929545 0.73646766 -0.1345868 -0.16418943 0.58225507 0.31771854 -0.12608802 0.5643218 -0.19773583 -0.07948032 0.63144463 -0.4876349 -0.62356293 0.2775165 -0.45127583 0.32924655 0.317377 0.35861441 0.27989936 -0.063812144 0.52296686 0.5715904 -0.34058082 0.4901343 0.92787826 -0.076053396 0.20642182 -0.61222404 -0.15389514 -0.23652288 -0.12557681 -0.62704605 -0.11855459 0.50941205 -0.017339634 0.37488434 -0.4758818 -0.45494115 -0.096035294 0.29388392 0.46125573 0.010364234 0.058084294 0.03696569 0.06238022 0.077421695 0.11716125 0.031043546 0.54744154 0.62480384 -0.08856539 0.47585577 -0.20922571 -0.075831234 -0.19162467 -0.016913235 -0.4611914 -0.24590789 0.6305575
NFKB1 0.05684559 -0.2643869 0.24601708 0.7145886 0.72224355 -0.0018474124 -0.3028317 -0.46688828 0.37435982 -0.1416419 0.40999895 -0.36861098 0.4119858 -0.33642232 -0.14217748 0.6038762 0.10883155 -0.0025655157 -0.13806383 0.07023407 0.71812457 0.5397635 0.22078781 -0.13968703 0.18029447 0.2794085 -0.13358395 -0.27180415 0.2751915 -0.64457643 -0.4042197 -0.31680992 -0.05950997 0.11587449 -0.28405362 0.6333697 0.88124686 -0.06779521 0.13469535 -0.20834726 -0.069813564 0.34231332 0.29581428 -0.12220042 0.15356116 0.38880038 -0.24521138 -0.27838483 -0.6158567 0.25483146 0.16120534 0.283018 0.12596221 0.13229701 0.048662134 -0.097439356 0.7110956 -0.33905643 -0.113858305 -0.4042518 -0.24455273 -0.02595092 0.27947852 0.46290234 0.151785 0.07516826 0.119538315 0.5298182 -0.22153015 -0.122627296 -0.0846845 -0.23611005 -0.93724865 0.35448334 0.3792035 0.053646453 0.12818065 -0.056456473 -0.21958677 0.24760127 0.19175753 -0.11551678 0.5394372 -0.012359738 0.36316982 0.35146147 0.007830563 -0.063066326 -0.088658676 0.38363934 -0.1883574 -0.173722 0.8323026 -0.28387332 0.53540057 0.39626274 -0.10407158 0.2999633 0.042640347 -0.37708148 -0.043729942 -0.057356764 -0.20291086 0.50739914 0.4644626 -0.55673444 0.32623556 0.22484392 0.03236456 -0.36286038 0.04583444 0.32209438 -0.49558115 0.045137946 0.49424717 0.04937235 0.20127279 -0.22373731 0.1456224 -0.027166607 0.3248528 -0.27453357 -0.31161207 -0.110268496 0.64580107 0.18774648 -0.14368394 -0.12484148
IL1B 0.05992725 0.03509894 0.012593958 -0.1927743 -0.011854208 0.32441244 -0.04128072 -0.2686894 0.07238892 0.3674042 0.38244137 -0.5813165 -0.0855654 0.06795419 0.08962829 0.8832591 -0.38903624 -0.09243574 -0.021711895 -0.37599754 0.3138942 0.1968444 -0.14260828 0.14734045 -0.120611206 0.30416712 0.1326578 0.2527808 0.29560938 -0.40553376 -0.33805114 0.37571058 -0.42334095 -0.11411367 0.34426603 0.21947597 0.6540859 0.06903026 -0.1356473 -0.019610817 -0.05094338 -0.025154576 0.072379954 0.05596212 0.17346503 0.8058471 -0.040879235 0.2697054 -0.3552209 -0.37121356 -0.15278997 -0.36895594 0.352924 -0.15598898 -0.45010668 -0.021729222 0.105427854 -0.087001726 -0.046497375 0.25140536 -0.11158366 -0.052154005 0.40786698 -0.5913649 0.64943415 0.09007005 0.3698028 -0.2587145 -0.19350584 -0.14708307 -0.2751619 -0.23285678 -1.0857023 0.3653382 -0.08958993 -0.36547652 -0.21007136 -0.2549207 -0.007842862 0.28266034 0.30637467 -0.2571734 0.29966834 0.5870608 0.2443591 0.19416597 0.12837976 -0.10601595 0.081719026 0.002217902 -0.21942414 -0.48605087 0.68255633 0.1055572 -0.2854758 -0.10696153 -0.06471132 0.053475227 0.103476025 0.008797324 -0.10295584 0.20136215 -0.33848137 0.3281807 0.25179818 0.10946677 0.041656524 0.17831871 -0.031231185 -0.5031007 0.027062522 -0.309082 -0.40788683 0.23808788 -0.48305076 0.10593923 -0.10057359 0.42743406 0.20459367 0.490557 0.03448398 -0.30409864 -0.50516576 0.031465806 -0.3172917 -0.021620912 -0.1951658 -0.3129147
CXCL8 0.34971055 -0.18949543 0.30689716 0.23426262 0.12711191 -0.3162144 -0.24005947 0.47332415 0.34906963 0.07811176 0.16287762 -0.40330788 0.17869626 0.23236926 0.3743308 0.16858034 -0.32499713 0.46567148 -0.037096888 -0.00762855 0.47212237 0.2781459 0.27644697 -0.12872833 -0.46663216 0.19749139 -0.009401407 0.41017613 0.04735455 -0.30053732 -0.10806391 0.11798147 -0.16411446 0.04635404 0.06906935 0.32890108 0.1269298 0.21847548 -0.16552262 0.21127464 -0.24991876 0.17670907 -0.30174842 0.24810751 0.12946698 0.70586455 0.4689534 0.22331434 -0.31215477 0.008724805 -0.44167554 -0.31454006 0.3222195 -0.18824416 -0.06733445 -0.022835655 0.0263257 0.13684624 -0.3994299 -0.068242304 -0.2489928 -0.0424815 0.4443032 0.38476554 0.19860655 -0.111187086 0.050192807 -0.32970652 -0.1252216 -0.4894074 0.06146028 -0.4133749 -0.65029436 -0.5958677 0.44222748 -0.20505847 -0.13903609 0.12868698 -0.47027934 0.073619366 0.19422702 0.0072191698 0.4842678 0.16272597 0.7092156 -0.06428407 0.029773673 -0.2969859 0.11110893 -0.41800785 -0.489271 -0.3097277 0.43836156 -0.5479383 0.31263068 0.06346612 -0.19250597 -0.62593424 0.029379511 0.112798214 -0.6230178 -0.021898238 -0.04801964 0.10972219 0.41045755 0.122523814 -0.2751121 -0.21985191 -0.2964373 -0.32804742 -0.6720051 -0.41784462 -0.35770148 -0.4065914 -0.022378147 0.39752266 -0.1686018 0.39770207 0.44343686 0.43338987 -0.12083792 -0.040378366 -0.24255185 0.5460035 -0.53593755 -0.22579731 -0.12033544 -0.6141698
ICAM1 0.13393638 -0.04912584 0.6855212 0.42756832 -0.37353912 -0.2286121 0.016673712 -0.40880728 -0.6859622 0.12064948 0.14614089 -0.10600811 -0.31830817 0.036882553 0.27307755 0.2367135 -0.16899566 -0.23020834 -0.08943387 0.6098092 -0.06566977 -0.01835748 -0.20266077 -0.27778226 -0.062175833 0.5537992 0.16607527 0.8437678 -0.19552277 -0.51164085 -0.12352853 0.4226754 -0.4381515 -0.23898864 0.073048785 -0.23552382 0.15142444 0.11632041 0.20187454 0.27826187 0.262367 0.46146885 0.18742086 0.08718511 0.21504982 0.26377037 -0.3269326 0.2652588 -0.287298 -0.17266694 -0.18341383 -0.27579263 -0.18354706 -0.6132219 -0.32782203 0.29609105 0.23791866 0.045721773 -0.13554157 -0.16232397 -0.074344546 -0.14796199 0.58440435 -0.2503921 -0.11999468 -0.24557395 0.008386095 -0.33243144 -0.024632664 -0.19502626 -0.93959427 -0.6497351 -0.421475 -0.10649798 0.46689394 0.09466139 -0.5475347 -0.1403199 -0.10845223 -0.27884758 0.22988583 -0.19212861 0.50863194 -0.12665187 0.3014945 0.18775989 -0.1207056 -0.17713533 0.21119493 0.09213111 -0.25797546 -0.33528754 0.29024622 0.1298547 -0.41301543 0.1599671 -0.79687923 -0.46266487 -0.17683575 0.027796717 -0.4359495 0.5114582 -0.0846063 0.36252522 -0.093349546 -0.00085695455 -0.16996552 0.051185038 0.16144279 0.012080031 0.10512656 -0.0092768995 0.16109768 0.26853064 -0.69668615 0.27637857 -0.15334529 0.79029846 0.29693186 -0.20803462 -0.12226762 0.044422902 -0.4157116 -0.0138773285 -0.33068007 -0.40411046 0.17241853 -0.12715282
SRC -0.47298363 -0.33825114 -0.52401584 0.41979283 0.8323276 -0.379495 0.112288885 0.37496084 0.24373214 -0.06639001 0.68900174 -0.2957843 0.25334352 -0.32362902 0.013914939 -0.13752723 0.51399773 -0.3219853 0.18539439 0.30912822 0.4455203 0.5833219 -0.63259053 0.26838127 -0.119343 0.4324405 0.12268248 0.35016835 -0.37856337 -0.56157076 -0.687974 -0.51287615 -0.060429253 0.60521317 0.20877166 0.4136002 1.0445769 -0.09558366 0.55823785 0.047210652 -0.12577456 -0.4409245 -0.5503269 -0.2995528 0.59634936 -0.16330084 0.30746797 -0.25144592 -0.1695118 1.0830805 0.45527267 0.78096944 0.48240197 0.43834227 -0.26210323 -0.019884255 0.074506715 -0.46533096 0.022242615 0.23701768 -0.017867116 0.04952066 0.41292086 -0.30818072 0.5204873 0.121040866 0.44209075 0.085032575 -0.37268814 -0.6651152 0.3536248 0.08368516 0.1722807 0.34596744 0.0459476 0.16377215 -0.6485581 0.08073725 -0.10282127 0.35028917 -0.21741952 0.46516192 0.32880077 0.4741236 0.24506678 0.5774488 0.4263807 -0.49585873 -0.29933435 -0.45956242 0.18893957 -0.038920928 0.13492706 0.047199428 0.18665175 0.43921033 -0.5944653 -0.21156675 0.16551264 -0.71144164 -0.7917715 -0.26775488 0.3152706 0.042638402 -0.1989609 -0.13491313 -0.15529676 0.35232946 -0.014202047 -0.4152742 -0.6658804 0.25627828 -0.38681445 0.40402845 -0.49708784 -0.5245817 0.5804057 0.1683017 0.13228737 -0.044229176 -0.29558504 -0.23498043 0.019685982 -0.66565436 -0.024351148 -0.5174613 0.6685042 0.18424495
CD80 0.40450034 -0.02355864 0.64832956 0.36653915 0.30914447 -0.44431672 -0.23958406 -0.062464587 -0.42883945 0.20422027 0.5366339 -0.44122866 0.17839478 -0.019367507 0.52701944 0.086051226 -0.38848966 -0.25004384 -0.12844397 0.79502237 -0.34452307 0.028662194 -0.2977239 0.04614746 -0.2915419 0.43856782 -0.24527483 1.2995864 0.14428459 -0.587572 0.07612941 0.44175914 -0.08259264 0.074119724 -0.19394113 0.01852192 -0.0401493 0.12282424 0.05225129 -0.21605346 0.08401233 -0.0071366034 0.1210208 0.41769433 0.3540628 0.44941002 -0.26793945 0.43035626 0.54594105 -0.0017246517 0.48329666 0.11415232 -0.35431233 -0.22899659 0.00859802 -0.018642846 0.058890115 0.055828158 0.11394733 0.027587626 0.037236672 -0.14452867 0.105707586 -0.36466587 0.34946772 -0.3838915 0.03252804 -0.77226263 -0.03460377 -0.01786316 -0.44527835 -0.05210787 -0.42241174 -0.37791106 -0.1083085 -0.114061624 -0.2567289 -0.24806781 -0.3098119 0.39092237 -0.050669596 0.19412372 -0.0013583199 0.5728782 0.28897172 0.111708656 0.1968405 -0.34350985 -0.4572298 0.52749324 -0.6339602 -0.39237097 0.4253015 -0.0028329575 -0.41894144 -0.14822088 -0.33319336 0.4879952 -0.26714572 0.06224317 -0.6603859 -0.34571114 -0.6399063 0.15188529 0.16578904 0.12028265 -0.038899444 -0.284266 0.023742806 0.053679373 -0.17612866 -0.52121174 -0.2024446 0.5395712 -0.009324134 0.3429205 -0.25125995 0.20371951 -0.016146533 -0.095317945 -0.5905779 -0.11902059 -0.2589553 0.20911917 -0.4049938 0.11019861 -0.12848487 -0.08928449
ACTB 0.20094116 -0.570909 0.023191486 0.29746476 0.4432662 0.13981554 0.6838467 -0.5736016 -0.46208856 -0.054826207 -0.28913283 -0.5028164 -0.73899287 -0.5310328 0.03305092 -0.12140547 -0.8369437 0.5220715 -0.38648355 0.19858608 0.6631329 0.4544493 -0.13484609 -0.42082378 -0.62882227 0.6141552 -0.069970265 0.66616523 -0.062644534 -0.20513669 -0.81730056 0.38254282 -0.18898976 0.029789193 0.30361432 -0.6159993 0.21151127 0.46008888 -0.46775562 0.58471847 -0.4925943 0.46622232 -0.20348096 -0.037328072 0.21248978 0.51725507 0.2610801 0.0066952365 -0.8291982 0.8373134 -0.025653658 0.5693878 0.43793145 -0.20103867 -0.4610487 -0.15965858 0.34448838 -0.7888577 0.55445105 -0.3275477 0.25163817 -0.26518005 0.6956097 -0.3370475 -0.25064972 -0.42018515 0.13727432 0.796947 0.15146418 -0.0037236763 0.7285547 -0.19283634 -0.44474193 0.36668283 0.12064021 0.28977108 -0.3977412 -0.1359476 -0.6162453 0.20636229 -0.72145975 -0.05348045 0.3688753 0.50283647 0.1584871 -0.027812252 0.8149059 -0.6657236 -0.08714388 0.22279744 0.09956932 0.06377429 0.16767725 -0.04625727 0.13638128 0.3187672 -0.51293397 -0.4503162 -0.18596509 -0.53418803 -0.4577847 -0.11686931 -0.0095500145 -0.5920626 0.06958739 0.604724 0.5280508 0.07491019 0.08237029 0.1942547 0.10398386 -0.17013769 -0.37853178 0.20098476 0.1884856 -0.60247684 1.0505077 0.74690413 -0.071493305 0.36099008 0.18587658 -0.30127612 0.225894 -0.010001881 0.13662535 0.019563012 -0.27424783 0.7973085
JUN -0.042037178 0.101192676 0.84284407 0.04811197 0.5677228 -0.64544547 -0.4234362 -0.45374283 0.30604976 0.20703056 0.5965296 -0.4348031 0.037361406 -0.27532032 0.17806841 0.63738245 0.40613016 -0.08202889 0.3310444 0.25256568 0.24265544 0.49276778 0.4982418 -1.3253931 -0.15508193 0.45444077 -0.7332901 -0.18682276 -0.09345948 -0.710542 -0.27689815 0.7611066 -0.28418598 0.3213444 -0.062107578 0.3735695 1.0154355 -0.4934212 0.18711728 0.16414505 -0.86280286 -0.15356071 0.08919585 -0.20574139 0.22201785 0.22976825 -0.3174275 -0.5668628 -0.5793528 0.29482457 0.30153218 -0.05972362 0.022423062 0.007517181 -0.5006244 0.049709193 0.15322301 -0.24034747 -0.121440485 -0.42962745 -0.13280989 -0.12202163 0.24186313 -0.30469567 0.2526164 0.21991013 0.30995238 0.41938686 0.07498232 0.25867483 0.08445817 0.48539832 0.068784796 0.002834801 0.2132463 -0.15997663 -0.07306188 -0.22198997 0.0019955754 0.34784612 0.06187956 0.12027926 0.16978309 0.6613329 0.5139158 0.32021007 0.5965846 -0.50937057 -0.53486216 -0.113914736 -0.009498312 -0.26539215 -0.38597956 -0.16327189 0.18634637 0.3137994 -0.27250254 -0.42796454 0.33248812 -0.25463107 -0.41534066 -0.03923749 0.11446349 0.059781294 0.446892 -0.24878873 0.36272144 0.40714082 -0.09917414 -0.11807555 -0.12752916 -0.27112925 0.13962884 -0.023035917 -0.49750778 0.22700159 0.3052594 0.47364426 0.5283959 -0.5595079 -0.01735422 0.3313706 -0.2615229 -0.014358364 1.007708 0.22734189 0.011172594 0.7859527
Coriobacteriia 0.422363 -0.6626374 0.54178053 -0.5187548 0.5447386 -0.029397467 -0.23608647 0.22517912 0.5061499 0.11556908 0.8492231 -0.38016403 0.45645195 0.26315805 0.079272866 -0.37519026 0.09203475 -0.67297876 -0.722573 0.29830906 0.6290357 -0.3778065 -0.16654243 -0.13589926 -0.3787523 0.38035005 -0.59176594 0.25288668 -0.07890367 -0.05815721 -0.15562771 0.39433768 -0.10834265 -0.15851626 0.8181371 -0.32724056 0.190706 -0.4681351 -0.34999043 0.057428773 -0.5450024 0.64236534 -0.57296443 -0.2803372 0.8958257 -1.013491 -0.6205056 -0.13533609 -0.047695033 0.29156324 -0.43609795 0.0619377 0.811981 -0.13393919 -0.34718364 0.3366051 0.22027665 -0.15988715 0.13948521 -0.33143827 0.07481564 0.30521297 0.52252984 0.027433379 0.72348154 -0.2800691 0.19736437 0.4990389 -0.01499901 -0.7228147 0.1419488 0.06764346 -0.050481476 -0.16060704 0.7736392 -0.15019046 0.24910654 0.08513061 -0.011076599 0.16606304 -0.54704744 -0.59856033 0.22513172 0.6036963 0.09845083 0.5174926 -0.08121385 -0.05723156 0.355241 0.03790571 -0.24100645 0.062231775 -0.14729436 0.21299616 -0.19098386 0.27002037 0.012931625 0.11467475 0.41841355 0.25859332 -0.46106386 0.7911472 -0.2312961 -0.55093277 0.37108466 -0.10716548 -0.17026228 0.41696885 0.33059055 0.49779856 0.34965947 -0.003846961 0.0845503 -0.27991992 -0.17910339 0.18868144 -0.77127945 0.035788476 0.7900965 0.29726732 0.45103946 -0.46106395 -0.0958173 -0.13759322 -0.7085676 0.18169318 -0.856107 0.73092824
CLEC7A 0.4429276 -0.095638946 0.1198251 0.05570954 0.468905 0.020663073 0.58657354 0.28826946 -0.13452612 -0.06825694 -0.14090438 -0.109963365 0.44355878 0.4412386 0.06361517 0.29768002 -0.09724672 0.39223763 -0.38667113 -0.05190686 -0.06852404 0.2317195 -0.30919066 -0.37733078 -0.5904243 0.09551056 0.16601448 0.12384707 -0.008146331 -0.11137226 -0.8397523 -0.06721689 0.2731106 0.01663938 -0.31039917 -0.21952316 0.25720197 0.17248431 -0.122309126 -0.073228665 0.26633877 0.9530612 -0.76186216 0.0960595 -0.18744446 0.0390383 0.15754937 0.23320292 0.22300062 0.2829437 0.39610013 -0.06732647 -0.19226892 0.23116907 -0.18693191 0.11558073 0.390641 -0.30282265 -0.11864474 -0.02728785 0.10742343 0.00885215 0.66612846 0.25184792 0.52204657 -0.16024426 0.060712267 -0.16948852 0.27498117 -0.93762684 -0.23605336 -0.281219 -0.478817 -0.6306593 0.44626766 -0.4976556 -0.23897715 -0.14687468 0.0790823 -0.063933 0.15959337 -0.18701288 -0.101379685 0.53901297 0.15356673 0.121401235 0.0029806974 -0.30628446 0.020530717 0.1332575 -0.1417109 0.31114757 0.50852984 -0.36929506 0.06857199 0.011449452 0.31661376 0.069276765 -0.3869683 -0.33497027 -0.17621207 0.30843073 -0.26311752 0.06880133 0.43966547 0.056721207 -0.05548678 0.24191774 0.21835408 -0.08816954 -0.6790821 0.33937356 -0.065219454 -0.3026311 -0.18639587 -0.10166006 -0.0002987562 0.12299328 0.009518282 -0.3535966 -0.4896771 -0.039041735 -0.27701706 0.2931706 -0.281824 0.049308613 -0.30879354 -0.14521475
STAT1 0.18484779 -0.55770403 0.5324135 0.19097935 0.7268988 0.41029966 0.12835434 0.069288865 -0.45243022 -0.11599676 -0.044678804 -0.5304493 -0.13840179 -0.26039943 0.48865274 0.309621 0.02690359 -0.20183232 -0.17578006 -0.03422444 -0.06948584 0.24082948 0.44126678 -0.45473924 -0.62969434 -0.22093217 -0.3762832 0.24302594 -0.19055694 -0.3253782 -0.15032355 0.038567547 -0.09605449 0.17075261 0.26489508 0.31220013 0.5813919 -0.05542103 -0.20331006 -0.088201806 0.2347749 0.49358988 -0.19772352 0.054147642 0.24492824 0.29132962 0.5332794 0.35663316 0.20420133 -0.07224467 0.16627344 -0.5946725 0.21645494 -0.11330524 -0.16416404 0.2677489 0.34696385 0.10394802 -0.48534435 -0.112909324 -0.17468017 -0.096148506 0.25505152 0.22746147 -0.1377962 0.011443103 0.13703725 -0.2594264 -0.4147103 -0.01585136 -0.019314338 -0.3430507 -0.4339033 -0.73673916 0.24574396 -0.1827674 0.21253945 -0.05603491 0.52117085 0.038077537 0.22766195 -0.5439672 0.19177647 0.49083516 0.28438064 0.7195487 0.31392676 -0.3277583 0.37433624 -0.060692262 -0.36154372 0.29653972 0.7029928 -0.3209486 0.16317378 0.21903877 -0.019047538 0.29705316 0.072366275 -0.25732043 0.019370768 0.106672026 0.26148304 -0.14877583 0.043073054 0.20726484 -0.19954146 -0.08157576 0.081988886 -0.34925643 -0.53555775 -0.36174423 -0.27850202 -0.20193021 -0.2590339 -0.20292833 0.024836378 -0.22296897 0.06586774 -0.11600296 -0.6869259 -0.07091509 -0.39104122 -0.39553154 -0.5521612 0.041621793 -0.29963374 -0.49773207
CDKN1A 0.07614487 -0.2549393 0.047585744 0.29801074 0.72042006 0.26658675 0.064876236 0.051900864 -0.07416361 -0.7017531 0.47180894 0.05136455 -0.17479348 -0.7089848 -0.084331326 0.62548107 -0.034274753 -0.74452066 0.00040817534 -0.2662326 0.38983464 -0.20267436 0.12073186 -0.9546343 0.030841092 -0.63721645 -0.10849331 0.63438153 -0.19762684 -0.28041282 -0.3561914 0.23774272 0.02297561 0.16997103 0.24846175 -0.036750324 -0.529662 -0.41095144 0.5017145 0.19729224 0.292944 0.02413186 -0.10596254 0.016687267 0.6585202 0.08501951 -0.059453487 -0.1676457 0.22138679 0.49752688 0.31759652 0.46208364 0.42324984 -0.4466477 0.5635222 -0.25201344 0.32250413 -0.09224974 -0.049398843 0.0066952086 -0.2609702 0.06559588 0.51139337 0.31169635 -0.06597787 0.04955576 1.0801924 0.12760854 -0.3296738 -0.0014759384 -0.5137435 -0.21069212 -0.62914586 -0.011679377 0.6397082 -0.4201758 -0.47432205 -0.24759379 -0.3441853 0.2750747 -0.047014732 -0.014888586 -0.527791 -0.1859586 0.48237973 0.13687715 0.50423217 -0.22302832 0.1051807 0.25246003 -0.003431535 -0.3563177 0.57673657 -0.14152832 0.11228427 0.54389125 -0.24683921 0.29316968 -0.170179 -0.39677903 -0.43660256 -0.026567243 -0.27615476 -0.5187058 0.4134251 -0.102351494 -0.2744331 0.46140492 0.33625647 -0.41337192 0.26760414 0.099326275 -0.11900451 0.07100612 0.058780946 0.07748722 -0.22575842 0.09839962 -0.069109164 0.07370736 -0.55155313 0.21132326 0.28243196 0.57683057 0.26863652 0.24102367 0.9295432 0.37259573
Viral protein interaction with cytokine and cytokine receptor 0.3650914 -0.43587735 0.11228503 -0.35196614 -0.1252678 -0.30367213 0.15905753 0.113130555 -0.53051335 0.20783517 1.0804566 0.22086087 0.20577005 0.56311864 -0.07571106 0.12606883 0.7653236 -0.38150358 -0.6011678 -0.18350723 0.35276344 -0.40568867 -0.4828616 0.24678235 -0.2773838 -0.22822809 -0.35591224 0.5676027 -0.6219827 -0.5117452 0.040756345 0.20596369 -0.36592692 0.52863085 -0.09414027 0.19252753 -0.07165184 0.39958143 0.010818101 -0.022089353 0.44612196 -0.049258154 -0.22743538 -0.4138829 -0.754327 -0.2972917 0.031817537 -0.44494447 -0.7943482 0.14264016 0.5208207 -0.022054305 -0.544803 0.061099377 -0.0397739 -0.30214554 0.34500477 -0.6837391 -0.6031106 0.69832736 -0.12254625 0.16207325 0.080957234 -0.50219923 0.10753419 -0.39779544 -0.2763273 -0.50585824 -0.19545397 -0.5835312 0.3970276 -0.07083086 -0.74947095 -0.3765067 -0.19054322 -0.54009867 -0.10936908 -0.17256658 -1.2018131 0.12148946 0.055560704 -0.73776823 0.3522537 -1.0475192 0.89030284 0.7693813 0.0014627754 -0.09597246 0.044258162 -0.21216467 -0.45142666 0.093974955 -0.0758037 -0.5082924 -0.4676175 0.535318 -0.0073566562 -0.25071758 -0.25393313 0.14315754 0.13878074 -0.83888346 -0.53945553 -0.38059768 0.07293586 -0.21509977 -0.93602383 0.31581756 -0.10478508 -0.30983996 -0.15558267 0.1815683 0.48595667 -0.1001749 0.2350913 -0.05947305 -0.3001999 0.5384926 0.39629713 -0.67363125 0.11207703 -0.60734934 -0.20867532 0.25175875 0.55590487 -0.6906752 -0.27161664 0.58665633
NCF2 0.23281446 -0.038678057 0.17924854 -0.011344566 0.3533399 0.2451115 0.039138436 -0.16821691 -0.36133313 0.6520071 -0.18762873 -0.26269433 0.26185262 0.1685499 0.2725282 0.57655954 -0.18655895 0.13808976 0.016515255 0.2098909 0.19587785 0.16184673 -0.69741327 0.03269938 -0.5487106 0.5682254 -0.15396182 0.670877 0.20214513 -0.19901127 0.06074103 0.11820607 -0.017972674 0.08075374 -0.042369824 -0.1266768 0.06531038 0.3154406 -0.02299765 0.26970914 0.063314125 0.20378503 -0.09057469 0.2765257 -0.11319099 0.16490726 -0.2874897 -0.0067387233 -0.050189063 0.23464039 -0.26882562 -0.039691456 -0.32868138 0.26105058 0.12826145 0.54598606 0.12178842 -0.04647877 0.24206346 0.12933047 -0.57655656 -0.046493366 0.5044202 0.12440921 0.19135165 -0.15529682 0.23755415 -0.12662962 -0.108070105 -0.6078475 -0.7267803 -0.09028791 -0.79775435 -0.47237304 0.36890852 -0.16399723 -0.33467874 -0.3613624 0.6693763 0.062182162 -0.17520817 -0.036315717 -0.21450236 0.2098864 0.122245364 -0.21872711 -0.009493517 0.09287374 -0.24884379 0.3801381 -0.27841142 -0.0010242611 0.9133121 0.008306391 0.17607227 0.16173048 -0.37383106 -0.35013384 -0.4287381 -0.21361704 -0.13977124 0.5695477 -0.17093776 0.15942395 0.29548228 0.16955964 -0.1901813 0.14769465 0.14245482 -0.14371642 0.031966627 0.14348635 -0.4143327 -0.10213291 -0.19573049 -0.3455618 -0.27382123 0.5308959 0.3198662 -0.014725639 0.06392979 -0.08539664 -0.8094093 0.06658824 -0.065893255 -0.16641232 -0.1799761 -0.098569304
MTOR -0.6055818 -0.01849915 0.16528018 0.2992772 0.65703696 0.85683906 -0.12588613 0.22251512 0.12772521 -0.13212985 0.23768333 -0.54189193 0.11384605 -0.1035595 -0.4605327 0.098622434 0.23521094 0.2886187 -0.24636847 0.24467221 0.046031397 0.8174404 0.6580431 -0.52347827 -0.14602393 0.8146319 -0.42420962 -0.07635238 0.1667644 -0.3413588 -0.33396932 0.42208767 -0.70051116 0.13334835 0.5835028 0.111044705 0.4023133 -0.6914359 -0.74432886 0.18841109 -0.14318134 0.19747014 -0.17656411 -0.68104243 0.534177 0.18713187 -0.24267562 -0.37183216 0.21648349 0.10177207 0.026159255 0.8051 0.8977329 0.38162515 -0.13191256 -0.48296294 0.21970917 -0.1458124 0.017266713 -0.14365578 -0.050146397 -0.68481284 0.37619105 0.30691737 0.34306172 -0.046654455 -0.1160413 0.31923392 -0.6157478 -0.21726315 0.5054946 -0.54812706 -0.02473112 0.15846522 0.45618623 -0.7271599 0.26843923 -0.4405812 -0.43212107 -0.17434819 0.054456733 -0.4451431 0.40978009 0.82809 0.11728439 0.03427729 0.9951157 -0.15053293 0.28138846 0.006662877 0.2032957 -0.35690755 0.18815449 0.02972512 0.30360606 0.6647231 -0.89157116 -0.19673538 -0.4113605 -0.2357073 -0.16316621 -0.6154411 -0.6255724 0.05780253 0.50742316 0.070055984 -1.0169876 -0.15564163 0.08120657 -0.14484447 0.42131454 0.1654499 -0.079091765 0.3749624 0.48610675 0.13259865 0.5234469 -0.16696441 0.14945264 -0.22912453 -0.0012402128 -0.40529242 0.5619447 0.058091603 0.26217034 -0.14338839 0.20317262 -0.044561356
LRRK2 0.413078 -0.42905295 -0.19801296 0.3393955 0.33469775 0.26922476 0.5928157 0.22570227 -0.4586777 0.4882227 -0.030536693 0.01450306 0.55661464 0.2399088 0.26966664 0.48054194 -0.15844437 0.17719756 -0.22346771 0.17900474 -0.047070645 -0.13342431 -0.49839017 -0.17576425 -0.42673957 -0.13963315 -0.19663094 0.47617966 0.30794632 0.12951107 -0.3798084 -0.05787486 0.055941112 0.23692921 -0.14391406 0.20600459 0.21126418 0.12222836 0.074073955 -0.52032137 0.016583212 0.4499661 -0.46685228 0.3877591 0.064419255 0.24762507 0.060813364 0.0018721208 0.5004104 0.22868013 0.06738508 0.043071587 -0.33820352 0.38613656 -0.15301427 0.3649383 0.3101669 -0.20707156 -0.28945056 0.4618854 0.049014494 0.01663991 -0.09744015 0.05449365 0.41017407 0.03863401 0.3684916 0.028051505 0.048670698 -0.55019826 -0.6033601 -0.28567314 -0.5060617 -0.073342554 0.7320233 -0.36812904 -0.4030616 -0.41175273 0.05726475 0.27226362 0.29429576 -0.07421354 -0.07862613 0.44956675 -0.06461072 0.26028976 0.27675936 -0.25303715 -0.2855573 0.10078725 -0.1438015 0.03067666 0.713428 -0.21844812 -0.2951149 0.05632924 -0.22654052 0.18336478 -0.19531046 -0.3683919 -0.10257655 -0.0055016153 -0.61170596 -0.1317722 0.14980245 0.0030971128 0.16673683 0.09149415 0.053449698 -0.541512 -0.149665 0.1704887 -0.23386873 -0.35155097 -0.16009828 -0.0005743978 0.006527922 0.3845472 0.35032994 0.15996405 -0.27407017 -0.2181942 -0.26331174 0.30854067 -0.11842623 0.20358545 -0.1593862 -0.26382697
CCL5 -0.09760058 -0.39470318 0.27785692 -0.31999585 0.30020604 -0.36396274 -0.2651413 -0.4255187 0.514595 -0.095015034 0.28374454 0.11931558 0.23301278 -0.055674642 0.12351711 0.397973 0.2040471 0.5470265 -0.5226199 0.23906097 0.16019335 0.14920476 -0.13236874 -0.44739956 -0.89104736 -0.2401333 -0.14666644 1.2079921 0.02418971 0.26107216 -0.14170034 -0.058061365 -0.32644558 -0.0796265 0.3374683 -0.16235021 0.20476401 0.1340846 0.34799516 0.5456588 -0.31388655 -0.08958011 0.48511952 0.23480089 -0.14292845 0.3490445 0.008716261 -0.31487617 -0.01226202 -0.011097062 -0.6201281 -0.13148053 -0.18252441 0.10914099 -0.31763926 -0.015339641 -0.078873895 -0.6593247 -0.21440566 0.5685436 -0.15756378 0.36072516 0.14023331 -0.5539627 0.40550137 -0.3054558 -0.26532844 -0.4652777 0.20195852 -0.06520013 -0.22980271 -0.05007366 -0.6428046 -0.24039423 0.47060868 -0.5951388 -0.44254217 -0.08345844 0.18159324 0.17025429 -0.29784742 0.7170096 0.019830476 0.00036686385 -0.024630692 0.21172667 0.13108751 -0.7820975 -0.07676394 0.50667 0.034314588 -0.2922587 0.16054232 0.23030451 0.14315921 0.6330774 -0.42988086 0.062360495 -0.32731536 -0.49838573 0.0349119 -0.39699858 -0.013338912 -0.1513978 0.013879593 0.22236963 0.080607824 -0.26620245 0.4753815 0.14322376 0.09607122 0.39449063 0.24300101 -0.0834609 0.120555915 0.19285072 -0.23452874 -0.13896611 0.32364395 0.02152117 -0.048054468 -0.28118578 -0.69462377 -0.10071955 -0.6269906 -0.20934997 -0.41590244 -0.49266335
NOS2 0.35497686 -0.027068308 0.024996905 0.08917557 0.08231638 -0.11208595 0.34480703 0.102244355 0.10261021 0.6294375 -0.43273985 -0.5814753 -0.3510034 0.1424356 0.15896842 0.08291377 0.90858316 0.6006538 -0.27848867 0.24259195 0.1689917 0.32887918 -0.17167395 -0.6308093 -0.45156452 -0.05262647 -0.017838648 0.5382799 -0.7439013 0.4885338 0.1659618 -0.12601021 -0.11908153 -0.34431288 -0.13769782 -0.7390797 0.23542953 -0.37436503 -0.3321079 -0.10946158 -0.03482248 0.2905555 -0.17535266 0.100767225 0.3899976 0.003511841 -0.5841407 0.40555704 -1.0613887 -0.37602046 0.09787099 0.30005488 0.16119829 0.074542284 0.15515715 0.5800431 0.78510505 0.04419554 0.48159558 0.10860978 -0.5553268 0.19395006 0.11931042 -0.022604926 0.1616276 -0.103833854 0.30931234 -0.27189872 0.48444432 0.03523611 0.038193565 0.10751854 -0.4805859 0.008010549 0.3161312 -0.2397913 -0.2018383 -0.5047335 -0.34722152 0.320055 -0.37918028 0.051355213 0.24460009 0.6164146 0.29432684 0.41001636 0.6886989 0.042373173 -0.08941279 0.51383084 0.39123008 -0.31745112 -0.22723638 -0.03818804 0.5089293 -0.34234113 -0.7972139 0.19421214 0.4490679 -0.12933189 -0.15316343 0.39154133 -0.2660271 0.5109022 0.63765293 -0.377533 0.05240964 -0.128914 0.6219779 -0.53239363 0.24119045 0.04285091 -0.16532591 0.11386549 -0.98420686 0.68418443 0.02496261 -0.18674487 0.193753 0.10475259 -0.38379896 -1.0226308 0.30965248 0.15727055 0.13819744 -0.58657783 0.23857996 -0.3138541
JAK-STAT signaling pathway -0.54661894 -0.10932956 0.15440518 -0.38665855 0.49455702 0.792526 -0.025461126 -0.04064947 -0.575048 -0.55729043 -0.48174733 0.041039243 0.108613476 -0.34488472 -0.26857567 0.31931663 0.18910043 -0.5137741 -0.29546243 0.10951458 -0.26993683 -0.2137305 -0.10210127 -0.42735252 -0.87456787 0.28456128 -0.29395503 -0.103778586 0.54174143 -0.35242847 0.18257712 0.53298575 -0.40203208 0.73161566 0.17420477 -0.056598086 -0.0016776585 -0.07399558 -0.62855554 0.61449534 0.15301533 0.07673884 -0.5860859 -1.0003705 0.43587172 -0.8350087 -0.67078054 0.6318459 0.16924782 0.08331358 -0.2172552 0.6526957 -0.2853636 0.3709514 -0.541943 -0.24649121 -0.06260585 -0.7133922 -0.3817392 0.37335467 0.06419012 -0.5085363 0.24591333 0.15408485 0.3933448 0.24793091 0.20999686 -0.35449916 -0.4795582 0.18429032 0.15970328 -0.21313779 -0.8556572 -0.19754007 0.121898085 -0.6946102 -0.061065335 0.015692674 -0.62767875 -0.11046072 0.6120719 0.2105956 -0.77104455 -0.3788924 0.7699506 0.7096273 -0.23392327 -0.06651358 -0.56243277 -0.1281991 -0.90504485 0.13645852 -0.7124263 -0.03474187 0.58539504 0.020508515 0.27235252 -0.03458046 -0.10435999 -0.39778244 -0.57771164 -0.5881998 0.303392 -0.049535844 -0.28017512 0.4128745 -0.11085521 0.1819663 0.19787163 -0.43669602 0.5082426 0.35359725 -0.76107544 -0.078647494 0.04556594 0.8232809 -0.5128535 -0.81463337 0.67086875 -0.19336839 -0.27487913 -0.37933087 -0.17458683 -0.060654834 0.18479116 0.052788667 -0.48753667 -0.28722766
MYD88 -0.51604855 -1.0988634 0.27835277 0.06590991 0.24369466 -0.5452005 0.09452059 -0.38997546 0.3482636 0.042507295 0.44935796 -0.24382904 -0.37073642 -0.1900095 0.1875103 -0.09910926 -0.11923313 -0.26900083 0.14255042 -0.30124956 0.1632316 0.18352668 -0.22975446 0.17436363 -0.46907368 0.24486883 -0.26416406 0.9023086 0.14047807 0.37769073 -0.31617722 0.015024495 0.41798425 0.101310484 0.28915447 0.036990177 0.669163 0.12229202 -0.030436637 -0.16347651 0.10567746 0.9297241 -0.2210067 0.006420375 0.3937149 0.22631969 -0.24475133 0.22545709 -0.24245773 0.3617106 0.24413863 -0.46640572 -0.29287893 -0.46170914 -0.44510248 0.049955767 -0.51166177 -0.19602804 -0.5687332 0.047238808 -0.4648271 0.08125581 -0.3048531 -0.21850795 0.20903297 -0.22756822 -0.18604197 0.008808219 0.24535121 -0.48958474 -0.20452662 -0.2715039 -0.90534574 -0.25773913 0.23387557 -0.948796 -0.19347742 -0.024836339 -0.37368882 0.163482 0.5109201 -0.34204563 0.022339404 0.52684194 0.2710125 -0.5109579 0.5945979 -0.27194113 0.08756728 0.1120315 -0.021918098 0.4300797 0.30278826 -0.14509614 0.4746744 -0.5432562 -0.03648951 0.28407162 -0.09267109 -0.61700726 -0.18371856 -0.06274529 -0.004589286 0.03561591 0.57621104 -0.64615285 0.1787579 0.57733303 0.10957002 -0.5712357 0.08037456 0.3787974 -0.00070827967 -0.14692506 -0.53723836 -0.10794948 0.44923624 0.17723075 -0.4264564 -0.153551 -0.41038752 -0.014581497 -0.53043956 0.27401364 -0.29296806 0.10706477 0.08902952 -0.18516147
EGFR -0.108650126 -0.056225095 0.6045488 0.33569247 0.7478565 0.23579629 0.05718355 0.5614473 -0.07446677 -0.19756474 0.81252027 -0.17243941 0.07995378 0.0222955 -0.07541521 0.13231504 0.64244837 0.19286904 0.39240533 0.29329082 0.36099797 0.47597358 -0.3099642 -1.346916 -0.4497183 -0.32287124 -1.2067661 -0.03112691 -0.36349848 0.26401833 -0.14833999 0.1549522 -0.37881184 0.63579535 0.5727642 0.37015426 0.26725292 0.38559747 0.2646034 0.44660518 -0.38580388 0.43754074 0.43258974 -0.050022528 0.52402544 0.12626845 0.37833127 0.53632677 -0.4750188 0.021785742 0.33991376 0.48189554 0.29379934 0.38849726 0.49853522 -0.2187361 0.5560075 -0.7936451 -0.22709326 0.26105782 -0.22345173 -0.5722166 0.15699781 -0.21274526 0.10723565 0.10683309 0.60648376 0.5140421 -0.69680744 0.18215463 0.38942006 -0.30888256 0.13036066 0.056532364 -0.41269255 0.053039778 0.059502035 -0.48992458 -0.5739371 0.2738537 -0.024798138 0.44036153 -0.06709635 0.6894973 -0.09237056 0.020315634 0.6167713 -0.14939028 0.16297255 0.026942754 -0.35759386 -0.5603269 0.057910413 -0.5101296 0.69540626 0.16236934 -0.623633 0.10528499 -0.01840013 -0.033654418 -0.50642955 -0.58257747 0.10349259 -0.43986717 0.092667654 -0.110455245 0.28492433 0.25984132 0.48446277 -0.49545982 0.305484 -0.103189655 -0.7078537 -0.12709902 -0.04602163 -0.18264063 0.48496723 0.24868616 0.51219934 0.20338164 0.09930795 -0.34511727 -0.038136356 -0.1716391 -0.10587354 -0.3244563 0.058861837 0.0851712
CXCL2 0.06326537 0.0014870253 -0.021980302 0.505652 -0.04573091 -0.6415389 -0.19831151 -0.05776421 -0.34542027 0.3730795 0.03968817 -0.17338908 0.014355856 0.5009385 0.1746212 -0.107495755 -0.44462058 0.3534526 -4.2883934e-05 0.3623519 0.56642807 0.10667022 -0.12544912 0.12262689 -0.017875805 0.46268195 -0.25267777 0.5717064 0.670347 -0.01826895 0.050550565 0.17791326 -0.09169393 -0.38690907 0.109419085 -0.015795963 0.55185276 0.07133555 0.41797864 0.47338408 -0.26537555 0.3121802 -0.034871567 0.036469545 0.15713575 0.32990634 0.028806254 0.11922648 0.05072789 -0.29775128 -0.0031997545 -0.5617572 -0.21342184 0.31516454 0.010319667 0.113249764 0.03165159 0.3069303 -0.4984603 0.24974579 -0.03465025 0.33330196 0.7431467 0.20253955 0.08655579 0.017111607 -0.03145063 -0.2222758 -0.17549753 -0.5068669 -0.5046574 -0.5347607 -0.46137068 -0.30175605 0.22373961 0.2558045 -0.29882464 -0.348362 0.14448367 0.13244767 0.041870262 0.15570739 0.12442139 -0.23790914 0.14109948 0.24275817 -0.13694817 -0.23929065 -0.41034293 0.5595966 -0.23976475 -0.61912787 0.0536211 -0.423848 -0.17345886 0.53233427 -0.38497686 -0.1911446 -0.038685925 0.5003594 -0.66182613 0.04195719 -0.77706194 0.5420336 0.19472873 -0.06893649 -0.012437966 -0.4447515 0.2836254 -0.38906717 0.17222244 0.049388938 -0.0006977449 -0.39903668 -0.77421415 0.28624558 -0.15413631 0.525016 0.35561273 -0.24401854 -0.29069892 -0.17287467 -0.09350732 0.16624573 -0.13870026 0.048296697 -0.5224218 0.1043149
TNFRSF17 -0.25804377 0.6035324 0.3552758 0.3129269 0.056792047 -0.84124815 0.49148637 0.02886308 0.34816247 -0.373425 -0.08689283 -0.0004807155 0.012186957 -0.08552473 0.0013045361 0.43467322 -0.21813866 -0.37157273 -0.536056 -0.734348 -0.009128186 0.26422387 -0.4426898 -0.12716547 -0.329009 0.38829482 -0.5205295 0.009552808 -0.073526055 0.36482766 -0.39574993 -0.1318936 0.63246953 0.428506 -0.18689376 0.33379227 -0.43288568 0.14460914 -0.3459675 0.010473678 0.41237062 0.7929344 -0.69962406 -0.6377705 0.80620766 0.57961583 0.76474166 0.2515697 0.58569175 0.15784521 0.2920091 0.18137772 -1.3680923 -0.1659929 0.16213612 0.29091525 0.36472395 -0.65483373 -0.4093004 -0.42704886 -0.13479225 -0.122928135 0.21365844 -0.6675746 0.75119805 -1.0891331 0.45389643 -0.17303838 0.29879007 -0.75342774 0.67471415 0.26751092 -0.18795529 -0.24925372 0.11049667 0.040794753 -0.1631499 -0.087284096 -0.34955966 -0.23414713 0.161932 -0.14131601 0.035246316 0.5453826 -0.64183384 -0.18113057 0.22043128 0.10618209 -0.1311613 0.3209402 -0.111340426 -0.44141605 -0.0956298 -0.14723465 -0.1393776 -0.39935413 -0.65560347 -0.2568708 0.2586078 0.16758811 -0.39625728 0.37982118 -0.44741702 -0.13439463 0.41257772 -0.14932384 0.090919085 0.13344042 0.4690716 -0.023305492 -0.14267953 0.18765442 0.26591927 0.8978644 0.15218838 0.22796392 0.00072548655 0.08952298 0.2300734 0.2587633 -0.21107917 -0.5549782 -0.46072638 0.19596379 -0.058510117 0.37486297 -0.15546517 -0.09083303
FCGR3A -0.005983639 -0.31595328 0.3021602 0.0007437072 0.3525855 0.22112934 0.60022783 0.3761564 -0.5822677 0.07895884 -0.031610064 -0.5205223 0.28429514 -0.3049434 0.19043866 0.59479606 -0.33291504 0.12619263 -0.3967341 0.092586115 0.061955 0.03143236 -0.49624905 -0.21373327 -0.6416258 0.0234901 -0.15933657 0.77442706 0.14131063 -0.27404442 0.20760548 -0.10494439 0.055394806 0.2859226 -0.059964042 0.22116312 -0.069539286 -0.040707517 0.16084033 -0.056593668 0.048731044 0.74625355 -0.23411998 0.10417995 -0.08815416 0.028472312 -0.31237334 0.11265201 0.01168323 -0.11228317 0.20456564 0.30428007 -0.29317284 0.25612047 -0.071486816 0.23539996 -0.0827349 -0.12303509 0.19281618 0.028248558 -0.49096164 0.115394995 0.7346831 -0.26925254 -0.21845675 0.2192961 0.15052633 -0.31078228 0.58864963 -0.37480953 -0.97877187 -0.05106286 -0.567956 -0.36178026 0.29905352 -0.2877171 0.33175156 -0.22914717 0.09656135 0.16038378 0.057275463 0.09454924 -0.11834128 0.18499441 -0.04827127 0.3587144 0.283471 -0.1864482 -0.007727442 -0.012090192 -0.05725702 0.1396419 0.37097895 0.053693395 -0.28797176 0.034652587 -0.227568 0.01802065 -0.41353938 -0.4388816 -0.2869128 0.40149835 -0.44009453 -0.14314446 0.44345507 0.2619263 -0.024286173 0.21578138 0.0695644 -0.61932397 0.10557842 -0.0137863625 0.040947307 -0.29707706 -0.1419592 -0.12815414 -0.13294673 0.1797172 0.11172752 0.09484325 -0.63674426 -0.015316862 -0.91639113 0.064523 -0.39285913 -0.13131033 -0.2783538 -0.057703197
IL1A 0.46133354 -0.47853485 0.14831336 0.049727015 0.2524571 0.23348911 -0.12467217 -0.34730747 -0.20790607 0.79473394 0.41981044 -0.048850026 0.094515525 -0.33333418 -0.14336987 0.5686722 -0.346081 -0.3711012 -0.3561063 -0.19162521 -0.053225446 0.010172029 0.05875422 -0.21289869 -0.16945784 0.019548355 0.21349737 -0.23637521 -0.19814229 -0.2875084 -0.07236365 0.663451 -0.44254908 -0.09440005 -0.17552157 0.080694325 0.3793197 -0.33999982 -0.5225785 0.18045914 -0.008852714 0.21141951 -0.07479072 0.54043376 0.31066343 0.4642778 0.13851157 0.47947246 -0.14841217 0.18738462 -0.036292948 0.041483674 0.11089767 -0.30899528 -0.28870487 -0.004465659 0.35267437 0.17864156 0.2540855 0.086568154 -0.34694737 -0.14848647 0.28888035 -0.4839075 0.57670295 -0.5332677 0.64183396 0.117816195 0.11612603 -0.06973409 -0.10475621 0.23316751 -0.69222075 -0.32759723 0.20134427 -0.31582382 -0.5576344 -0.056556482 -0.2873598 0.116497785 0.4252348 -0.101471044 0.6727501 0.77302575 0.52271837 -0.0012037639 0.19508596 -0.15082839 0.3252333 -0.21834084 -0.30877554 -0.3257498 0.59791976 0.041675042 -0.070496336 -0.15393922 0.11881679 -0.15095338 0.094059736 -0.15203097 0.12940226 0.47054955 0.092236154 0.42478722 0.6388622 -0.14752708 0.020064263 -0.20270991 -0.102748305 -0.193216 -0.51851785 -0.6345582 -0.5788283 0.5229131 -0.11300906 0.31858313 -0.004881852 0.28605813 -0.1194661 -0.011715602 0.03819111 -0.47453794 -0.48844406 -0.17879388 -0.055122957 0.45987183 -0.16661812 -0.5170079
RIPK2 -0.29207596 -0.123594165 0.009675015 0.4841279 -0.4879116 -0.30830908 -0.55091333 0.020586012 -0.61988014 -0.14729139 0.058843553 0.12815234 -0.0025196348 0.08050254 0.44642678 0.028044987 -0.024086466 0.45704645 0.2969295 0.8819907 0.011802482 0.05847055 0.16584809 -0.4311898 -0.17477426 0.49243057 0.041635472 0.9967133 -0.15113017 -0.13288566 -0.26922786 0.14028262 -0.49706808 -0.14691564 -0.26051798 -0.34218767 0.6595402 0.29445887 0.42824462 0.31300402 0.13369364 0.5742601 -0.35135955 0.047922984 0.3410465 0.3208439 0.08249856 0.13592122 0.16737369 -0.16746223 0.73272705 0.056936525 -0.15316153 0.2347062 -0.4175077 0.24147865 0.36542407 -0.20746768 -0.23960188 -0.34963277 -0.75959384 0.073457874 0.26806515 -0.19508637 0.072420634 0.008408159 0.21500129 -0.4981273 0.35522097 -0.22473864 -0.6566753 0.24807447 -0.70235485 -0.34583977 0.17256762 -0.08820348 0.027632602 -0.36398512 -0.3299213 0.157324 -0.20380712 0.19456708 0.6154557 0.41103446 0.1304971 0.3617109 -0.17375717 -0.43223763 -0.046256334 0.4900116 -0.122689515 -0.3487948 0.026249664 -0.45611748 0.22030425 0.06655226 -0.53160244 0.03451332 0.31123188 0.34968942 -0.27284744 0.4978419 -0.3895625 0.29342964 0.27809593 0.00825199 0.31616607 -0.18222512 0.24528779 0.446607 0.10885925 -0.16286458 -0.015082273 -0.122257724 -0.630369 0.1529692 -0.70112497 0.53600883 0.040772248 0.05329011 -0.34842277 0.2839735 -0.105808064 0.17277756 -0.31247675 0.36302117 -0.035163913 -0.29554075
IL17A 0.32755846 0.017130988 0.3475512 0.035513595 0.27337608 0.16360357 -0.05755356 0.069046415 -0.19329163 0.29786295 0.3925073 -0.1728199 0.10495304 0.16979474 0.13467461 0.6731253 -0.46723542 0.02322954 -0.1903154 -0.053380676 0.2532713 -0.2336112 -0.14636973 -0.29247606 -0.031165276 0.106943436 -0.11089031 0.28962392 0.41449168 -0.18811393 -0.18433611 0.32008278 -0.37445495 0.23437554 0.30330753 0.11191136 0.017343855 -0.3569744 -0.15240757 -0.18200569 0.6061973 0.013031199 -0.08311299 0.58549535 -0.08737436 0.47645673 -0.23026921 0.03465155 0.4127438 0.21791103 0.12043055 0.036862727 -0.19612743 -0.10732458 -0.17646955 -0.2430703 0.14618786 -0.083839364 0.029214459 0.111889586 -0.5206393 0.45807984 0.2639176 -0.11699205 0.45206738 -0.229958 -0.04836912 -0.117713235 -0.14057505 -0.027872896 -0.35459608 0.279724 -0.7577162 -0.07041785 0.0953871 -0.5443156 -0.45349565 -0.15247004 -0.061202597 0.3594787 -0.18862778 -0.19321793 -0.10716114 0.25498632 -0.051501162 -0.25251225 0.33524048 -0.6490374 -0.33993733 0.27589536 -0.4345688 -0.057400785 0.7405865 -0.13512969 -0.089171596 -0.22888489 -0.38226748 0.52764565 0.013608816 -0.2949592 -0.46175176 -0.1667897 -0.07804363 0.1364514 0.1688292 0.50840276 -0.25496292 0.092911266 0.3417235 -0.124383226 -0.21615821 -0.4145177 0.16852556 -0.118409686 -0.11384077 0.4519387 0.09875741 0.03743038 0.20572034 0.042603824 -0.3453894 -0.18071564 -0.45609397 0.29692423 -0.1724772 0.046129815 -0.114883594 -0.40408123
Erysipelotrichia -0.17123209 -0.31433433 0.7907437 -0.003151789 0.45302877 -0.012970224 -0.10288547 -0.07045216 -0.016908342 0.01681469 0.03772998 -0.67392546 -0.51488274 0.26048696 -0.36537263 -0.22764945 -0.40713567 0.08293401 -0.570862 0.816165 0.27026403 0.042897113 0.100743234 -0.3311174 -0.16264243 0.6880096 -0.74739856 0.14208578 0.047665365 -0.2979127 0.014892896 -0.19628926 0.0010553739 -0.036895018 0.024373401 -0.41418475 0.007879994 -0.5454025 -0.2196312 0.63475436 -0.47516546 -0.3327507 -0.31906712 -0.344427 0.07362052 -0.28046608 0.101777315 -0.37938312 0.59899455 0.057914622 0.27731913 -0.39145133 -0.17691335 0.03223731 0.08564581 -0.0016600342 0.8220584 -1.2638137 0.16329598 0.87954265 0.54983926 0.37578222 0.14133428 -0.39361185 0.22718836 0.27363765 0.6112977 1.0967354 -0.3882067 -0.13014214 0.42140156 0.65841305 0.098837696 -0.31212065 0.66267085 -0.45503542 0.30093703 -0.22802642 -0.28217614 0.19526054 -0.26012626 -0.46849442 0.67493 -0.014577571 0.28669444 0.055337604 -0.11551364 0.14223336 -0.18781774 -0.056248713 -0.06427626 -0.5085407 0.53689015 0.37479785 0.015251048 -0.48193452 -0.05973842 0.02777032 -0.14455584 0.42905647 -0.275828 -0.045565028 0.2805241 -0.09731461 0.9390884 -0.75823134 -0.93748564 0.3191994 0.22831081 -0.06913864 0.5624662 0.13383584 -0.15240672 0.03905171 0.19585738 0.44913942 0.2174987 -0.115833506 0.50494444 -0.30069098 -0.120010175 0.3652782 -0.33382925 0.008233169 -0.44833565 0.004950857 -0.2597879 -0.17177716
FADS2 0.5013798 -0.37871155 -0.13335356 -0.018871965 -0.3184807 0.38276097 -0.018115513 0.6400578 0.05331006 0.34182838 -0.12257968 0.04918949 -0.52739596 -0.1501967 0.17659992 0.13221273 0.08278027 0.4986831 -0.60850126 0.7531794 -0.22329332 0.07930437 -0.2828766 -0.5418804 0.02670712 0.3121297 0.15885717 -0.13938719 -0.033587676 0.12117749 0.08991182 -0.13554007 0.52202904 -0.35585892 -0.5923489 0.23933437 0.27263215 -0.03631994 0.1263889 0.64628947 -0.3958102 0.127047 -1.1045045 -0.38168275 0.16059594 0.70627 -0.742556 -0.20224442 -0.19602104 -0.5451027 0.3231633 -0.5417344 -0.14428891 0.4025544 -0.023154883 -0.073236726 0.5555552 -0.25478128 0.1396999 -0.38311204 -0.020218957 0.17265993 0.2814985 0.48800144 0.37982556 0.41535243 -0.34068125 0.41850004 -0.162387 -0.58925927 0.04255454 0.003238114 -0.25290996 -0.891362 0.3245336 -0.009864745 -0.654325 0.4068327 -0.10335228 -0.13350388 -0.5855796 -0.6091123 -0.07873853 0.35144663 -0.08181704 0.9326149 0.20088057 -0.31377164 0.38558474 -0.09579278 -0.24520685 0.63356584 0.17589505 -0.26015034 0.20636153 0.22862557 -0.26579648 -0.33108017 0.20299375 0.114060014 -0.42887184 -0.031132875 -0.395749 0.19534302 -0.470647 0.11303792 -0.39895827 0.41261357 -0.21024242 0.02226423 -0.1755005 -0.26150328 0.03112796 -0.23058416 0.29554382 0.032437902 -0.12058783 0.48571986 0.8409722 0.7370555 -0.53214014 -0.16641016 -0.40262562 0.5953697 -0.54880255 0.06803014 0.2188103 -0.005065279
Erysipelotrichales -0.029967906 -0.11000454 0.85074884 0.01377572 0.48067397 0.07325521 0.0008219841 -0.10072298 -0.0292029 0.046162337 0.03162674 -0.66309947 -0.5326668 0.26965317 -0.42561898 0.059392016 -0.50858206 0.005648886 -0.5933734 0.6523149 0.15303105 0.12987947 0.29588297 -0.24543865 -0.08931622 0.3703348 -1.1536303 0.1476939 -0.3086312 -0.36708093 0.035095148 -0.1967959 0.022890469 -0.066075176 0.09527978 -0.18270867 -0.038936973 -0.42366895 -0.12112996 0.37980115 -0.317122 -0.07260064 -0.5237142 -0.21887624 -0.055938113 -0.20886146 0.38612607 -0.35372728 0.6867295 0.2780188 0.13093355 -0.43978024 0.25844887 0.031192064 0.047533855 0.08210541 0.86489034 -1.0392778 -0.09112966 1.0594728 0.3442541 0.32763374 -0.18939056 -0.3828521 0.22619715 0.29642496 0.33362377 1.114252 -0.43171293 -0.35844594 0.46922812 0.56743264 -0.15257688 -0.2943307 0.5841962 -0.42081752 0.033153728 -0.11894278 -0.38373303 0.28505895 -0.11850838 -0.5137017 0.66795975 0.23361066 0.4075964 0.21210484 -0.11964559 -0.097519875 -0.24161702 -0.10006382 -0.19982396 -0.5167701 0.50642645 0.114525914 -0.14929752 -0.4641009 0.116359234 -0.33362597 -0.16873027 0.4107772 -0.25571182 -0.0035324781 0.34845474 -0.20584041 0.7537893 -0.61897033 -0.6148111 0.378442 -0.12063542 -0.07244719 0.844865 0.060984734 -0.12667698 0.037362535 0.3193662 0.30137706 0.4497322 -0.2674359 0.46187153 -0.16658601 0.17594072 0.22298414 -0.40633047 -0.14920877 -0.40688935 0.108292036 -0.16135523 0.014698355
CDKN2A 0.15379506 -0.13215986 0.37291956 0.31158108 0.43729874 -0.428482 -0.607987 0.032728605 -0.43619916 0.09047707 0.22105531 0.12176086 0.5189146 -0.30119693 -0.19169632 0.06335854 0.23546633 -0.49540573 -0.1461619 1.1144078 0.17725955 -0.3769261 -0.14722407 -0.92360514 0.61739916 -0.22033916 0.20285106 0.75270236 0.04953244 0.24504077 -0.11176966 -0.35984144 0.74184775 0.8801192 0.5775044 -0.28005046 0.26128557 -0.7056026 0.22307234 0.22467972 0.26026836 -0.5142735 -0.3853357 -0.12491268 0.38376892 0.14194643 -0.15690938 -0.20875521 -0.35873768 -0.6019373 0.04073601 0.15954599 0.5270677 0.2019738 -0.2344623 0.2114799 0.44471565 -0.38367626 0.8301516 -0.07635529 -0.4405094 -0.23462814 0.39924744 -0.73747873 0.45954147 -0.4416671 0.6220259 0.2760068 -0.076765925 0.08696523 0.36896652 -0.8813147 -0.19379316 0.31665924 0.41796905 -0.022605078 -0.068729125 -0.2019766 -0.05276339 -0.34258848 -0.28179312 -0.013799877 -0.4811296 0.18945484 0.15347363 0.19026066 -0.15528361 0.34784937 0.18659715 0.66945636 0.0073953466 -0.05294051 -0.6559016 -0.5656648 0.6340986 0.72186387 -0.8117756 -0.34913853 -0.14098014 0.2474607 -0.47854534 0.72103804 -0.19695973 0.003695945 0.3869597 -0.25427252 -0.22693737 -0.21131451 -0.06450591 -0.021748932 -0.36853033 0.66327596 -0.45383716 -0.030513698 -0.08453005 0.06286154 0.5635414 0.73702323 0.17974982 -0.5247617 0.6075379 -0.27354822 0.14335325 0.64807445 -0.6993644 0.22539586 0.16810033 -0.5417608
CD44 0.24705836 -0.4261209 0.3005476 0.10305627 0.26141232 0.25679672 0.3161428 0.21449225 -0.4082466 0.48290977 -0.059844058 0.13448395 -0.27139258 0.0700682 -0.072740965 0.28202018 -0.19807498 -0.34496275 0.111186974 0.11924467 -0.059115484 0.5224473 -0.08294421 -0.1668227 0.069668494 0.29128647 -0.17884187 -0.09797793 -0.36523992 -0.24624027 -0.46264863 0.46962374 -0.09246088 -0.10391424 0.3610758 -0.12841927 0.6253948 0.4181515 0.4388945 0.06586374 0.21526451 0.43708146 -0.7441701 0.14065436 0.21508138 0.13608563 -0.28478336 0.15196504 -0.06377379 0.35475636 -0.20508344 0.18567674 -0.15825629 -0.19309376 -0.58967084 -0.1429787 0.47619048 0.13619599 -0.49698302 0.2693142 -0.14701729 -0.36999995 -0.05391067 -0.2309939 -0.35075817 0.28866717 0.16969858 -0.42530954 -0.155404 -0.82974124 -0.595444 -0.6104541 -0.49539477 -0.014171031 0.2632601 -0.31418595 -0.08693003 -0.35727412 -0.10228245 -0.2064604 0.039586753 -0.14148244 0.1027933 0.7416076 0.5646097 0.18054132 0.4308862 -0.3819903 0.037589587 0.023444116 -0.049448844 0.30762318 0.60549855 -0.42516142 -0.19269611 0.21209174 -0.015494573 -0.46984887 -0.08670632 -0.0523925 -0.21038657 0.6589054 -0.16323131 0.12609042 0.3555365 0.23725836 0.3886532 0.5871052 0.3367072 -0.18705434 -0.2486483 0.09331053 0.2809092 -0.402614 -0.053373337 -0.16319415 -0.17006092 0.08108958 0.55472994 0.2632863 -0.030578472 0.28523967 -0.046218872 0.57962954 -0.3821549 0.4549121 -0.35937393 -0.5695083
IRF1 0.587423 -0.29218128 0.25601554 0.37654376 0.15392677 0.07701814 0.21652819 -0.15502194 -0.29145083 0.59450024 0.34174338 -0.35910204 -0.14450899 0.09030393 0.16421895 0.5591534 -0.22467904 -0.33870035 -0.21486168 0.20079242 -0.13750087 0.07309686 0.026378509 -0.3847318 -0.20606907 -0.2534258 0.009314559 0.43217945 0.2315101 -0.06268061 -0.6048786 -0.0037793512 -0.08102884 0.0653897 0.55963343 0.32778108 0.10534472 0.31607148 0.19361846 -0.42338738 0.47487178 0.30518886 0.050708096 0.11669265 0.5617639 0.03781264 -0.24112901 0.41288328 0.07194317 0.42433557 -0.052376397 -0.18857297 -0.2678673 0.15132537 -0.09041069 -0.008983953 0.35543436 -0.44872332 -0.1944002 0.24650697 -0.107192494 0.04319758 0.15884934 -0.2884477 0.31993324 0.17173393 0.09449909 -0.1202112 -0.26459396 0.120496795 -0.40850323 0.3151341 -0.8191201 0.13106713 0.5473654 -0.06539518 -0.37665352 -0.25539038 0.03835259 0.35351095 0.28161824 -0.065564096 -0.17822926 0.3803826 0.21706611 0.26563707 0.3871637 -0.5912261 -0.045596514 0.32804155 -0.26253393 -0.09666969 0.7778067 -0.22732683 -0.14011833 -0.37101853 -0.13514845 0.35886624 -0.33146363 -0.016512135 -0.178562 0.18150884 0.02827395 0.22111055 0.29307154 0.34136993 -0.16442803 0.007195797 0.011072632 -0.014703753 -0.2972167 -0.19449435 0.33641812 0.31748775 -0.05812737 0.02525479 -0.4211734 0.2928034 0.04467732 0.021688536 -0.6257947 -0.20612092 -0.113354534 0.04617048 -0.19486687 0.02546186 0.14986499 -0.5749552
IL1R2 -0.0034240833 0.1402331 0.2729229 0.2500039 0.015570851 0.31314805 0.14400814 -0.30082247 -0.28292167 0.47829214 0.4551941 0.35755593 0.03603712 -0.07770053 0.17722611 0.7335565 -0.54542375 -0.06057307 -0.02177325 -0.1479333 0.10573794 -0.13225321 -0.3364766 -0.6011033 0.070539095 -0.114690624 0.008004198 0.62095016 -0.10793032 -0.03995507 -0.040729146 -0.37553784 -0.08837489 0.48905602 0.09657293 0.03173268 0.18080808 0.010279119 -0.118825085 -0.39042386 0.3409874 0.123115696 -0.0039915703 0.12515864 0.15444131 0.03485531 -0.3240342 0.067902975 0.07735364 0.29526612 0.12769572 0.26911587 0.026890477 -0.32910803 -0.062296458 -0.20665346 0.09434145 -0.3994823 -0.22652106 0.3688849 -0.6008617 0.30960366 0.48250428 -0.28822824 0.1274693 -0.066236734 0.26361698 -0.079412274 0.0048154527 0.06651763 -0.5858297 0.09709228 -0.7349834 0.06344964 0.4716914 -0.56852466 -0.39043948 0.11705285 -0.20583689 0.37145057 0.08872573 0.3020616 0.38119623 0.36863434 0.23314744 -0.01548418 0.36867347 -0.6100354 -0.29751003 0.36374274 -0.6022058 -0.095953025 0.59680206 -0.04424256 -0.5937405 0.0735467 -0.24787247 0.102611825 -0.32479858 -0.23555614 -0.11916717 -0.07670279 -0.48304108 -0.12644295 0.3400541 0.62781566 0.0830409 0.48073727 0.3285585 -0.26188836 0.029848514 0.0049334755 0.2480782 -0.20560867 0.25453496 -0.0636045 0.04699468 0.23730089 0.24656229 0.35729393 -0.35234842 -0.054265194 -0.23252703 0.07529579 -0.023692776 0.06614012 -0.172442 -0.3552243
IKBKG 0.49631456 -0.11731692 0.8234177 0.14603479 0.60466844 0.08588427 -0.24126415 0.08663529 0.8917562 -0.21123259 0.36475047 0.04127993 -0.23940514 -0.53156084 -0.3532797 0.2931059 0.443158 0.25831676 0.28983945 0.34424695 0.46765184 0.29238585 -0.27086967 -0.1476931 -0.5957968 0.87889344 -0.3739727 -0.121184945 -0.677461 -0.2773138 -0.23797911 0.24363162 -0.12238647 -0.21632934 0.1550041 0.54495174 0.8005944 -0.5021317 -0.44040272 -0.2564807 0.008779949 -0.56638753 0.34072074 -0.2617739 0.27290857 0.3174666 0.42912856 -0.3390564 -0.01586402 0.0010060616 0.23219012 -0.19252472 0.41568366 0.06571846 -0.2329732 -0.20227909 0.242079 -0.65043205 -0.0033301455 -1.0367464 -0.14225776 0.137508 0.49153492 0.02275462 -0.14929771 -0.32941887 0.26219946 0.084858365 -0.38790795 -0.30088118 0.07253134 -0.026445325 -1.1192863 -0.006172666 0.26709607 -0.25255623 0.35523656 0.5316308 0.089355916 0.58019227 -0.42976233 0.090850204 0.05583432 0.30700713 0.33252418 0.29266864 0.065828115 -0.2596001 0.1894784 0.44986314 0.06844451 -0.8798332 0.21645053 0.06831564 0.40919164 -0.17628181 0.20757954 -0.082740806 0.12829366 0.48495626 -0.56796384 -0.29938492 -0.0712976 -0.105259895 -0.1656085 -0.39527178 0.066048585 0.12796472 -0.0466031 -0.97019356 0.40805072 0.32274932 0.2614374 0.19087496 -0.022333892 0.006477228 0.6143214 0.14747459 -0.27497467 -0.1367639 0.43348208 -0.05070563 0.10255934 -0.44615975 -0.08431835 -0.8004787 -0.13035789 0.5379672
CCL3 0.32184845 -0.23820311 0.59643346 0.06369075 0.0007349822 0.22442433 -0.07579154 0.06992066 0.01955385 0.6276436 0.20536849 0.102052316 -0.034254443 -0.034362093 0.3277882 0.19670364 -0.14702073 0.06004683 -0.31153622 -0.036965992 0.12135477 0.28438777 0.075450726 -0.27794892 -0.48669612 0.21793184 -0.10761323 0.5117665 -0.12388385 -0.15141791 -0.16231541 0.004558468 0.16721003 -0.20686056 -0.0062597864 0.25616458 0.16140105 0.05624217 -0.26433414 0.3933089 0.020759683 0.35107684 -0.46460474 0.3350678 0.12327386 0.74095964 0.36666474 0.27494198 0.045960482 -0.4034626 0.2706918 -0.33238897 -0.093923956 -0.058655255 0.3065342 0.20385586 0.640995 0.40650395 0.06696587 0.07592439 0.19729719 0.15900081 0.6530593 -0.22829667 0.5843513 -0.22499534 0.19715706 -0.16286363 -0.18096307 -0.25925994 -0.22269528 -0.6584982 0.03626915 -1.0301673 0.10003501 0.0831293 -0.4545617 -0.12673934 -0.003933088 -0.25010365 0.16804416 -0.12908843 0.4187861 0.047759704 0.5250135 0.07115863 0.13986856 -0.55925715 0.46726757 0.041160535 -0.70329946 -0.010466282 0.10976564 -0.20936204 0.41410002 0.43825346 0.20794702 -0.0008051542 0.124916255 -0.11416816 -0.31379145 -0.23943393 0.12327036 0.24031152 -0.08520637 0.14684139 -0.45740616 0.27870366 0.010352122 -0.15402552 -0.57874715 -0.44053894 0.16376835 -0.16183357 -0.29044026 0.0071718213 -0.06672685 -0.021486647 0.3920407 0.17666198 -0.17681201 -0.24972127 -0.47593617 0.30789068 -0.37718043 0.43599287 -0.53000784 -0.10710626
CASP3 0.1713884 -0.95550513 -0.6920048 0.8360181 0.22079061 -0.3019813 0.09967644 0.32509592 -0.10088293 -0.43249035 0.39709905 -0.61489743 -0.051886316 -0.38770452 -0.3408651 0.6916381 0.15489519 -0.055014897 -0.3683339 0.3006018 0.668686 0.10307101 -0.98174554 -0.85843843 0.5098012 0.2439946 -0.4082434 -0.45547214 0.29903603 0.0223051 -0.39448813 0.6057097 -0.608502 -0.39411053 0.32657143 0.29203895 -0.09493133 -0.47644737 -0.23029532 -0.09193785 -0.085283756 -0.19095382 -0.096420966 -0.24693553 0.4524945 0.44523245 -0.12559478 -0.36306334 -0.8586255 0.18822777 0.36221144 -0.8062166 0.63789445 -0.23881094 -0.33784887 -0.31044412 0.7921526 -0.06287233 0.03527504 -0.108263254 0.41377297 -0.59331375 -0.270991 -0.24822204 -0.31334215 0.49079192 -0.23429881 0.58731914 0.15606996 -0.20381784 0.15019134 -0.991984 -0.57325673 -0.11621879 0.18389562 -0.7310531 0.31510174 -0.28113157 -0.048748225 0.16800563 -0.55309516 -0.1710496 0.3565122 0.33339977 0.6483384 -0.035294734 0.31710157 0.007971029 0.20518652 -0.37800345 0.58955294 -0.72098994 -0.5162468 -0.15301824 -0.2925472 0.5913346 0.38479602 -0.15682274 -0.37845445 -0.30001283 -0.78948474 0.20280825 0.5754494 0.006662396 0.37174544 -0.24306056 -0.3720573 0.09041534 0.21393558 -0.4926076 0.11195918 0.078497864 -0.34016478 0.058056407 0.094093695 0.2094928 0.34459504 -0.028155657 0.21034767 -0.3100275 0.12950286 -0.42072326 -0.54997 0.10392848 0.29798847 -0.2449723 -0.33765402 0.39518806
TLR4 -0.33594078 -0.4410769 0.101286076 0.60974514 0.20047247 0.6089933 0.06564749 -0.05504125 0.4218095 0.083253644 0.5023326 -0.42088532 -0.019720148 -0.27868423 0.468563 0.25974375 0.56817514 -0.7410319 -0.6698061 0.08424151 0.9236685 0.50099796 0.37210953 -0.41421503 -0.21876305 0.056587137 -0.22680542 -0.1563389 -0.14835145 -0.6939077 -0.8078339 0.11208399 0.28299835 0.53154075 0.5259156 0.06395107 0.4579556 0.22770579 -0.11269725 0.2609296 0.14863227 0.649665 0.69365287 -0.24146111 0.07067278 0.68476933 0.38625276 -0.0208878 -0.74167544 0.15408757 -0.13377051 0.3678127 0.075836204 0.1517232 0.21737406 -0.6573585 0.04342028 -0.38744605 0.581154 0.06269914 -0.06944971 0.6278441 -0.123948164 0.49796447 0.3703516 0.16545036 0.21457936 0.39869586 -0.35385683 -0.33529547 -0.20745902 0.030750077 -0.846389 0.13842538 0.058876354 0.27393928 -0.5574841 -0.2153481 -0.6729825 -0.20097244 -0.60901254 -0.5598714 0.36955875 0.015091476 0.041333612 -0.08999292 0.14003143 -0.64223105 -0.07005069 -0.10786235 0.6836161 -0.23308297 -0.05726825 0.34542653 -0.034135774 -0.23014036 -0.17680955 0.43778846 -0.2568071 0.33182147 -0.31908253 0.22768676 -0.23142537 1.0271019 -0.10029947 -0.52206236 -0.058726568 0.37661412 0.2746525 -0.63906306 -0.3243159 0.3048206 -0.005634694 0.3638985 -0.51055807 -0.16662733 0.2581257 0.29484165 -0.014271049 -0.12821004 -0.4839296 -0.1925083 -0.61933434 0.29934648 -0.09183562 0.7828078 0.11576063 0.3818868
CXCL1 0.013576055 0.23804055 -0.050856367 0.5143581 0.026041534 -0.23506299 -0.33063886 0.030347288 -0.18185207 0.60367686 0.20890188 -0.38051063 0.010761675 0.3674807 0.14846909 0.68144524 -0.5477229 -0.1757017 -0.27244714 -0.26315096 0.4667274 0.19411963 -0.28193963 0.3052671 -0.04079036 0.13000724 -0.12552501 0.5433639 0.54303175 -0.37071648 -0.08624076 0.52675444 -0.15161936 0.014672288 0.13564996 0.2616129 0.5617291 -0.09562278 0.4126618 0.013563883 0.00020725282 0.5420944 0.08892526 0.35544443 0.09111176 0.25185227 -0.16996871 0.19868737 0.22392502 0.16531847 0.07198621 -0.35158822 0.07491095 -0.102858864 -0.22426118 -0.21779333 -0.15351196 0.051938266 -0.10596089 0.3570387 -0.4139984 0.035853222 0.7312506 -0.2519139 0.14948161 -0.11521932 -0.02297117 -0.15316032 -0.44331774 -0.30165094 -0.19503595 -0.2306564 -0.5123041 -0.24350376 0.3119247 -0.31784734 -0.30907986 -0.31605235 0.066759504 0.17252484 0.3673026 0.10659069 0.19424303 -0.26405245 0.26330054 0.04359298 0.10480801 -0.3040689 -0.33086655 0.3969294 -0.6156577 -0.33292627 0.3218648 -0.46921828 -0.10565558 0.38153175 -0.13977392 0.07604081 -0.3507318 0.21383758 -0.47154874 0.18372807 -0.53730744 0.16753662 0.06641785 0.04687367 -0.051147856 0.055608064 -0.019015675 -0.2161165 -0.041368343 -0.09146295 0.3450834 -0.21799782 -0.54375696 0.15177757 0.030942617 0.10408169 0.08876988 0.04585281 -0.04888629 -0.4673084 -0.34181157 0.03165942 0.14226082 -0.041541692 -0.35926995 -0.23075224
IFNGR1 -0.13912651 0.16611941 0.61247903 0.5427845 0.5364518 0.20604597 -0.16146934 0.10455681 -0.4958162 -0.12850069 -0.13612027 0.042858668 0.13009362 -0.4584552 0.6426545 0.12601508 -0.022251954 -0.052161664 0.37097305 0.022013703 0.49976784 0.17010877 -0.23895966 -0.36493587 -0.3916797 0.08710319 -0.17151935 0.060028132 0.120768905 -0.61861473 0.3378341 -0.007977479 -0.28195688 -0.025205757 -0.11926587 -0.10026889 0.5144962 -0.3863602 0.19913238 0.11914496 0.0535267 0.24334437 0.30148906 0.3363974 -0.46995944 0.5236994 0.014192611 0.32267255 0.34268492 -0.3742368 -0.2880206 0.013623625 0.2621055 0.19051442 -0.026863867 0.021456469 0.42245385 -0.12114796 -0.22604273 0.08752507 -0.7878533 -0.3172666 0.020056738 0.1830114 0.26295882 0.07949575 0.36658213 -0.64946747 -0.0148261925 -0.47262546 -0.212931 0.27865225 -0.6208562 -0.76214355 0.31854817 -0.5762645 -0.2536588 0.057622354 0.12760608 0.028708754 0.10684988 -0.33103302 0.4093568 0.21634607 0.23833436 -0.085218534 0.23275417 -0.55138344 -0.14603227 0.053619403 0.22514232 0.22697549 0.0851498 -0.34402 -0.11191665 0.22760524 0.061675347 -0.041019563 -0.23808946 -0.50063527 -0.44579405 0.321496 0.032563783 -0.24468762 0.4024343 0.41986412 -0.19621016 -0.07361562 0.424621 -0.45878068 0.1964766 -0.46878463 -0.09678896 -0.2416155 0.007753433 -0.22184008 -0.14693293 -0.17023656 0.041351967 0.14134362 -0.50497776 -0.27894005 -0.9366213 0.08182399 -0.080967404 -0.09587939 -0.5668448 0.0025140115
GUSB 0.035997704 -0.7003991 0.15547657 0.20178764 0.011892902 -0.27088344 -0.7219541 -0.2687994 -0.285987 0.30366954 -0.4492041 -0.050910488 0.13503388 -0.11609692 -0.08723954 0.75598156 0.26749185 0.3172654 -1.189171 0.79031456 -0.034701943 -0.29778504 -0.12828149 -0.68764687 -0.08762354 0.5137179 -0.1918416 -0.3933574 -0.12624313 -0.40749255 0.15919268 0.670279 0.6063571 0.8980568 0.076981135 0.34012902 -0.21873151 0.064797476 0.5533336 0.26257136 0.42441043 0.40331325 -0.3484759 -0.35787833 0.5655914 0.6470007 -0.43425244 -0.21766038 -0.72455335 -0.19940028 -0.08947464 -0.30694392 0.57610315 1.0283327 0.10471321 0.53588843 0.23702036 -0.41225168 0.39103714 0.6372901 0.010569016 0.58637124 0.1572136 -0.093241476 0.18455072 -0.35947937 0.8921469 0.12989171 -0.04320333 -0.10132125 0.39454716 0.121456966 0.029132102 0.14252068 -0.03296222 0.11138666 -0.28109363 -0.0348677 0.15257569 0.6166445 0.12209818 -0.86489725 0.06826268 1.0843174 0.49222675 0.62687296 0.43792832 -0.07567413 0.08691717 0.70283186 0.22196597 0.29678342 0.011190754 0.12548657 -0.14774641 -0.07847935 -0.64493984 -0.337668 -0.3402295 0.9760096 -0.8945545 -0.56342685 0.116933525 -0.21383205 0.5701298 0.19105686 0.18604048 0.5475993 -0.051973715 0.78290576 0.25340864 0.4757226 0.4194735 0.2527894 0.32413328 -0.47610226 0.35108945 0.19198793 0.22445932 0.363078 -0.048005573 -0.90951926 -0.22627807 0.4210362 -0.6924402 -0.45107993 0.31121004 -0.4361757
ATG16L2 0.46760064 0.1483022 0.34834594 0.090575814 0.25564966 0.6311596 0.5773815 0.26493952 -0.14927797 0.47865093 -0.052100528 0.036202285 -0.14636275 0.3009728 0.33736792 0.39711478 -0.018001849 0.10878166 -0.16355784 0.3076665 -0.07614309 0.36701655 -0.2762278 -0.2697325 -0.29542977 0.3834895 -0.11567489 0.39310178 0.12327867 -0.17210805 -0.27918667 0.50125533 -0.15881743 0.06318253 0.05462626 -0.012268369 0.6120747 0.53913856 0.1565281 -0.23827423 0.55921656 0.36197338 -0.043379545 0.08494429 0.03227936 -0.12195621 0.01153071 0.13767424 0.4245031 0.014140356 -0.19619943 -0.041225124 -0.104527265 -0.022608332 0.60063934 0.42278892 0.30245554 -0.36957327 -0.012404474 0.27141836 -0.59815276 0.16983576 0.36104202 -0.19643232 0.056685623 -0.06956325 -0.04540762 -0.3054641 -0.28384313 -0.27033213 -0.72543603 -0.23251931 -0.80104965 -0.059700213 0.36172 -0.27989992 -0.09087575 -0.73550844 0.1299805 0.076201156 -0.0834718 -0.30289897 0.31827375 0.36088887 -0.070003666 0.37629244 -0.015693054 -0.33869308 -0.07973467 0.19621743 -0.05826062 0.163444 0.5313853 -0.26898775 -0.3475632 -0.20334278 -0.4929212 -0.08209856 -0.27784124 -0.003097441 -0.081588924 0.2610723 -0.44197333 0.37689245 -0.08021501 0.11226099 -0.07923504 0.038546443 -0.16439806 -0.6130183 -0.15894099 -0.15254985 0.28600702 -0.017438505 0.15998524 -0.24587432 -0.47287923 -0.29510063 0.44733852 0.06551252 0.06328758 -0.24634448 -0.19615912 0.10800817 -0.53120846 -0.15199591 -0.19473016 -0.34414652
BAX -0.62827325 -0.7154255 0.123990074 0.31734905 -0.37512827 0.4415192 -0.025868455 -0.023060417 -0.2225134 -0.5807154 -0.24803954 -0.2061847 0.40047953 -0.25632054 0.11830926 0.54643035 0.24006002 -0.25826705 -0.22701016 0.42607686 -0.028876912 0.04135742 -0.4147853 -0.5244145 -0.49064744 -0.13584623 -0.56708807 0.31875217 -0.34290057 -0.25897563 0.27104148 -0.45032525 -0.5215227 0.42124563 0.18688475 0.21989654 0.6507716 -0.27726567 -0.29515207 -0.0009815525 -0.040372275 0.14028557 0.049885478 0.5472065 0.89271724 0.42613357 -0.04047902 -0.23048034 0.06205488 0.28182447 -0.06749622 -0.06924843 0.9256917 -0.35599113 -0.59633046 -0.17266062 0.80293924 -0.048994076 0.27306712 -0.42453116 0.20699598 -0.52203876 -0.6731208 0.14871815 0.35857078 -0.49294853 0.19602588 0.46678728 0.3192248 -0.32234615 0.06407878 -0.3976699 -0.94613457 0.02397972 0.501708 -0.30923188 0.13650024 -0.41821587 -0.21873783 0.27008125 0.081093 0.14680552 -0.002205682 0.30009845 0.19876759 0.13469042 0.06453538 -0.5202726 0.7586698 0.059376225 0.4932097 -1.3405266 -0.01582867 -0.23976439 0.25574756 0.12158209 -0.45446783 -0.32982692 0.5671436 -0.4287518 -0.703869 -0.56597304 -0.8440213 0.080972664 0.4182037 0.13633183 0.078999534 0.7198815 -0.27048907 -0.31016132 -0.001848149 -0.032261036 -0.18330416 0.0038084937 0.22419362 0.09734135 0.39738455 0.8104459 0.9372684 -0.2940342 0.53916883 -0.04576403 -0.12152614 -0.23447084 -0.32129163 0.2760298 0.105119586 0.64094615
IL12A -0.11054626 -0.57471323 0.44386992 -0.053143587 0.30065906 0.029538628 -0.5946174 -0.3288116 -0.14810391 -0.05179311 0.038385198 -0.45010838 -0.029143447 0.3162894 0.16956596 0.34032896 0.20149222 0.06166656 0.22399943 0.9442414 0.09212067 0.37514648 -0.23179083 -0.19172795 -0.16988543 -0.16495508 -0.0636426 0.49880922 0.45624956 -0.043097794 -0.0041781296 -0.07451986 -0.074750744 -0.0016329377 0.41398472 -0.16209918 0.40600166 -0.12066969 -0.11419233 0.5746926 0.40151513 -0.078487314 -0.26976573 -0.07459818 0.676121 0.26159757 -0.49801043 -0.2734086 -0.88345516 -0.25058103 0.04603539 -0.047463413 0.22613665 -0.28248644 -0.38669887 -0.5025047 -0.022542326 -0.14880303 -0.53467387 0.12120554 -0.42080852 -0.21293393 0.22188634 -0.30661163 1.0167037 -0.081945136 -0.13113959 -0.074528046 0.2983889 -0.021524606 0.17796135 -0.2366443 -0.47412395 -0.064851984 -0.11733908 0.18130794 0.039688352 0.75511116 -0.38037738 0.1196493 -0.24165934 -0.21073917 0.27868283 0.047815498 0.42621988 0.068961464 -0.32133755 0.57372886 -0.44163665 0.33363816 0.58225745 -0.5984831 -0.32925043 0.28217337 0.3952635 0.18139128 -0.06618311 -0.20708838 -0.025860878 -0.01007036 -0.2863406 0.28170255 0.27658278 0.69498616 0.049633417 -0.14201604 0.10310711 -0.12355214 0.66019434 -0.22319597 -0.4451311 0.23083699 -0.20235914 0.4214254 -0.11705336 0.40644833 -0.47454715 -0.15291522 0.27341524 -0.22330679 -0.48546776 -0.8330431 -0.41318062 -0.18403625 -0.19039258 0.008045004 -0.04531741 -0.4287879
BCL2 -0.5014401 0.11307167 0.24743247 -0.014830046 0.29510108 0.3438861 0.29279092 -0.18023618 -0.12193904 -0.3778067 0.09167271 0.22679444 -0.3603989 -0.5225735 -0.34413704 0.90453297 0.17888463 0.07630942 -0.3478043 0.61369455 0.31640038 -0.11450914 -0.4824476 -0.6107856 -0.065174155 0.080463044 -0.3470623 0.496 -0.289404 -0.08455992 0.16722932 0.7194894 0.16479917 0.6737713 0.21038693 -0.036601856 0.28918564 -0.34532374 0.012700112 -0.53172386 -0.76226133 0.3504929 -0.39386955 -0.71723545 0.7543902 0.011657882 0.18279819 0.32546282 -0.16609065 0.47206545 0.07633035 -0.026293166 0.835191 -0.29718474 -0.046131603 -0.59009796 0.2447171 -0.28106022 -0.49848947 -0.35599074 -0.10073994 -0.43132502 0.3778229 0.47441208 0.06566563 -0.06848454 0.3559808 -0.10308642 -0.16766499 -0.41460577 0.26924357 -0.002851232 -1.0431848 0.04423635 -0.23488666 -0.34898466 -0.65619415 0.007335408 -0.39654782 -0.012099882 -0.1760472 -0.23449764 0.7005359 0.9522789 0.58404154 0.11980609 0.25804722 -0.1078764 0.061286543 -0.3302905 0.5258261 -0.75797033 -0.09575638 0.24032621 0.34660906 0.585788 -0.341642 -0.4188835 0.13288422 -0.5880916 -0.29055145 0.094894215 0.146187 0.76717824 0.3675649 -0.38021484 -0.2382802 0.08198152 -0.15709966 -0.2892026 -0.12832096 0.15391216 -0.63729835 -1.0648448 0.30150852 -0.5041747 0.08995986 0.07198791 0.26364854 0.009121632 0.55645245 -0.48170972 0.6154253 -0.72837406 -0.29649973 0.11191229 -0.62220603 0.16370885
Chemokine signaling pathway -0.21195471 -0.3549522 0.30819646 -0.52338463 -0.008569814 -0.13580489 0.19953157 0.07582609 -0.43571416 0.118598685 1.008577 -0.024641827 0.22372033 0.20553976 0.2282272 0.15730114 0.3460531 -0.42980924 0.1639388 -0.117201634 0.81619865 -0.47250652 -0.41836667 0.5810805 -0.15757887 0.0123438435 -0.021758039 0.8113937 -0.30475098 0.2487728 -0.39466256 -0.28826737 -0.3788584 -0.08418879 -0.29867318 0.2382318 0.43896827 0.25735605 0.5632209 -0.008307291 0.42945033 -0.5241305 -0.27068305 -0.5260446 0.8259442 -0.5753531 0.48098567 -0.4216074 -0.23232283 0.61778796 -0.10013685 -0.60328966 0.21270517 0.5729798 -0.13415167 0.2337096 1.0590001 -0.47413942 -0.19514021 -0.30855942 -0.5964065 0.61300397 0.33393088 -0.18203253 -0.3926731 -0.3112671 -0.3994535 -0.40806666 -0.2944737 -0.5114644 0.5914557 -0.06218638 -0.17512763 0.0850099 0.31848237 -0.022023953 0.2545041 -0.57076794 -0.08715876 -0.22488688 -0.30482015 -0.042950604 0.08915011 -0.79687595 1.0455786 0.50024664 0.46139356 -0.82462555 0.1322223 0.21236286 -0.24072035 0.26592186 -0.13702577 -0.44431448 0.45611432 0.111465216 -0.36223644 -0.17893463 -0.020935496 0.72276044 0.4682529 -0.6689734 0.40717897 0.21214806 0.35098314 -0.28086784 0.017648552 0.58936256 0.34884965 -0.34540847 -0.27994844 -0.021473093 0.8147197 0.22695294 0.75958264 0.05611372 0.07314037 0.66032165 0.2132392 0.10861024 -0.60577595 -1.0659345 -0.4985564 -0.32090566 0.36012003 -0.23332565 -0.50743 -0.46795627
TNFRSF10C 0.18798913 -0.1226271 -0.1130152 -8.1046026e-05 -0.045831 0.4620096 -0.004460971 -0.0721435 -0.25066292 0.55058706 0.104455605 0.18882708 0.018926239 0.23380163 0.2421665 0.48348737 -0.30839232 0.008796011 -0.06442837 0.11030052 0.14957958 0.16198133 -0.40865093 -0.008964401 -0.046952926 0.18087023 -0.05660193 0.5887212 -0.0386086 0.0886808 -0.28848633 -0.08729365 -0.20305806 -0.10905564 0.36900184 0.18271597 -0.03542053 0.20631558 0.34906214 0.090582676 0.40165582 -0.085571885 0.2498672 0.13174127 0.12065986 0.03431563 -0.25546974 0.39141548 0.5205666 -0.07832818 -0.033007808 -0.08407574 -0.3400433 0.24341047 0.07221782 0.06335578 0.1725438 -0.29758647 -0.16818905 0.37779832 -0.10978451 0.21589004 0.19282533 -0.36623222 0.41545793 -0.5220526 -0.034236103 -0.40872908 -0.2267371 -0.098323315 -0.806413 -0.09898914 -0.8379103 0.12885863 0.56637967 -0.44501612 -0.44165912 -0.46160632 -0.42435732 0.10859289 0.06834867 -0.40800744 0.028028255 0.040943146 0.053735666 0.14106682 0.23896371 -0.37397647 -0.02791702 0.34499234 -0.26475295 -0.2565456 0.50392383 -0.30531693 -0.29381093 0.32754597 -0.48836592 -0.28691512 -0.3307816 -0.1198686 -0.24812607 0.2502129 -0.5221867 -0.29469767 0.17212735 0.5956239 -0.33305466 -0.39324397 0.0939036 -0.145962 0.050651196 0.0644898 0.085866176 -0.09587841 -0.3597873 0.07317614 -0.026791783 0.09864126 0.62598205 0.2547254 -0.009562405 -0.123452954 -0.17067751 0.069267444 -0.19228078 0.06417802 -0.16944483 -0.55705756
IGF1 0.4208714 -0.5401629 0.033160932 -0.30319396 0.37425157 0.47983956 0.09524307 0.1936543 -0.48623216 0.32464886 0.30077064 -0.6802755 -0.45500293 -0.39483726 0.13256167 0.1439831 -0.977509 0.071714565 -0.10894159 -0.20852202 -0.1282721 0.28494185 -0.43358067 -0.5407201 -0.7279886 -0.10278069 -0.7652897 0.32046965 -0.07847315 -0.1944499 0.55046487 -0.33088002 0.14843099 0.3155296 0.07659413 -0.3506957 0.23071243 0.061958287 0.5085595 0.1631669 -0.34497368 -0.03203068 0.5049401 -1.2451495 0.26378837 0.16543056 -0.12438129 -0.32693413 -0.3295539 0.35708976 -0.06409618 -0.11803174 0.5012705 0.4683285 0.12269941 0.52293575 0.13719922 -0.20822711 0.2672494 -0.6071714 -0.41993812 0.18223946 0.4381696 0.5668865 0.89335674 -0.25357336 0.32127574 0.13632654 -0.683709 -0.69806844 0.20193137 -1.2037381 0.025496574 -0.35372218 -0.23421618 -0.33001047 -0.18401943 -0.16061603 -0.03692413 0.6979034 -0.43265435 0.45395046 -0.14167902 0.7855092 0.00020455281 0.19944121 0.75955915 -0.553189 -0.22204702 0.10167497 -0.011471566 -0.7171372 -0.24419191 0.23589814 0.11462884 0.42695075 -0.73729104 -0.074005686 -0.26757315 -0.8082318 0.11633785 0.0661225 -0.51877767 -0.38648117 0.4836211 -0.033742625 -0.37785155 0.27400056 -0.32983145 -0.57715905 0.39295992 0.6344526 -0.36255592 0.14786601 0.49082977 -0.09453928 0.08686104 0.21833317 0.93550056 -0.4205584 0.25981227 -0.43615595 0.39830628 -0.0027908199 0.20758565 0.3210752 0.47105446 -0.039314874
IL1RAP 0.41176513 0.18838516 -0.16720583 -0.089113526 0.18940365 -0.054409787 0.04305654 0.21196955 -0.22724202 0.4988966 0.3936116 -0.21739236 -0.13233595 -0.070056595 0.46040833 0.28003788 -0.30663943 0.022152806 -0.21277891 0.12056359 0.32722116 -0.018938957 -0.48804417 0.007576126 -0.25368345 0.24345346 -0.1564158 0.0010633268 0.2584738 -0.3354497 0.18646458 0.22815058 -0.10487823 0.16446705 0.44446823 -0.28051302 0.16374032 -0.3569566 0.00866949 -0.023859022 0.13466015 0.24057813 0.08799214 0.50717264 -0.15379901 0.41128823 -0.5754568 -0.09071612 0.30827615 0.0149915125 0.06771584 0.0660879 -0.30220485 -0.26201203 -0.1338206 -0.14615642 0.7556836 -0.28915706 -0.14041533 0.48531127 -0.27123824 0.20172955 -0.058448475 -0.14548403 0.570863 -0.10263728 -0.22664753 -0.6171406 -0.09482119 -0.14596674 -0.6048194 0.016286286 -0.55485773 -0.4609035 -0.17635846 -0.77715886 -0.12966374 -0.18220411 -0.20369337 0.10501006 -0.033225596 0.18033808 0.22185582 0.5278844 0.16657166 -0.3075169 0.38750386 -0.6801575 -0.0047963914 0.3157757 -0.268594 -0.11165283 0.8044369 -0.12408761 -0.22872567 0.33700633 -0.4650721 0.35677665 0.14277981 -0.14133579 -0.63479 0.33498207 -0.20844874 -0.41563717 0.22757456 0.42610267 -0.21975414 -0.33008003 -0.25394052 0.15802974 -0.35148975 -0.13200381 0.19194543 0.12114727 0.20694362 0.32098758 -0.2041125 -0.028372781 0.34931898 -0.055797026 -0.2176309 -0.112477995 -0.61078656 -0.077394314 -0.71986777 -0.34246105 0.47665176 -0.6524019
CCR4 0.37247446 -0.999958 0.2398954 0.40964586 -0.1353331 0.08164085 -0.6946313 -0.28222495 -0.20522109 0.20314458 0.35653493 -0.38798276 0.22593993 0.3520192 0.41247088 0.85223603 0.5065514 -0.3377855 -0.4842691 0.72825474 -0.11009546 0.008178014 -0.20228906 0.07094258 -0.3283484 0.07218235 0.87115437 0.28347018 -0.039724387 0.16001166 -0.23552634 -0.03684209 0.25669792 -0.16469269 -0.03230459 0.004234985 0.10705082 -0.38930646 -0.10946168 0.34296355 0.16764708 0.09754883 -0.25020576 -0.6606552 0.65049756 -0.059917673 -0.09030036 -0.20249759 0.33210468 -0.2391036 0.3799082 0.66231006 0.06658352 -0.28580058 0.6056998 -0.10990147 0.5688221 0.06909929 0.13814995 -0.30590764 -0.49291447 -0.028458966 -0.16940697 -0.730826 0.3840589 -0.24915928 -0.31794232 0.1251339 0.09037498 -0.016372016 -0.2903352 -0.286932 0.42682806 -0.45614177 0.6454731 0.6059354 -0.89590365 0.35646546 -0.3759054 -0.07439996 -0.02799933 0.1884835 -0.35808593 -0.6982247 0.12469957 0.7728593 -0.026475463 -0.2113717 -0.15117398 0.5354285 -0.14738172 -0.19320062 0.26855215 0.25952712 -0.2260101 0.7249891 -0.69361496 -0.5549208 0.03921143 0.41011074 -0.69503057 -0.33409688 -0.30092093 0.35121965 0.08610483 -0.06485044 0.11788258 -0.7126317 -0.09347269 -0.34470895 0.4289759 -0.030539026 0.14460199 0.43916017 0.118459105 0.22789721 -0.039854947 0.31767341 0.39880157 0.12095916 -0.34084082 0.04205763 -0.5416808 0.01455847 0.08534922 0.25067723 0.013546636 -0.3160414
IL12B -0.014347125 -0.19983633 0.655565 0.08592288 0.5593423 0.3868851 -0.02851309 -0.10126465 0.16580237 -0.17924355 0.28601745 -0.35005283 -0.04837386 0.11946313 0.112749904 0.55197525 -0.31588614 -0.5783299 -0.34290826 -0.3255052 -0.06680064 0.47898662 -0.1703544 -0.57805127 -0.23096645 -0.54761183 0.14256467 0.28509942 -0.191636 -0.29877213 -0.23864916 0.40842673 0.15469255 -0.11173754 0.45384008 0.1263313 0.4238738 -0.21625607 -0.402602 0.15956151 -0.007950382 0.19888312 0.22439863 -0.16944343 0.34094137 0.71275306 -0.24229304 -0.33126613 -0.2553059 0.1545937 0.2534989 0.15117644 0.2804517 -0.24565338 -0.018184004 -0.5467674 0.009005316 0.096818686 -0.4744834 0.22076264 -0.25452608 -0.025223676 0.09572835 -0.39774993 0.2764524 -0.31642646 0.19838157 0.23485285 -0.28506836 -0.06555919 -0.08888953 -0.027818656 -0.62033737 -0.22310975 0.25543153 0.5107778 -0.31157982 0.54666 -0.3319203 0.35075307 0.628907 -0.47677708 0.4096597 -0.10363854 0.16772832 -0.06159634 0.37118572 0.13347328 -0.054945536 -0.12313899 -0.13213532 -0.2322268 0.48130852 0.16808447 0.32201025 0.2137969 0.54824746 0.19517592 -0.07199976 -0.33091238 -0.51519346 0.1513703 0.32411966 0.51047176 0.29948103 0.16768341 -0.048719585 0.5452469 0.35887593 -0.39487943 -0.37694794 -0.19676171 -0.13691083 0.4444948 0.06027522 0.24289134 -0.17798015 0.17122926 0.10355654 0.024096882 -0.22558308 -0.6602269 -0.65899235 -0.07876793 -0.027307939 -0.14880358 -0.42740282 -0.47431773
Lactobacillales -0.027934099 0.33259895 0.10454345 -0.20154512 0.3490591 0.17063174 0.14645599 -0.112868264 -0.7581717 -0.26786914 0.2485769 -0.30762044 -0.153794 -0.3280458 -0.33275852 0.046314575 -0.23573183 -0.46570888 -0.8275349 0.28993347 0.12156381 0.9240342 0.37750852 0.025018726 -0.39677995 0.07722686 -0.16180803 0.4863099 0.26910344 0.27397403 -0.058748107 0.45929313 -0.043623794 -0.004355874 -0.5412701 0.25447592 0.20507212 0.19809037 -0.41791397 0.2655649 0.2867586 0.3003376 -0.10066599 -0.0002514816 -0.06352775 -0.40196568 -0.023277933 0.12982233 0.13434312 -0.0037231091 0.39792442 -0.69657105 -0.06537921 -0.42680058 -0.25259146 -0.25600645 1.3444293 0.1491938 -0.057953205 -0.32609487 -0.43107617 0.27052855 0.09744018 -0.5539728 0.41475883 0.5167035 0.6104693 0.8909177 -0.7816754 -0.61809975 0.79068214 0.108900584 -0.3529982 -0.25169864 -0.40533555 -0.8688834 1.1062623 -0.039661102 0.20568289 0.8873722 0.11750063 -0.68145216 0.5087051 -0.14975831 0.42624906 0.40275195 0.43674016 -0.048783988 -0.37901837 0.54128325 0.18297069 -0.52324396 0.348697 1.239652 -0.22300427 -0.09371372 -0.7741963 -0.31718057 -0.15403903 -0.3635625 -0.6959519 -0.42440644 0.3221881 -0.3236056 0.5164342 -0.5282535 -0.3823542 -0.01697851 -0.096607655 0.516869 -0.1715212 0.067043975 -0.34061962 -0.31824788 -0.113665015 -0.12356881 0.38368982 0.59454536 0.5861867 -0.020659983 0.39567724 -0.69757116 -0.12887846 -0.3597631 0.13011016 0.013961572 0.17379184 0.37516895
INS 0.5967114 -0.02646243 -0.6979516 0.63095516 1.2338763 0.40026802 0.018596748 -0.39312693 -0.2625465 -0.10862441 0.80388314 -0.45048267 0.597468 -0.4592658 -0.4906363 -0.21869119 -0.48976532 0.5691249 0.0123227555 0.521713 -0.056270104 0.33624005 -0.36242464 -0.66953397 -0.0486166 -0.0012630696 -0.8176584 0.28007194 0.17155194 -0.38114738 0.3673691 -0.16702259 -0.8746188 -0.22778271 0.7659118 -0.014913792 0.7595346 0.33824608 -0.75267947 0.41309252 -0.010179459 0.21234182 -0.19030868 -0.5061456 0.86160266 -0.19682524 -0.2826348 -0.14669134 -0.102637716 0.43263683 -0.17325445 0.17738079 0.45897958 0.17660588 0.5255857 -0.24718274 0.36169156 -0.69331515 -0.0061415373 -0.3768138 -0.2997311 0.18039176 0.37698746 0.56979835 0.4790303 -0.48188722 -0.15305832 0.39941162 -0.66828257 -0.059041277 0.13419983 -0.272785 -0.35007262 -0.35381094 -0.36132535 -0.048619363 -0.1712455 -0.118620284 -0.5428367 0.4809887 -0.35290158 0.03576184 0.34808865 1.0359533 0.45102322 0.41770586 0.8367588 -0.01806302 0.08582998 -0.3754147 0.0402413 -0.37896708 0.20982231 0.47266054 0.5547351 -0.09111597 -0.044631895 -0.5228748 -0.084202275 -0.3116813 -0.30466986 -0.09034941 -0.5004952 0.24883413 0.76727796 0.0051621366 -0.19688252 0.056368813 -0.7307304 -0.15608823 0.5415304 -0.29003435 0.26493654 -0.021668237 0.62189597 -0.18999992 0.47989258 0.19714218 0.34774292 -0.26358476 0.059612162 -1.3091205 -0.5565603 -0.17318743 -0.294571 -0.0537596 0.5730409 0.22539787
CSF3R 0.19161926 0.06620717 0.27993876 0.18637025 0.4173422 0.054302305 0.02458463 0.18973641 -0.36497727 0.27359366 0.36713895 0.12979257 -0.01264972 -0.012060508 0.30946454 0.70171595 -0.4667679 -0.6363774 -0.14479274 -0.2517076 0.10561327 0.15869506 -0.00024112164 -0.84111214 -0.27007458 -0.3955121 -0.15685837 0.45005226 -0.097182 -0.1510936 -0.17799106 0.09595408 0.03956156 0.42574418 0.3474532 -0.06421351 0.07244141 -0.0044278544 -0.3644165 -0.141321 0.3541696 0.20887674 0.22824115 -0.1083363 0.45447204 0.07829436 -0.0379293 0.19062743 0.4547748 0.37461343 0.35540086 -0.12409155 0.38884273 -0.088614024 -0.18820402 -0.3774378 0.05420524 -0.24136485 -0.33431572 0.22767712 -0.42150724 0.49452242 0.11739622 -0.07514542 0.0413245 -0.027632123 0.33360925 -0.24287261 -0.27002022 -0.10250662 -0.07751603 0.047633447 -0.6188764 0.014011898 0.263192 -0.14332311 -0.61810416 -0.27413952 -0.015074811 -0.03639427 0.26405466 -0.23885089 0.26576018 0.09688509 0.20245081 0.34386092 0.2359938 -0.3743179 -0.13827474 0.4713225 -0.21177772 0.07685232 0.61955154 -0.1398476 -0.25001565 -0.081298314 -0.13947904 0.11129148 -0.41239202 -0.52093035 -0.4262928 0.12696977 -0.102219425 -0.23367041 0.20923243 0.4685391 0.015519752 0.2106332 0.37887585 0.041543495 -0.12866488 -0.24015957 0.35775548 -0.10028271 0.010241687 0.1277312 -0.43325537 -0.19558609 0.20570609 0.19432423 -0.45174608 0.20248115 -0.29101112 0.13053468 -0.1698067 -0.13077673 -0.3279339 -0.8315684
